1.004054225885620693e-04 -9.177004455343522828e-06 6.924905695607571210e-07 -2.625710739936651368e-06 -3.323143072097266451e-06 8.555423911574791358e-07 -2.311377389267681463e-07 1.710237993983807135e-07 3.517362201194136440e-07 2.147555800664203062e-07 2.323758049230998869e-07 2.766665505071836160e-07 2.811688564337690680e-07 -7.910028581431608701e-07 -9.332741059597711334e-07 -5.392950869762856556e-07 1.326259205387243234e-07 -5.163706118196921568e-07 2.098367461585078231e-08 -2.052484477546714617e-07 -2.266878607669538103e-07 -1.722325981991372362e-07 -2.011464515337420505e-07 -1.564335888253591186e-07 -1.275420015716927862e-07 -1.624571725081031942e-07 -4.061384343941164824e-07 -5.045612295811548615e-08 -8.248560125444460457e-08 -3.192896931360986008e-07 -2.027190093794978487e-07 -1.798248735683526487e-07 -1.955484584093192937e-07 -1.521206489377643469e-07 -1.430024102922107536e-07 -1.233205038885127529e-07 -1.081529453360312859e-07 -1.043226366223486339e-07 -1.357583060749087504e-07
-9.177004455343522828e-06 7.277038676359212340e-06 1.077869134484643173e-06 1.740919681278326353e-07 7.549646084425739920e-07 -1.439445603523483964e-07 9.613362888614186758e-08 -5.813515093085582298e-08 -4.397949671865982228e-08 -7.423619813608878082e-08 -6.352143950838719746e-08 -4.537907211541025939e-08 -3.541761237923370560e-08 6.299102876655154966e-08 3.431191473636388616e-07 2.938103144520159917e-07 -7.218374554731234510e-08 1.990964849617613699e-07 6.425421959113233071e-08 8.172456798961904893e-08 6.513430065981818736e-08 7.987759791787563594e-08 8.204427494575523744e-08 8.253030640216126105e-08 8.689926711375851521e-08 8.095147952979802390e-08 6.300144005719995372e-08 1.143002988671742990e-07 8.129668616861247206e-08 9.463487007632157776e-08 7.173221949560450667e-08 7.440167162584418091e-08 7.358006530623969177e-08 8.087022807352213102e-08 7.921758848720942320e-08 7.617133285889516812e-08 8.011354775792681144e-08 8.006215869475484292e-08 7.908336329064110565e-08
6.924905695607569092e-07 1.077869134484643173e-06 1.669158047648172278e-06 -4.164683087379166538e-08 2.461820674356624284e-07 -3.424075149542671085e-08 2.956384505011754598e-08 -1.962657845517591041e-08 -6.308100753786735727e-08 -7.296456819767647271e-08 -5.031800626648139884e-08 -3.413310579935211505e-08 -2.430223491818476698e-08 1.636196700907760968e-07 6.244208100898066706e-08 4.139615803186416813e-08 -4.183766932756103857e-08 3.757073476588725772e-08 5.124363884280131877e-08 4.122765651295472870e-08 3.638337880875819884e-08 3.786226364787508616e-08 3.905232003848469776e-08 3.629954008634526122e-08 4.100298676081212894e-08 4.028595996170048683e-08 1.113710698463945597e-07 6.585596317476852209e-08 5.360911576955500312e-08 4.126530153380038761e-08 3.394306574973562833e-08 3.604647121576568061e-08 3.770749581372103111e-08 3.835287817457828828e-08 3.861116318165231993e-08 3.518116953271113718e-08 3.653767733001232025e-08 3.575237489110975744e-08 3.640232022723124582e-08
-2.625710739936651791e-06 1.740919681278326088e-07 -4.164683087379165877e-08 3.772210647007667493e-07 1.945896748243727573e-07 -6.038044759970427211e-08 3.382700446569425130e-08 -2.685730200110087535e-08 -1.469795639842795283e-08 -5.298319155204102288e-09 -5.412013155781965163e-09 5.956449483885860634e-09 1.324972999164732323e-08 -1.970484552448884960e-08 2.693945512098649697e-08 -2.461710437967258391e-08 1.759203287057059980e-08 1.339647466394287327e-08 -4.164559749785190152e-09 -1.581079349086755260e-09 -7.268038233354919074e-09 -1.997786560537520950e-09 -1.411763477610072640e-09 -3.680598040775558177e-09 -2.677063942647640565e-09 -1.890136039788337704e-09 -2.140136648228779022e-08 -1.800284450019727517e-09 -4.261453949786631264e-09 5.525297293281862718e-09 3.706220171799866617e-09 -1.957412216154444498e-09 -3.055536752549358835e-09 -3.503463135405013502e-09 -3.807292059440551351e-09 -4.163289572288369470e-09 -4.275038082178312606e-09 -3.759413440102670038e-09 -2.317578055510965071e-09
-3.323143072097266875e-06 7.549646084425739920e-07 2.461820674356624284e-07 1.945896748243727573e-07 2.325213829272782322e-07 -4.915262208224655053e-08 4.196268859845625593e-08 -9.489223127932143718e-09 -1.531457222429532139e-08 -1.703782474293341554e-08 -1.418319510457358054e-08 -1.028344099729787899e-08 -5.252629165965737283e-09 3.323011913028928643e-08 2.803852596555379874e-08 1.986451928812326483e-08 7.491160109790099283e-10 2.385353529296183663e-08 7.765202478253259979e-09 1.344476167746799461e-08 9.909853452239802773e-09 1.297146309027158295e-08 1.322824797462655636e-08 1.103393704332176264e-08 1.105708828562331412e-08 1.174994241545156758e-08 2.367601393408450903e-08 1.918780531646571695e-08 1.256145746345492168e-08 1.933115175815974044e-08 1.412587407168279998e-08 1.147535708210290672e-08 1.132530542455821673e-08 1.133727103786458585e-08 1.065781980170660001e-08 9.598011090405427403e-09 9.690953885261516622e-09 9.256370448382494733e-09 1.030107376869782573e-08
8.555423911574791358e-07 -1.439445603523484228e-07 -3.424075149542669761e-08 -6.038044759970425888e-08 -4.915262208224655053e-08 6.146086029986924298e-08 -9.574606687569966932e-09 3.803314765631416120e-09 -4.819141781939334082e-09 -5.534791727269794151e-09 -2.273607638748525987e-09 -5.800000684196459672e-09 -3.523977037927612001e-09 -2.010615055902874159e-08 -4.477375912437426186e-08 3.727844280624161396e-09 1.290616666389951544e-08 -1.270450131152015279e-08 -5.258664642992496375e-09 -5.475929809930273960e-09 -5.291485364642003495e-09 -4.866499514446584435e-09 -6.319480158608315012e-09 -5.932095484815092735e-09 -5.563909448460142390e-09 -6.586885893209775810e-09 3.239504292557884108e-09 -5.927401164121247306e-09 -8.481670501620741594e-09 -7.918417512242644542e-09 -5.632082698589842640e-09 -4.725382460805218420e-09 -5.550869529861645417e-09 -5.540471186730795405e-09 -5.680424020715804294e-09 -5.484899250833607931e-09 -5.604437550177047028e-09 -5.282464502499394632e-09 -5.985742423136018799e-09
-2.311377389267682522e-07 9.613362888614186758e-08 2.956384505011754267e-08 3.382700446569425792e-08 4.196268859845625593e-08 -9.574606687569966932e-09 2.034723821958683287e-08 6.062095879107139007e-09 3.889590181352574286e-09 1.434969881758759216e-09 5.127656560668553254e-10 6.987540476653773711e-10 7.277176215730218587e-10 1.613878988291865482e-08 -1.292170436325889365e-08 -5.038772027816767314e-10 3.154566155529608312e-09 -3.245904046200757563e-09 1.492214509218081459e-09 1.235573778379933052e-09 -7.840183716199418521e-10 9.013315351264280860e-10 4.304169937420083720e-11 2.785583615737775505e-10 -8.552550944713449615e-11 7.618405776142640835e-11 -4.484892863604673022e-10 3.801904510316399793e-09 1.710514322349938780e-09 5.920866397051522913e-10 6.687400481332519056e-10 -2.493940680228435234e-10 -4.997093316117855540e-10 2.052997649543870296e-10 -1.110333204882710741e-10 -1.771451375082793327e-10 9.716421452498672575e-11 -1.810577626105758277e-10 -7.501575757611944764e-11
1.710237993983807664e-07 -5.813515093085582298e-08 -1.962657845517590710e-08 -2.685730200110087535e-08 -9.489223127932143718e-09 3.803314765631416947e-09 6.062095879107139007e-09 7.773810998926934955e-09 5.464981679620008861e-09 3.435117124129075117e-09 2.127995490685134741e-09 2.154980669299485114e-10 -8.778817787663919905e-10 9.457129007909682672e-09 -1.469376202699011193e-08 -2.933716396686885808e-10 1.227868882555379489e-09 -5.948116505125586255e-09 -4.196963806927849722e-10 -5.127690085482001212e-10 -6.832289515969537568e-10 -6.400613001036516876e-10 -1.239689999440912022e-09 -8.044098827701051380e-10 -1.315198800787923032e-09 -1.225155261209185973e-09 5.887437341388798487e-11 2.402548234964721845e-11 -3.287013713589064909e-10 -1.857785737696133765e-09 -1.301391650615499199e-09 -1.197372108330312630e-09 -1.203956265854481559e-09 -8.819757920865273718e-10 -1.029314045519230124e-09 -9.575566332530867279e-10 -8.776039795158984361e-10 -1.098821194386833743e-09 -1.187506079727363626e-09
3.517362201194136440e-07 -4.397949671865981566e-08 -6.308100753786735727e-08 -1.469795639842795283e-08 -1.531457222429532139e-08 -4.819141781939333255e-09 3.889590181352574286e-09 5.464981679620008861e-09 1.079644867887771504e-08 7.581573331062775358e-09 3.724109373503257712e-09 2.972174329533385493e-09 2.405976975179463313e-09 -3.508916807977590938e-09 -2.899253629450826655e-09 -1.993231376605893586e-09 1.649011125702568978e-09 -3.608693638397131137e-09 -1.596524919910942613e-09 -1.299833716973264325e-09 -1.349429141213813162e-09 -1.066971370298825397e-09 -1.334684206603450329e-09 -8.001258612198523177e-10 -1.280920141171613616e-09 -1.386126828579160746e-09 -7.514911775714597404e-09 -1.197445583747812918e-10 -5.960361374464741254e-10 -1.909592871026687461e-09 -1.340364755410238671e-09 -1.430533252028727685e-09 -1.413767898555807710e-09 -9.159511605869508434e-10 -1.009082722579829829e-09 -7.906664690875766800e-10 -7.464690229088117321e-10 -9.862452294652608528e-10 -1.143582936701980813e-09
2.147555800664203062e-07 -7.423619813608876758e-08 -7.296456819767647271e-08 -5.298319155204106424e-09 -1.703782474293341554e-08 -5.534791727269794151e-09 1.434969881758758803e-09 3.435117124129074289e-09 7.581573331062775358e-09 7.052104206987963263e-09 4.001546045828844240e-09 2.950503871762552075e-09 2.179937123038911245e-09 -1.941625943802710734e-09 -1.979063750986654773e-09 -3.821959931629919074e-09 1.181195159719652322e-09 -2.955028781666560303e-09 -2.119020257056406145e-09 -1.738799487857050107e-09 -1.865459594916650638e-09 -1.724782977049406588e-09 -1.804648716188006858e-09 -1.370870520366561038e-09 -1.718942410515788517e-09 -1.629749011063968938e-09 -8.320917510012027742e-09 -1.900633412633055655e-09 -1.313346680392567010e-09 -2.310968979536921068e-09 -1.706364493457743415e-09 -1.799568468932528413e-09 -1.753593926277927821e-09 -1.508922448878771312e-09 -1.503809767043872395e-09 -1.328833201864235390e-09 -1.284141789535723152e-09 -1.375010172669995422e-09 -1.416981000617843440e-09
2.323758049230998869e-07 -6.352143950838718423e-08 -5.031800626648139884e-08 -5.412013155781965163e-09 -1.418319510457358385e-08 -2.273607638748525573e-09 5.127656560668552220e-10 2.127995490685134327e-09 3.724109373503257712e-09 4.001546045828844240e-09 3.881611030801873887e-09 2.801788264551555327e-09 1.978855859022958758e-09 -5.476175650576965367e-09 -5.996182787843759437e-09 -4.829732056183411509e-09 4.806361244743739860e-10 -2.457699752357986102e-09 -9.301043573937599693e-10 -1.385165630114357986e-09 -1.241586889373000044e-09 -1.045951755740819392e-09 -1.031082525583265832e-09 -9.219945657469329315e-10 -1.065019404306269517e-09 -8.880981605399478696e-10 -3.346452211530389888e-09 -1.319809469568804531e-09 -6.633627233274205486e-10 -1.395198083822081935e-09 -1.071249300180474040e-09 -1.116468564462516949e-09 -1.128948888859402651e-09 -1.008223222398613395e-09 -9.550442152114773075e-10 -7.925285446423801291e-10 -7.378257815156039974e-10 -7.514308069774948104e-10 -8.088902310972691202e-10
2.766665505071836160e-07 -4.537907211541023954e-08 -3.413310579935211505e-08 5.956449483885858980e-09 -1.028344099729787899e-08 -5.800000684196459672e-09 6.987540476653771644e-10 2.154980669299484597e-10 2.972174329533385906e-09 2.950503871762552075e-09 2.801788264551555740e-09 3.759137185304947660e-09 2.928217866164477929e-09 -5.453837514449534930e-09 5.740444094103334585e-10 -5.308967397141587353e-09 -6.104508795514213885e-10 -1.446509327114437214e-09 1.196158313717063005e-10 -1.222385836720442937e-09 -1.261862201277513767e-09 -1.048838999958446748e-09 -1.004388581751481085e-09 -8.714524245053760536e-10 -8.899691295472272136e-10 -8.226285300448398567e-10 -4.786329742299438061e-09 -1.221675717460118586e-09 -5.098787162542708838e-10 -1.184634583415268695e-09 -8.853861562686953106e-10 -1.132839384395629832e-09 -1.167508564839151371e-09 -9.964424944468125980e-10 -9.508256935060301981e-10 -7.826014944415610701e-10 -7.220637130568155241e-10 -7.133615862013093725e-10 -7.326289679983288429e-10
2.811688564337690680e-07 -3.541761237923370560e-08 -2.430223491818476036e-08 1.324972999164732323e-08 -5.252629165965738937e-09 -3.523977037927612001e-09 7.277176215730217553e-10 -8.778817787663916803e-10 2.405976975179463313e-09 2.179937123038911245e-09 1.978855859022959172e-09 2.928217866164477929e-09 3.044883428508940060e-09 -8.806659193785960764e-09 -3.541105082605095107e-10 -5.110827798952314483e-09 1.191510564477581354e-09 -1.063868281722924321e-09 -3.875220869821108680e-10 -1.270403642663275237e-09 -1.457689090690466101e-09 -9.560456981079466643e-10 -9.207873846972085883e-10 -8.915120327045453896e-10 -7.896794824121685430e-10 -8.345706016997269415e-10 -4.522726122824129688e-09 -6.675385695422881815e-10 -6.580001232726629791e-10 -9.654233519815729835e-10 -6.698664282165930191e-10 -9.832077001335332658e-10 -1.090361021914296054e-09 -9.155064925420669050e-10 -8.792116511900896820e-10 -7.410756247921249007e-10 -7.016434918375700517e-10 -6.749624568576953415e-10 -7.253361176840987880e-10
-7.910028581431607642e-07 6.299102876655153642e-08 1.636196700907761233e-07 -1.970484552448885291e-08 3.323011913028927981e-08 -2.010615055902873828e-08 1.613878988291865482e-08 9.457129007909682672e-09 -3.508916807977590111e-09 -1.941625943802711975e-09 -5.476175650576963713e-09 -5.453837514449534930e-09 -8.806659193785959110e-09 8.105845624330670362e-08 8.016855065813417777e-09 9.958615406710069141e-09 -1.054133657910650761e-08 -1.095422307888959265e-09 5.950423624712348077e-09 5.980703175227502808e-09 3.688221493579560953e-09 2.543771100069531287e-09 1.842646146239681039e-09 2.879731072540994153e-09 2.188131479612794219e-09 2.926919927377568996e-09 5.586907885079432998e-09 3.735730449060486214e-09 5.605172284679251759e-09 1.533866003589672655e-09 1.487918308429506706e-09 1.736164696139927321e-09 2.421368342959119871e-09 2.535722559420697124e-09 2.337495655347219426e-09 1.668945416337756871e-09 2.048994049137657617e-09 1.703937533577314581e-09 2.369169592333949275e-09
-9.332741059597711334e-07 3.431191473636389146e-07 6.244208100898065383e-08 2.693945512098649035e-08 2.803852596555379874e-08 -4.477375912437426186e-08 -1.292170436325889365e-08 -1.469376202699011193e-08 -2.899253629450826655e-09 -1.979063750986655187e-09 -5.996182787843759437e-09 5.740444094103331483e-10 -3.541105082605090971e-10 8.016855065813414468e-09 7.968505963703781362e-08 1.479429678150986002e-08 -1.753351825567184792e-08 2.367569386657896155e-08 5.392438233353327975e-09 6.691668174697797990e-09 7.729789606839433209e-09 5.609591107127374246e-09 7.664483104218742039e-09 7.463639622899309869e-09 7.786346265898080237e-09 7.744575862836655761e-09 -3.875569482204506485e-09 4.335612609850362539e-09 7.102211192257642399e-09 9.041558686635672099e-09 6.388170647025816352e-09 6.691407384249999877e-09 7.618505704221921433e-09 7.121602711572602457e-09 7.415039516911179793e-09 7.121547635525824645e-09 6.977561718181481737e-09 7.031617071628376730e-09 7.510602225033245611e-09
-5.392950869762856556e-07 2.938103144520159917e-07 4.139615803186416813e-08 -2.461710437967258391e-08 1.986451928812326483e-08 3.727844280624161396e-09 -5.038772027816767314e-10 -2.933716396686888910e-10 -1.993231376605893586e-09 -3.821959931629919901e-09 -4.829732056183413163e-09 -5.308967397141587353e-09 -5.110827798952313655e-09 9.958615406710069141e-09 1.479429678150986002e-08 1.903433801974197768e-08 -3.461780532603579615e-09 7.695167410341654392e-09 1.659167545683965966e-09 3.686476540077903627e-09 3.547922410453497293e-09 3.174162062056261610e-09 3.102501857602577469e-09 3.369378355036727661e-09 3.303612210501755818e-09 2.898139143036882340e-09 4.582921440944565332e-09 3.662380627523410531e-09 2.396234289586573050e-09 3.254742884817867445e-09 2.417434189706792439e-09 3.104979394663564611e-09 3.198345597569092025e-09 3.308890647313564632e-09 3.180858994522099177e-09 2.979366595071017230e-09 3.018842552585402094e-09 2.974645224067784395e-09 2.891242655818721010e-09
1.326259205387242970e-07 -7.218374554731235833e-08 -4.183766932756103196e-08 1.759203287057060310e-08 7.491160109790095147e-10 1.290616666389951544e-08 3.154566155529608312e-09 1.227868882555379489e-09 1.649011125702568358e-09 1.181195159719652529e-09 4.806361244743738826e-10 -6.104508795514215953e-10 1.191510564477581354e-09 -1.054133657910650761e-08 -1.753351825567184792e-08 -3.461780532603579615e-09 8.516567490932982673e-09 -5.153144418638962081e-09 -3.592596603954992804e-09 -2.704223429070863351e-09 -3.367128840155109534e-09 -2.340310397465609469e-09 -2.901986167974008368e-09 -2.876094204008060889e-09 -2.864016007926546901e-09 -3.109558424850816816e-09 -3.830354609751029155e-09 -1.951529302602617055e-09 -3.610803753586636459e-09 -2.892044334741535268e-09 -2.048517384898758582e-09 -2.444284830361985785e-09 -2.847505839601819966e-09 -2.700454594015972722e-09 -2.824417469277333816e-09 -2.733247858755931347e-09 -2.775527666893046744e-09 -2.734776513237063695e-09 -2.875594253342179531e-09
-5.163706118196921568e-07 1.990964849617613963e-07 3.757073476588725772e-08 1.339647466394287327e-08 2.385353529296183994e-08 -1.270450131152015279e-08 -3.245904046200757563e-09 -5.948116505125586255e-09 -3.608693638397131137e-09 -2.955028781666559889e-09 -2.457699752357986516e-09 -1.446509327114437628e-09 -1.063868281722924321e-09 -1.095422307888959472e-09 2.367569386657896155e-08 7.695167410341656046e-09 -5.153144418638962081e-09 1.037297675023132735e-08 2.123823260126333907e-09 3.303812275525332781e-09 3.662330490949894117e-09 3.343056001578383652e-09 4.129579103190983469e-09 3.724303633656802421e-09 3.964789606886278798e-09 3.997431107429102081e-09 3.537944324932497533e-09 3.402665870869064700e-09 3.552364163204075672e-09 4.928467560436286001e-09 3.516485195837597217e-09 3.683487777779367575e-09 3.925920441081368583e-09 3.707205967850173821e-09 3.808474928317024552e-09 3.640997037723419650e-09 3.613180978007811129e-09 3.664668672345996292e-09 3.795021076231806683e-09
2.098367461585079555e-08 6.425421959113233071e-08 5.124363884280131877e-08 -4.164559749785190979e-09 7.765202478253259979e-09 -5.258664642992496375e-09 1.492214509218081459e-09 -4.196963806927850756e-10 -1.596524919910942407e-09 -2.119020257056406145e-09 -9.301043573937599693e-10 1.196158313717063005e-10 -3.875220869821108680e-10 5.950423624712348077e-09 5.392438233353327975e-09 1.659167545683965552e-09 -3.592596603954992804e-09 2.123823260126333494e-09 2.783598768511914780e-09 1.776711013643840107e-09 1.753705222121006216e-09 1.676844219724506621e-09 1.789379399953511305e-09 1.730191198294590945e-09 1.832086500141150461e-09 1.877119408947229331e-09 3.789030562215276232e-09 2.454095245302034504e-09 2.501355447357075567e-09 1.870626753875106643e-09 1.445071945650419286e-09 1.514911633374948718e-09 1.616835194188384208e-09 1.694566091352841304e-09 1.711202667184065797e-09 1.641350489309065996e-09 1.723132127762902649e-09 1.678269445758456116e-09 1.712521380245092522e-09
-2.052484477546714617e-07 8.172456798961904893e-08 4.122765651295472870e-08 -1.581079349086754846e-09 1.344476167746799461e-08 -5.475929809930273960e-09 1.235573778379933052e-09 -5.127690085482002246e-10 -1.299833716973264325e-09 -1.738799487857050107e-09 -1.385165630114357986e-09 -1.222385836720443144e-09 -1.270403642663275237e-09 5.980703175227502808e-09 6.691668174697797163e-09 3.686476540077904455e-09 -2.704223429070863351e-09 3.303812275525332781e-09 1.776711013643840107e-09 2.085871209246775711e-09 2.152897035490296425e-09 1.997556057030916774e-09 2.187831528108679523e-09 2.048229677575361871e-09 2.056103915794925666e-09 2.127250598568728409e-09 4.109937902765743031e-09 2.647501989195919007e-09 2.447449355113956932e-09 2.458490609511930232e-09 1.822068774559233417e-09 1.931326756965019976e-09 2.075760576544460409e-09 2.054372300411462921e-09 2.051768004016258027e-09 1.930505174043585133e-09 1.953265062671935793e-09 1.885288859041744036e-09 1.951202818178157648e-09
-2.266878607669538103e-07 6.513430065981818736e-08 3.638337880875819884e-08 -7.268038233354920728e-09 9.909853452239804427e-09 -5.291485364642003495e-09 -7.840183716199418521e-10 -6.832289515969537568e-10 -1.349429141213813162e-09 -1.865459594916650638e-09 -1.241586889373000044e-09 -1.261862201277513973e-09 -1.457689090690466515e-09 3.688221493579560126e-09 7.729789606839433209e-09 3.547922410453498121e-09 -3.367128840155109947e-09 3.662330490949894117e-09 1.753705222121006216e-09 2.152897035490296425e-09 2.693749607934352837e-09 2.220092281371303489e-09 2.547609053578981962e-09 2.293548839881400506e-09 2.261149113719900862e-09 2.373025452007342582e-09 5.516477717439251625e-09 2.529498668999333218e-09 2.567080721265577747e-09 2.840472507043799209e-09 2.027141936071520386e-09 2.236802275627129330e-09 2.443933695914838882e-09 2.309790701507752104e-09 2.329344263155237946e-09 2.221532888536246552e-09 2.182109745421257885e-09 2.101175785550989677e-09 2.164494259739814259e-09
-1.722325981991372626e-07 7.987759791787563594e-08 3.786226364787508616e-08 -1.997786560537520950e-09 1.297146309027158295e-08 -4.866499514446584435e-09 9.013315351264282928e-10 -6.400613001036517910e-10 -1.066971370298825397e-09 -1.724782977049406588e-09 -1.045951755740819392e-09 -1.048838999958446955e-09 -9.560456981079468711e-10 2.543771100069531287e-09 5.609591107127374246e-09 3.174162062056261610e-09 -2.340310397465609469e-09 3.343056001578383652e-09 1.676844219724506621e-09 1.997556057030916774e-09 2.220092281371303489e-09 2.121703016563705242e-09 2.354044679152060083e-09 2.129432178555204931e-09 2.153130418277957407e-09 2.218425209419373104e-09 4.724557500384106796e-09 2.863345573494911248e-09 2.509234558928979028e-09 2.652523940040419386e-09 1.949085210988659400e-09 2.058306290136772986e-09 2.184770914697157738e-09 2.161567490092014122e-09 2.165817966820553603e-09 2.068406037723693288e-09 2.075693270425499415e-09 2.003287340199921030e-09 2.037658720139278043e-09
-2.011464515337420505e-07 8.204427494575523744e-08 3.905232003848469776e-08 -1.411763477610075535e-09 1.322824797462655636e-08 -6.319480158608315012e-09 4.304169937420076612e-11 -1.239689999440912229e-09 -1.334684206603450329e-09 -1.804648716188007272e-09 -1.031082525583265832e-09 -1.004388581751481085e-09 -9.207873846972085883e-10 1.842646146239680832e-09 7.664483104218742039e-09 3.102501857602577469e-09 -2.901986167974008368e-09 4.129579103190983469e-09 1.789379399953511512e-09 2.187831528108679523e-09 2.547609053578981962e-09 2.354044679152060083e-09 2.704169226105310933e-09 2.413179979894592838e-09 2.456479121544124094e-09 2.555442478958870675e-09 5.101057317970129605e-09 3.002087828335636064e-09 2.802918064925112897e-09 3.058742870074755922e-09 2.224079818378020063e-09 2.357106112506370679e-09 2.525178271033868757e-09 2.448278444073355621e-09 2.477911287446619113e-09 2.371959937085156853e-09 2.363912381721176545e-09 2.297293822217703578e-09 2.349201694873852803e-09
-1.564335888253591186e-07 8.253030640216126105e-08 3.629954008634526122e-08 -3.680598040775559831e-09 1.103393704332176430e-08 -5.932095484815092735e-09 2.785583615737776022e-10 -8.044098827701052414e-10 -8.001258612198523177e-10 -1.370870520366560832e-09 -9.219945657469329315e-10 -8.714524245053758468e-10 -8.915120327045453896e-10 2.879731072540993326e-09 7.463639622899311524e-09 3.369378355036727661e-09 -2.876094204008060889e-09 3.724303633656802421e-09 1.730191198294590945e-09 2.048229677575361871e-09 2.293548839881400506e-09 2.129432178555204931e-09 2.413179979894592838e-09 2.229355818306888500e-09 2.256814041201026536e-09 2.322689793879929608e-09 4.124843407012559553e-09 2.806438501442006608e-09 2.622874754419526261e-09 2.656213481242914211e-09 1.954204842156030742e-09 2.106436129554464334e-09 2.264979085684096696e-09 2.242964347702423563e-09 2.265738503050867105e-09 2.170951522597678392e-09 2.184772947987217490e-09 2.117170554959506336e-09 2.154100023657159795e-09
-1.275420015716927862e-07 8.689926711375851521e-08 4.100298676081212232e-08 -2.677063942647642219e-09 1.105708828562331412e-08 -5.563909448460142390e-09 -8.552550944713463832e-11 -1.315198800787923032e-09 -1.280920141171613823e-09 -1.718942410515788517e-09 -1.065019404306269517e-09 -8.899691295472275238e-10 -7.896794824121685430e-10 2.188131479612793806e-09 7.786346265898078582e-09 3.303612210501755818e-09 -2.864016007926546488e-09 3.964789606886278798e-09 1.832086500141150461e-09 2.056103915794925666e-09 2.261149113719900449e-09 2.153130418277956993e-09 2.456479121544124094e-09 2.256814041201026122e-09 2.348975193601361752e-09 2.391567403584783063e-09 4.172467960288900457e-09 2.891396441276044408e-09 2.672198218582750373e-09 2.695413460540467412e-09 2.002117900200607699e-09 2.160130944790148865e-09 2.305468531472915609e-09 2.283369298937433077e-09 2.320242417467313863e-09 2.220764477760157641e-09 2.243088809777306672e-09 2.197190147437576427e-09 2.226126484820606032e-09
-1.624571725081031942e-07 8.095147952979802390e-08 4.028595996170048683e-08 -1.890136039788338118e-09 1.174994241545156758e-08 -6.586885893209775810e-09 7.618405776142646005e-11 -1.225155261209186387e-09 -1.386126828579160746e-09 -1.629749011063968938e-09 -8.880981605399478696e-10 -8.226285300448396499e-10 -8.345706016997269415e-10 2.926919927377568996e-09 7.744575862836657415e-09 2.898139143036882754e-09 -3.109558424850816816e-09 3.997431107429102081e-09 1.877119408947229745e-09 2.127250598568728409e-09 2.373025452007342582e-09 2.218425209419373518e-09 2.555442478958870675e-09 2.322689793879929608e-09 2.391567403584783063e-09 2.494204889203846102e-09 4.490550670845370991e-09 2.874500995410865508e-09 2.797761513434561405e-09 2.829872729906427914e-09 2.081442896133105890e-09 2.226881311221046705e-09 2.395644782249205007e-09 2.342782007668207331e-09 2.385747186302659465e-09 2.279426484658769606e-09 2.298721432244694034e-09 2.247492490037277089e-09 2.300970431356658735e-09
-4.061384343941162706e-07 6.300144005719995372e-08 1.113710698463945597e-07 -2.140136648228779353e-08 2.367601393408450903e-08 3.239504292557883694e-09 -4.484892863604672505e-10 5.887437341388748081e-11 -7.514911775714597404e-09 -8.320917510012027742e-09 -3.346452211530389888e-09 -4.786329742299438061e-09 -4.522726122824129688e-09 5.586907885079432998e-09 -3.875569482204506485e-09 4.582921440944565332e-09 -3.830354609751030809e-09 3.537944324932497533e-09 3.789030562215276232e-09 4.109937902765743031e-09 5.516477717439251625e-09 4.724557500384106796e-09 5.101057317970129605e-09 4.124843407012559553e-09 4.172467960288900457e-09 4.490550670845370991e-09 2.052196956373045316e-08 5.656389088457287918e-09 4.876091077909263484e-09 5.778261010908944946e-09 4.124345572258653932e-09 4.592444134461486633e-09 4.835118654295281464e-09 4.377947322359680574e-09 4.372580109616630411e-09 4.097131955564548305e-09 3.964781781374995554e-09 3.815663574493825784e-09 3.880435976366776429e-09
-5.045612295811548615e-08 1.143002988671742990e-07 6.585596317476852209e-08 -1.800284450019726689e-09 1.918780531646571695e-08 -5.927401164121247306e-09 3.801904510316400620e-09 2.402548234964718291e-11 -1.197445583747813952e-10 -1.900633412633055655e-09 -1.319809469568804738e-09 -1.221675717460118586e-09 -6.675385695422881815e-10 3.735730449060486214e-09 4.335612609850363366e-09 3.662380627523410531e-09 -1.951529302602617055e-09 3.402665870869064700e-09 2.454095245302034917e-09 2.647501989195919007e-09 2.529498668999333218e-09 2.863345573494911248e-09 3.002087828335636064e-09 2.806438501442007022e-09 2.891396441276044822e-09 2.874500995410865508e-09 5.656389088457288745e-09 4.890796061039133993e-09 3.697814351608818123e-09 3.271748925132645511e-09 2.546913895332564995e-09 2.613075594382030899e-09 2.709052919504338123e-09 2.891982318129724546e-09 2.867847619519039476e-09 2.742039969489824203e-09 2.822310209624560351e-09 2.684337333193159274e-09 2.666776541717234459e-09
-8.248560125444460457e-08 8.129668616861248529e-08 5.360911576955500312e-08 -4.261453949786632091e-09 1.256145746345492334e-08 -8.481670501620741594e-09 1.710514322349938986e-09 -3.287013713589064909e-10 -5.960361374464742288e-10 -1.313346680392567010e-09 -6.633627233274205486e-10 -5.098787162542708838e-10 -6.580001232726630825e-10 5.605172284679250931e-09 7.102211192257642399e-09 2.396234289586573050e-09 -3.610803753586636459e-09 3.552364163204075672e-09 2.501355447357075567e-09 2.447449355113957346e-09 2.567080721265577747e-09 2.509234558928979028e-09 2.802918064925112897e-09 2.622874754419526261e-09 2.672198218582750373e-09 2.797761513434561405e-09 4.876091077909262657e-09 3.697814351608817296e-09 3.508168823894553691e-09 2.996821741230631229e-09 2.266269579113134649e-09 2.396737098487092495e-09 2.591010062255281872e-09 2.637360157727807617e-09 2.672825613787458450e-09 2.558279711465095818e-09 2.622679634736671201e-09 2.522143749470347666e-09 2.572719633011712901e-09
-3.192896931360986537e-07 9.463487007632159100e-08 4.126530153380038761e-08 5.525297293281862718e-09 1.933115175815974044e-08 -7.918417512242644542e-09 5.920866397051523947e-10 -1.857785737696133765e-09 -1.909592871026687461e-09 -2.310968979536920655e-09 -1.395198083822081935e-09 -1.184634583415268901e-09 -9.654233519815727767e-10 1.533866003589672448e-09 9.041558686635673753e-09 3.254742884817867445e-09 -2.892044334741535268e-09 4.928467560436286001e-09 1.870626753875106643e-09 2.458490609511930645e-09 2.840472507043799209e-09 2.652523940040419386e-09 3.058742870074755922e-09 2.656213481242914211e-09 2.695413460540467826e-09 2.829872729906427914e-09 5.778261010908945773e-09 3.271748925132645511e-09 2.996821741230631229e-09 3.641919199105334194e-09 2.615668069163018342e-09 2.656119991046106661e-09 2.827322118925274057e-09 2.700942225755125186e-09 2.718002466731795301e-09 2.590235254411915115e-09 2.558210474293338099e-09 2.486404573590613924e-09 2.578987592390860737e-09
-2.027190093794978487e-07 7.173221949560451991e-08 3.394306574973562833e-08 3.706220171799866617e-09 1.412587407168279998e-08 -5.632082698589842640e-09 6.687400481332520090e-10 -1.301391650615499199e-09 -1.340364755410238671e-09 -1.706364493457743415e-09 -1.071249300180473833e-09 -8.853861562686953106e-10 -6.698664282165928124e-10 1.487918308429506706e-09 6.388170647025816352e-09 2.417434189706792439e-09 -2.048517384898758582e-09 3.516485195837597217e-09 1.445071945650419492e-09 1.822068774559233210e-09 2.027141936071520386e-09 1.949085210988659400e-09 2.224079818378020063e-09 1.954204842156030742e-09 2.002117900200608113e-09 2.081442896133105476e-09 4.124345572258653932e-09 2.546913895332564995e-09 2.266269579113134649e-09 2.615668069163018342e-09 1.904356262662067508e-09 1.937268260212355021e-09 2.055050784115176824e-09 1.992164205861089115e-09 2.004478533482236360e-09 1.907508151146694419e-09 1.898335946159378737e-09 1.845136527042264087e-09 1.903880749684924502e-09
-1.798248735683526487e-07 7.440167162584418091e-08 3.604647121576568061e-08 -1.957412216154444498e-09 1.147535708210290672e-08 -4.725382460805217593e-09 -2.493940680228431099e-10 -1.197372108330312837e-09 -1.430533252028727478e-09 -1.799568468932528413e-09 -1.116468564462517156e-09 -1.132839384395629832e-09 -9.832077001335332658e-10 1.736164696139926908e-09 6.691407384249998222e-09 3.104979394663564611e-09 -2.444284830361985785e-09 3.683487777779367575e-09 1.514911633374948718e-09 1.931326756965019976e-09 2.236802275627129330e-09 2.058306290136772986e-09 2.357106112506370679e-09 2.106436129554464334e-09 2.160130944790148865e-09 2.226881311221046705e-09 4.592444134461486633e-09 2.613075594382030899e-09 2.396737098487092495e-09 2.656119991046106661e-09 1.937268260212355021e-09 2.080542575021160032e-09 2.223452445822583808e-09 2.146229413461455559e-09 2.172534046629338877e-09 2.071131212333761756e-09 2.061514645257284355e-09 2.011396693398225297e-09 2.051832981736709097e-09
-1.955484584093192673e-07 7.358006530623969177e-08 3.770749581372103111e-08 -3.055536752549358835e-09 1.132530542455821673e-08 -5.550869529861646244e-09 -4.997093316117853472e-10 -1.203956265854481559e-09 -1.413767898555807710e-09 -1.753593926277927821e-09 -1.128948888859402858e-09 -1.167508564839151371e-09 -1.090361021914295847e-09 2.421368342959119458e-09 7.618505704221921433e-09 3.198345597569092025e-09 -2.847505839601819966e-09 3.925920441081368583e-09 1.616835194188384208e-09 2.075760576544460409e-09 2.443933695914838882e-09 2.184770914697157738e-09 2.525178271033868757e-09 2.264979085684096283e-09 2.305468531472915609e-09 2.395644782249205007e-09 4.835118654295281464e-09 2.709052919504338123e-09 2.591010062255281872e-09 2.827322118925274057e-09 2.055050784115176824e-09 2.223452445822583394e-09 2.398765856608218011e-09 2.300745096411122675e-09 2.334669552100162797e-09 2.224617795825443861e-09 2.209775016921282087e-09 2.151744837186022451e-09 2.204542684837111374e-09
-1.521206489377643469e-07 8.087022807352213102e-08 3.835287817457828828e-08 -3.503463135405013502e-09 1.133727103786458750e-08 -5.540471186730797059e-09 2.052997649543874690e-10 -8.819757920865273718e-10 -9.159511605869508434e-10 -1.508922448878771312e-09 -1.008223222398613395e-09 -9.964424944468125980e-10 -9.155064925420669050e-10 2.535722559420697537e-09 7.121602711572604111e-09 3.308890647313564632e-09 -2.700454594015972722e-09 3.707205967850173821e-09 1.694566091352841718e-09 2.054372300411463334e-09 2.309790701507751691e-09 2.161567490092014535e-09 2.448278444073355208e-09 2.242964347702423563e-09 2.283369298937433490e-09 2.342782007668207331e-09 4.377947322359679747e-09 2.891982318129724132e-09 2.637360157727807617e-09 2.700942225755124772e-09 1.992164205861089115e-09 2.146229413461455559e-09 2.300745096411122675e-09 2.271840371369761958e-09 2.295331258038925582e-09 2.195733068322690771e-09 2.204809379383879162e-09 2.137385997963163866e-09 2.170411001959656697e-09
-1.430024102922108065e-07 7.921758848720942320e-08 3.861116318165231993e-08 -3.807292059440549696e-09 1.065781980170660166e-08 -5.680424020715805121e-09 -1.110333204882710353e-10 -1.029314045519230331e-09 -1.009082722579829829e-09 -1.503809767043872395e-09 -9.550442152114773075e-10 -9.508256935060301981e-10 -8.792116511900898887e-10 2.337495655347218186e-09 7.415039516911179793e-09 3.180858994522100004e-09 -2.824417469277334230e-09 3.808474928317024552e-09 1.711202667184066210e-09 2.051768004016258027e-09 2.329344263155237532e-09 2.165817966820553603e-09 2.477911287446619113e-09 2.265738503050867105e-09 2.320242417467313863e-09 2.385747186302659465e-09 4.372580109616630411e-09 2.867847619519039889e-09 2.672825613787458450e-09 2.718002466731795301e-09 2.004478533482236360e-09 2.172534046629338877e-09 2.334669552100163211e-09 2.295331258038925582e-09 2.329404320923151402e-09 2.229730275747523944e-09 2.239281324329510716e-09 2.178512639613707410e-09 2.212151029869890171e-09
-1.233205038885127529e-07 7.617133285889518135e-08 3.518116953271113718e-08 -4.163289572288371125e-09 9.598011090405427403e-09 -5.484899250833607931e-09 -1.771451375082793327e-10 -9.575566332530869347e-10 -7.906664690875766800e-10 -1.328833201864235597e-09 -7.925285446423801291e-10 -7.826014944415610701e-10 -7.410756247921249007e-10 1.668945416337756871e-09 7.121547635525824645e-09 2.979366595071017644e-09 -2.733247858755931347e-09 3.640997037723419650e-09 1.641350489309065996e-09 1.930505174043585133e-09 2.221532888536246552e-09 2.068406037723693288e-09 2.371959937085156853e-09 2.170951522597678392e-09 2.220764477760157641e-09 2.279426484658769606e-09 4.097131955564548305e-09 2.742039969489823789e-09 2.558279711465096232e-09 2.590235254411915115e-09 1.907508151146694419e-09 2.071131212333761756e-09 2.224617795825444274e-09 2.195733068322690771e-09 2.229730275747523530e-09 2.143750869925169223e-09 2.153299996505389385e-09 2.093707254919790441e-09 2.118311233465170632e-09
-1.081529453360312859e-07 8.011354775792681144e-08 3.653767733001232025e-08 -4.275038082178313434e-09 9.690953885261514968e-09 -5.604437550177047028e-09 9.716421452498704887e-11 -8.776039795158984361e-10 -7.464690229088117321e-10 -1.284141789535723152e-09 -7.378257815156039974e-10 -7.220637130568155241e-10 -7.016434918375699483e-10 2.048994049137657617e-09 6.977561718181481737e-09 3.018842552585401680e-09 -2.775527666893046744e-09 3.613180978007811129e-09 1.723132127762902235e-09 1.953265062671935379e-09 2.182109745421257471e-09 2.075693270425499001e-09 2.363912381721176131e-09 2.184772947987217490e-09 2.243088809777306672e-09 2.298721432244694034e-09 3.964781781374995554e-09 2.822310209624559938e-09 2.622679634736671201e-09 2.558210474293337685e-09 1.898335946159378737e-09 2.061514645257284355e-09 2.209775016921281673e-09 2.204809379383879162e-09 2.239281324329510302e-09 2.153299996505389385e-09 2.177885789468174436e-09 2.119517007621773285e-09 2.140446244907364569e-09
-1.043226366223486339e-07 8.006215869475485615e-08 3.575237489110975744e-08 -3.759413440102669211e-09 9.256370448382494733e-09 -5.282464502499394632e-09 -1.810577626105758277e-10 -1.098821194386833950e-09 -9.862452294652608528e-10 -1.375010172669995422e-09 -7.514308069774949138e-10 -7.133615862013095793e-10 -6.749624568576953415e-10 1.703937533577313961e-09 7.031617071628376730e-09 2.974645224067784395e-09 -2.734776513237063695e-09 3.664668672345996292e-09 1.678269445758456116e-09 1.885288859041744036e-09 2.101175785550989677e-09 2.003287340199921030e-09 2.297293822217703578e-09 2.117170554959506336e-09 2.197190147437576427e-09 2.247492490037277089e-09 3.815663574493825784e-09 2.684337333193159274e-09 2.522143749470347666e-09 2.486404573590613924e-09 1.845136527042264087e-09 2.011396693398225297e-09 2.151744837186022451e-09 2.137385997963164279e-09 2.178512639613707410e-09 2.093707254919790441e-09 2.119517007621773285e-09 2.076287126458790485e-09 2.096284126993978211e-09
-1.357583060749087768e-07 7.908336329064111889e-08 3.640232022723124582e-08 -2.317578055510964244e-09 1.030107376869782738e-08 -5.985742423136018799e-09 -7.501575757611881433e-11 -1.187506079727363626e-09 -1.143582936701980606e-09 -1.416981000617843647e-09 -8.088902310972691202e-10 -7.326289679983289463e-10 -7.253361176840988914e-10 2.369169592333949689e-09 7.510602225033245611e-09 2.891242655818721010e-09 -2.875594253342179531e-09 3.795021076231806683e-09 1.712521380245092108e-09 1.951202818178157648e-09 2.164494259739813845e-09 2.037658720139278457e-09 2.349201694873852803e-09 2.154100023657159795e-09 2.226126484820606032e-09 2.300970431356658322e-09 3.880435976366776429e-09 2.666776541717234459e-09 2.572719633011713314e-09 2.578987592390860737e-09 1.903880749684924502e-09 2.051832981736709097e-09 2.204542684837111374e-09 2.170411001959656697e-09 2.212151029869889757e-09 2.118311233465170219e-09 2.140446244907364569e-09 2.096284126993977798e-09 2.135819480111114275e-09
