1.859774748018595705e-04 -3.291814257378462540e-05 4.439884649503219891e-06 -3.611017737845430038e-06 4.950588234254762068e-06 2.166395787729997333e-06 2.180155537981041996e-07 4.631970533337544025e-07 -5.366513570231572756e-07 -3.794111224949432955e-07 1.452935798210304506e-07 6.206124200691310163e-10 -1.297240542969746100e-07 -3.581666874735128307e-06 -7.199273970146046969e-07 -2.802622336548769554e-07 6.420919976773390472e-07 -2.873694983468381184e-07 -2.102673214946536482e-07 -2.822903055368955558e-07 -1.544688841843346264e-07 -1.057691854940801763e-07 -4.989265444259803585e-09 -7.905954732485407831e-09 -2.909026949841980972e-08 -8.109980884275872300e-08 1.267558854423451756e-07 -6.899783439120180583e-06 3.158308386694181654e-06 1.965107147251183199e-06 -4.810032930051796197e-07 -1.564036160290321457e-07 -3.585225532175730188e-07 -8.093698283993873493e-08 1.056475819150490274e-08 5.665036427894478888e-09 -4.382222604619998721e-09 -4.260609240841690104e-08 -8.804414051141655912e-08
-3.291814257378462540e-05 1.923708123276613845e-05 -6.097106756434860977e-07 -1.531547252965798041e-07 1.473822095110843129e-06 1.120823379677233257e-07 -2.950942314915115929e-07 4.806352802724658281e-08 -4.638319802861349037e-08 1.481085213238160395e-07 5.633142972876233015e-08 3.080594708309027038e-08 2.532606727995503268e-08 3.828309429255857472e-07 6.851763327401870272e-08 -6.672973079509563972e-07 3.040052443587434272e-07 5.107627784734511779e-08 1.617749759739166759e-07 1.389026301133729423e-07 1.261116046056461902e-07 1.260270093151466023e-07 7.760107437636348447e-08 8.990479618755626669e-08 8.658742701774615436e-08 9.349720786410810231e-08 -7.144383862173846585e-07 2.052761662085675384e-06 -2.124716454823996441e-07 -4.733361154719704286e-07 1.094253718745308111e-07 2.825163303639752780e-08 7.610309902525401441e-08 8.034292223989290116e-08 9.150889868288419864e-08 6.989471335522160604e-08 8.216539121878754862e-08 8.761400082554577898e-08 9.453633362928094373e-08
4.439884649503220738e-06 -6.097106756434862035e-07 2.280314902311238931e-06 -6.197514385870183990e-07 3.158713006873594939e-07 -9.383346555420382043e-08 -8.433548082113487645e-08 -5.180331032953013151e-08 -9.799063232455950924e-09 2.314420945664940062e-08 1.566674342585841524e-08 -3.401162541600635857e-09 -4.241157986500501374e-09 2.189448546348562820e-07 1.394145209845186639e-07 -2.392168732101443609e-08 4.640657455996938666e-09 -1.405195368310626452e-07 9.303697265526677140e-08 -3.352058396078709784e-09 -1.285482890131675906e-08 1.121039399463807778e-09 -8.155538680692246007e-10 -1.972199752875709319e-09 -2.105347861823900943e-09 -9.376274450017084277e-10 7.816088307760700224e-07 -1.019843032662163102e-07 8.330334272471919074e-08 -9.034679515257456823e-08 5.395130073952750657e-08 2.858609153143076197e-08 1.242784939101291639e-08 2.110909310298276501e-09 1.995007498379199715e-09 -2.182537219924737127e-09 -4.020348193588910113e-09 -3.640576825112365534e-09 -1.696359387223755108e-09
-3.611017737845430885e-06 -1.531547252965797776e-07 -6.197514385870183990e-07 1.186557622528111287e-06 -2.659750035082771370e-07 9.790196062233426974e-08 -1.389303811784893267e-08 -3.758091435393497674e-08 8.059408695623536753e-08 -1.394407491711581581e-08 -2.066920265437200083e-08 7.566143256106596243e-09 3.918603990913645681e-09 -3.532825290426454220e-07 1.690447153249633840e-07 -3.810054944373648350e-08 -1.017591584411329811e-07 -1.764880756173749977e-08 -4.123373157912215091e-08 -5.818747356326078362e-09 -1.978764890733979244e-08 -1.985094630419682124e-08 -2.262753729414464216e-08 -1.921175506891767926e-08 -1.722584171299210140e-08 -1.698668504119985859e-08 -8.178556742451854094e-07 -2.435715911736693928e-07 -4.608599004534935321e-08 -1.092319712967393144e-07 2.868428188119538168e-08 -1.214515970241043757e-08 -2.158635969191921242e-08 -1.877854851880923243e-08 -2.379867221471467451e-08 -2.208765590398090280e-08 -2.007776650907343963e-08 -1.495887361218646936e-08 -1.704270038330911942e-08
4.950588234254762068e-06 1.473822095110843553e-06 3.158713006873595469e-07 -2.659750035082771370e-07 1.106289759906318386e-06 1.151355318593778293e-07 -7.090126722774472289e-08 4.831406654631599456e-08 -3.806298358937959270e-08 5.920874282365755253e-09 6.683810712293918673e-11 7.010890525628265321e-09 -1.815381062615329780e-09 -6.512795598127621871e-07 -6.678893708849235084e-08 -1.840344398333889899e-07 1.129258688201792623e-07 -1.777298748119341090e-08 5.225364984800204215e-08 3.256199285324731840e-08 4.992347815491212519e-08 3.870181967141113769e-08 3.858092416700757586e-08 3.934121061888240157e-08 3.714608146053177694e-08 3.417640001639090435e-08 -1.414863790464669558e-07 -4.410633439872559798e-08 2.071508469930799533e-07 -5.151267585981702534e-09 -1.346487801209778872e-08 7.176201950148554084e-09 2.384374864854665863e-08 3.861311827233752461e-08 4.031518826192329433e-08 3.420630050771754900e-08 3.797742364892329878e-08 3.534469475181202945e-08 3.437886474208368838e-08
2.166395787729997757e-06 1.120823379677233257e-07 -9.383346555420384690e-08 9.790196062233424327e-08 1.151355318593778293e-07 2.394626909860693478e-07 -9.772519057207939305e-08 -2.951033516845460230e-08 1.026210994676302784e-08 2.598350367733471377e-09 3.778421874227395984e-09 3.682939134344898675e-09 -2.376306262791956586e-09 -1.103984968910529116e-07 -3.602321867926693593e-08 -2.039022664007549319e-08 -1.273756665557417293e-08 -1.174143968009629267e-08 -8.062144087231235677e-09 1.250533730917502834e-09 -3.938070078400439256e-09 -2.399513568472258310e-09 4.944968259216135361e-10 1.732342890785960018e-09 1.770780207037610488e-09 1.534044088094125234e-09 -5.948703673670198263e-09 -1.854127800346669311e-07 7.245554791534094813e-08 -1.337870310985931946e-08 -1.083354681379987142e-08 -9.316240433680558882e-09 -4.927755698733371648e-09 -1.653155636269647382e-09 1.497944013359019762e-09 -1.002538210248468949e-09 1.222618635024693080e-09 1.951400468771860468e-09 1.507693258912313160e-09
2.180155537981041201e-07 -2.950942314915115929e-07 -8.433548082113487645e-08 -1.389303811784893433e-08 -7.090126722774470965e-08 -9.772519057207940628e-08 8.264887732524149254e-08 2.594796056978056683e-08 -4.282264226232378509e-09 -1.093414884239281444e-08 5.008427157082259362e-10 -1.927339871880553066e-09 9.118373501223532575e-10 5.734449930778141625e-08 7.597761981473198914e-09 2.351354272076783120e-08 3.140656309547782935e-09 8.305978006931447290e-09 -6.830443687070507536e-09 -3.230308298315111323e-09 -8.135276976767489673e-10 -1.483136998926718456e-09 -2.322244742224944267e-09 -3.259942116575361989e-09 -3.460119623989026188e-09 -3.520554974834805974e-09 -9.741586584944121106e-08 1.497377523939276615e-08 -2.183082185226967014e-08 2.534817770006158042e-08 -1.433932317043233828e-09 1.014529112319631134e-09 -3.177172502513478941e-09 -3.792860491335004143e-09 -3.420206440739916762e-09 -1.152059967305527522e-09 -2.662936236768672403e-09 -3.548995048682298101e-09 -3.527256645287806662e-09
4.631970533337545084e-07 4.806352802724659604e-08 -5.180331032953012490e-08 -3.758091435393497674e-08 4.831406654631599456e-08 -2.951033516845459568e-08 2.594796056978056683e-08 1.760781391705795297e-08 -5.989364419257623523e-09 -3.980453680674303672e-09 4.426333932119277455e-10 -8.462944665077847866e-11 9.256938969983443772e-11 -4.894332119836236774e-08 4.189786490891613580e-09 -1.053993689626191306e-08 1.695975763119708354e-08 4.839634606594441818e-09 -1.108105568323267186e-09 5.482415232629161964e-11 2.733938887966600619e-09 1.805683222796509660e-09 1.288553900965440196e-09 1.140368768344602486e-09 7.797934807016719249e-10 2.554206216227623096e-10 -6.580663159644419203e-08 2.429003650156739593e-08 1.102742414949190972e-08 1.435344315821846392e-08 -2.601441444429220758e-09 -9.277863569509189729e-10 -1.347222155333946060e-09 8.642399162937258217e-10 1.223870008348433070e-09 1.668344201173381491e-09 1.357586258271896812e-09 6.369515959480207704e-10 2.495151233285270237e-10
-5.366513570231571697e-07 -4.638319802861349037e-08 -9.799063232455949270e-09 8.059408695623536753e-08 -3.806298358937958608e-08 1.026210994676302950e-08 -4.282264226232379336e-09 -5.989364419257624351e-09 1.114148242418281734e-08 -1.720220453758839625e-09 -1.968051699753561974e-09 3.636527776811600989e-10 4.766317243061592158e-10 -3.428516931896641268e-08 1.329000905692872848e-08 3.321441333737224330e-09 -1.246064777996025771e-08 -7.595433525315829954e-09 -1.237058152579480535e-09 -6.105814025046609220e-10 -2.911929565572092918e-09 -2.804933221116851016e-09 -2.925995280345504339e-09 -2.799084246891633439e-09 -2.653481376454565101e-09 -2.522545728419219327e-09 -3.691279341965185727e-08 -1.508166051803028904e-08 -4.167205411731634112e-09 -1.686481503878924489e-08 4.067290711861515356e-09 -1.060589722771490923e-09 -1.415312796350090165e-09 -2.789030725006922321e-09 -3.117457417783357161e-09 -2.934720638116962143e-09 -2.738473805177761370e-09 -2.504877495650616270e-09 -2.526617722804677757e-09
-3.794111224949432426e-07 1.481085213238160130e-07 2.314420945664940393e-08 -1.394407491711581581e-08 5.920874282365753598e-09 2.598350367733470136e-09 -1.093414884239281444e-08 -3.980453680674303672e-09 -1.720220453758840039e-09 3.742434304373231930e-09 4.807286915639874104e-10 9.574700134999526454e-11 6.274149406588846843e-11 2.340959737966255023e-08 3.892522147743152241e-09 -2.510678595097131172e-09 1.008305214351361453e-09 1.376936911980804219e-09 2.119423753982752706e-09 1.410416178170832059e-09 1.235905642300281276e-09 1.406639217335853341e-09 1.252637588184869963e-09 1.309521544005010703e-09 1.398343351824249218e-09 1.555152644848347236e-09 2.662900033213231548e-08 1.995091636508634840e-08 -6.331958860537752607e-09 -5.107995690955243652e-09 7.005712162380064045e-10 9.157698763845304570e-10 2.260927182850790940e-09 1.705301340163211490e-09 1.406873307935565623e-09 1.063272026445203245e-09 1.145300003606341585e-09 1.398004943918501814e-09 1.566718013600139390e-09
1.452935798210304242e-07 5.633142972876231692e-08 1.566674342585841193e-08 -2.066920265437200083e-08 6.683810712293854050e-11 3.778421874227395984e-09 5.008427157082258328e-10 4.426333932119274870e-10 -1.968051699753561974e-09 4.807286915639875138e-10 1.602412739072536617e-09 -2.704765858474535353e-11 -1.300270072103035622e-10 2.470111710346720685e-08 1.046020070412628682e-09 -2.809599475826547338e-10 2.167076373650999952e-09 -1.849703299712432521e-10 3.708284481755580696e-11 -2.415314884710952543e-10 -5.211528151087344759e-10 8.461242350308003191e-11 -5.428537572422831099e-11 -5.298126498203677863e-11 -8.924903736181203941e-11 -4.524030355911710012e-11 8.347368928869945431e-09 9.169499111490589588e-10 1.052833116371550545e-09 1.748007902649720061e-09 -2.449031595327612059e-10 -1.124633828560555160e-10 -4.991047095768117674e-10 -3.877907593918659500e-10 5.834013199142857443e-11 7.208331673457018160e-12 -8.863002230409595135e-11 -1.031331074378647231e-10 -6.429223553537911552e-11
6.206124200691329808e-10 3.080594708309027700e-08 -3.401162541600635443e-09 7.566143256106594589e-09 7.010890525628266975e-09 3.682939134344898675e-09 -1.927339871880553066e-09 -8.462944665077851743e-11 3.636527776811600989e-10 9.574700134999525161e-11 -2.704765858474534707e-11 1.820648409003126763e-10 7.185456938449854374e-12 -8.118885215770872936e-09 6.833841369674418351e-10 -2.938835820200593520e-09 4.932756186410278732e-10 -4.057594713368394368e-10 1.165057642023232379e-10 1.883396082007985839e-10 1.239640968185791396e-10 1.222649837010039945e-10 4.691547616231753896e-11 1.240963412135276449e-10 1.137861216852017865e-10 8.840522587308370623e-11 -7.900492496890422370e-09 -8.898517270081083382e-10 1.838309272838914146e-09 -1.267834502675212883e-09 2.643958817173363843e-10 -1.650332858253356385e-10 -1.951932020506332248e-10 6.942251320230671697e-11 1.016334424323545870e-10 2.086886837868648063e-11 9.659676476212477099e-11 1.264702780130981169e-10 8.690809851052115373e-11
-1.297240542969746100e-07 2.532606727995503268e-08 -4.241157986500501374e-09 3.918603990913644854e-09 -1.815381062615329780e-09 -2.376306262791956586e-09 9.118373501223534643e-10 9.256938969983445064e-11 4.766317243061592158e-10 6.274149406588848135e-11 -1.300270072103035622e-10 7.185456938449854374e-12 1.201154955947636805e-10 1.095411885251452221e-09 2.807606592563628858e-10 -7.015790672392451578e-12 -4.059285573982928689e-10 9.735691393205693797e-11 2.129793050186613274e-10 2.690949158590980730e-10 2.084103771374288067e-10 1.278422803827532384e-10 2.928156021259318223e-11 2.543111919721621688e-11 3.318637601235683023e-11 6.868063031202094502e-11 -3.162565851045664747e-09 4.566215736065664746e-09 -2.093282008153873589e-09 -1.472715441881975492e-09 4.025421340407083926e-10 1.488705573817173090e-10 2.427920908833673214e-10 5.041422794178045789e-11 2.227850823933759460e-12 2.337157246998908824e-11 2.810635574697097948e-11 4.037797501883781173e-11 7.465064280656215776e-11
-3.581666874735128307e-06 3.828309429255857472e-07 2.189448546348561761e-07 -3.532825290426453161e-07 -6.512795598127621871e-07 -1.103984968910529249e-07 5.734449930778138317e-08 -4.894332119836236774e-08 -3.428516931896640606e-08 2.340959737966255354e-08 2.470111710346720354e-08 -8.118885215770872936e-09 1.095411885251452428e-09 1.287418229025695914e-06 -1.586138860030398459e-07 1.585201529003612034e-07 -6.558694160904372926e-08 3.739165071404687121e-08 1.587226658072653992e-09 -6.098521490280364977e-09 -1.608880765634139991e-08 -3.943775067801645475e-09 -5.866596919051889632e-09 -7.517812322900461783e-09 -5.918436498219701981e-09 8.358934241302848311e-11 6.932694489374739599e-07 1.263212358828586446e-07 -2.178778314630269173e-07 3.857524901329429753e-08 5.335108552141123254e-09 2.078081116920421333e-08 6.833300280190910778e-09 -1.081853371758501218e-08 -6.111798874411966796e-09 -4.703920546361378685e-09 -8.113143832332889486e-09 -5.365853111544854127e-09 1.319183889102201322e-10
-7.199273970146046969e-07 6.851763327401866302e-08 1.394145209845186639e-07 1.690447153249633575e-07 -6.678893708849235084e-08 -3.602321867926693593e-08 7.597761981473198914e-09 4.189786490891605308e-09 1.329000905692873013e-08 3.892522147743153068e-09 1.046020070412628062e-09 6.833841369674418351e-10 2.807606592563626790e-10 -1.586138860030398988e-07 3.223233560141773080e-07 -6.660313433464161171e-09 7.341095655554177089e-09 -1.473703065094545641e-08 -1.904257106197582191e-08 -5.046091772005339046e-09 -9.799989606684120687e-09 -6.080311543770918614e-09 -7.290477304067224948e-09 -7.965735939713814892e-09 -7.210348621079036097e-09 -8.459014293546040169e-09 -3.608798665328365342e-07 1.553802789789859119e-08 -1.368607454017625816e-08 -4.992237134975971433e-08 7.506197549603499696e-09 -9.880856696509699743e-09 -6.976470732981636362e-10 -3.679577108707649794e-09 -8.026463939552540149e-09 -5.950381540888470266e-09 -8.353586167253726449e-09 -7.095567125200425911e-09 -8.785707817211487362e-09
-2.802622336548770613e-07 -6.672973079509563972e-07 -2.392168732101445264e-08 -3.810054944373649012e-08 -1.840344398333889899e-07 -2.039022664007548657e-08 2.351354272076783120e-08 -1.053993689626191306e-08 3.321441333737223503e-09 -2.510678595097131172e-09 -2.809599475826550957e-10 -2.938835820200593933e-09 -7.015790672392357066e-12 1.585201529003612034e-07 -6.660313433464171925e-09 7.023702598049697100e-08 -2.928842455200530363e-08 6.518942362222729429e-09 -9.511750635080459438e-09 -3.624482338130900993e-09 -5.313447453167520758e-09 -5.141206437220659219e-09 -2.847400731699895094e-09 -4.285370051850478794e-09 -3.736642789779550011e-09 -2.918857851939288681e-09 1.089944769352869604e-07 -4.053258568734954143e-08 -4.138711030583094077e-08 1.156602840654542386e-08 -6.651962663827392934e-09 7.502467775891089991e-10 3.251378809799351903e-09 -3.757645704603772981e-09 -4.311069608519417224e-09 -2.635635353714569080e-09 -3.800533792189865582e-09 -3.777962502008929322e-09 -2.862784833729843121e-09
6.420919976773390472e-07 3.040052443587434272e-07 4.640657455996946937e-09 -1.017591584411329811e-07 1.129258688201792623e-07 -1.273756665557417458e-08 3.140656309547784589e-09 1.695975763119708354e-08 -1.246064777996025771e-08 1.008305214351361660e-09 2.167076373651000365e-09 4.932756186410278732e-10 -4.059285573982929723e-10 -6.558694160904372926e-08 7.341095655554180397e-09 -2.928842455200530363e-08 3.123563749374772341e-08 5.009562755040134996e-09 3.497110640371440171e-09 1.630381275645847632e-09 5.101381836320513634e-09 4.581374009617099487e-09 3.835762839829223840e-09 3.993189705149494460e-09 3.480247677994514105e-09 2.726171373653469005e-09 -2.756313958169000795e-08 5.361593038993170925e-08 2.451209678552531120e-08 1.399560725308280926e-08 -3.061703896030371290e-09 -9.845996298846479033e-10 8.690181517096993427e-11 3.946856012082316315e-09 4.446884644453496415e-09 3.977666482368012965e-09 3.975519229310073902e-09 3.240427902291701301e-09 2.699057666257356122e-09
-2.873694983468381184e-07 5.107627784734511779e-08 -1.405195368310626717e-07 -1.764880756173749646e-08 -1.777298748119341752e-08 -1.174143968009629433e-08 8.305978006931443982e-09 4.839634606594441818e-09 -7.595433525315828300e-09 1.376936911980804219e-09 -1.849703299712432004e-10 -4.057594713368394368e-10 9.735691393205697674e-11 3.739165071404686459e-08 -1.473703065094545972e-08 6.518942362222729429e-09 5.009562755040136651e-09 1.725606375680137226e-08 -5.368833096335537478e-09 9.978418550759871182e-10 3.267319084870852913e-09 2.134357633147028130e-09 2.475237355054084511e-09 2.306319546530825412e-09 2.360663558330718641e-09 2.364458576320221081e-09 -5.277881287226876722e-09 2.839677969008259450e-08 -1.458527243072511966e-08 1.647327154612411062e-08 -6.389673382300986594e-09 -1.860075816085952716e-10 2.116202631644891375e-09 2.599397635057410728e-09 2.267536493640458362e-09 2.528743255277310460e-09 2.371392817822914153e-09 2.366087165825065233e-09 2.437116119098462923e-09
-2.102673214946536217e-07 1.617749759739166759e-07 9.303697265526677140e-08 -4.123373157912215091e-08 5.225364984800204215e-08 -8.062144087231235677e-09 -6.830443687070505882e-09 -1.108105568323267186e-09 -1.237058152579480949e-09 2.119423753982752706e-09 3.708284481755583281e-11 1.165057642023232120e-10 2.129793050186613274e-10 1.587226658072651097e-09 -1.904257106197582191e-08 -9.511750635080457784e-09 3.497110640371440171e-09 -5.368833096335538306e-09 9.194108192628339315e-09 2.592709212447313342e-09 2.936940189430804418e-09 2.611090976248879592e-09 2.110201618787615223e-09 2.185916832316327791e-09 2.067125283013195778e-09 2.239747469972267472e-09 5.373603774630937506e-08 2.181964054420203291e-08 3.227871964064777095e-09 -7.459395252353082594e-09 3.534155148522270611e-09 2.983509012506883864e-09 2.637029961508167981e-09 2.266164693757317764e-09 2.353895054358826565e-09 1.758751159067397647e-09 2.064132489649356601e-09 1.958013985093237950e-09 2.260915711827551962e-09
-2.822903055368955558e-07 1.389026301133729423e-07 -3.352058396078709784e-09 -5.818747356326079189e-09 3.256199285324731840e-08 1.250533730917502627e-09 -3.230308298315111323e-09 5.482415232629107680e-11 -6.105814025046609220e-10 1.410416178170832059e-09 -2.415314884710954093e-10 1.883396082007985839e-10 2.690949158590980213e-10 -6.098521490280364150e-09 -5.046091772005337392e-09 -3.624482338130901820e-09 1.630381275645847425e-09 9.978418550759869114e-10 2.592709212447313342e-09 2.493583754383979432e-09 2.914118522941063712e-09 2.188313920973486894e-09 2.082351906125965754e-09 2.035536482741690780e-09 2.028708393143704241e-09 2.120116994922094754e-09 1.754943681276046445e-09 1.228612692469694697e-08 -1.489747587842127491e-09 -4.647900570107976748e-09 -1.483577543882435030e-10 9.812339222238494554e-10 2.680280627407395813e-09 2.151757305019781105e-09 2.024068217644015031e-09 1.797738117882182649e-09 1.968538269754403722e-09 1.972890039603795759e-09 2.159945336233143252e-09
-1.544688841843346529e-07 1.261116046056461638e-07 -1.285482890131675740e-08 -1.978764890733979244e-08 4.992347815491212519e-08 -3.938070078400439256e-09 -8.135276976767486571e-10 2.733938887966600619e-09 -2.911929565572093331e-09 1.235905642300281276e-09 -5.211528151087345793e-10 1.239640968185791396e-10 2.084103771374288067e-10 -1.608880765634139991e-08 -9.799989606684119033e-09 -5.313447453167520758e-09 5.101381836320512807e-09 3.267319084870852913e-09 2.936940189430804418e-09 2.914118522941064126e-09 4.302762055739086592e-09 3.109160853865928998e-09 3.102862259081591201e-09 3.005069153128401195e-09 2.944142204252961949e-09 2.934681000874518868e-09 2.237221521825711692e-09 1.586751951483860531e-08 8.740771443094724625e-10 -1.382643632475727671e-10 -1.445964401044252653e-09 1.231035046983171591e-09 3.299253681894022343e-09 3.235762956340396585e-09 3.024700723970347010e-09 2.790610533108566069e-09 2.958405669658660061e-09 2.838018916912659035e-09 2.987091365154086844e-09
-1.057691854940801763e-07 1.260270093151466023e-07 1.121039399463809019e-09 -1.985094630419682124e-08 3.870181967141113769e-08 -2.399513568472259137e-09 -1.483136998926718249e-09 1.805683222796509660e-09 -2.804933221116851016e-09 1.406639217335853548e-09 8.461242350307996728e-11 1.222649837010040204e-10 1.278422803827532384e-10 -3.943775067801646302e-09 -6.080311543770916133e-09 -5.141206437220659219e-09 4.581374009617099487e-09 2.134357633147028130e-09 2.611090976248880005e-09 2.188313920973487308e-09 3.109160853865928585e-09 2.448423105200780915e-09 2.338160031488332064e-09 2.294896765744432740e-09 2.245610070359859306e-09 2.261055004721472185e-09 5.246000172191635725e-09 1.390969254597098248e-08 6.228542442513297500e-10 -4.359711668119074550e-10 -7.436172762097415360e-10 1.038483116745376772e-09 2.399365319199323076e-09 2.416877685735221660e-09 2.347532346853924402e-09 2.113489957973395232e-09 2.224349077673818514e-09 2.167331686028019817e-09 2.292687086917522545e-09
-4.989265444259801103e-09 7.760107437636348447e-08 -8.155538680692243939e-10 -2.262753729414464547e-08 3.858092416700757586e-08 4.944968259216125022e-10 -2.322244742224944267e-09 1.288553900965439989e-09 -2.925995280345504339e-09 1.252637588184869963e-09 -5.428537572422836915e-11 4.691547616231752604e-11 2.928156021259318223e-11 -5.866596919051890460e-09 -7.290477304067223294e-09 -2.847400731699895507e-09 3.835762839829223840e-09 2.475237355054084511e-09 2.110201618787615223e-09 2.082351906125965754e-09 3.102862259081591201e-09 2.338160031488332064e-09 2.468171759200425869e-09 2.367026244814194933e-09 2.332112490242469232e-09 2.330569998347331339e-09 1.020435784959453824e-08 7.240786656455409257e-09 1.686229282945303104e-09 9.773426745112174071e-10 -1.634928872090003123e-09 9.071705058003305956e-10 2.611153855488316906e-09 2.526039355822816632e-09 2.422522269398054056e-09 2.209771631951022038e-09 2.313541967048659840e-09 2.238358988933226069e-09 2.365630283483627965e-09
-7.905954732485406177e-09 8.990479618755626669e-08 -1.972199752875709319e-09 -1.921175506891767926e-08 3.934121061888239495e-08 1.732342890785960018e-09 -3.259942116575361989e-09 1.140368768344602486e-09 -2.799084246891633439e-09 1.309521544005010703e-09 -5.298126498203676570e-11 1.240963412135276190e-10 2.543111919721621365e-11 -7.517812322900461783e-09 -7.965735939713814892e-09 -4.285370051850478794e-09 3.993189705149494460e-09 2.306319546530825412e-09 2.185916832316327791e-09 2.035536482741690780e-09 3.005069153128401195e-09 2.294896765744432740e-09 2.367026244814194933e-09 2.321173680760648008e-09 2.280279297810989855e-09 2.272318393108551701e-09 8.561453081511939450e-09 7.460758917184469450e-09 2.292567242976488856e-09 6.874737401189371136e-10 -1.370374305301452058e-09 8.569694001336299981e-10 2.341930911544339295e-09 2.442293417776755012e-09 2.368833061411906689e-09 2.112972009288731849e-09 2.254932534768915525e-09 2.199751572615315701e-09 2.305097994062353649e-09
-2.909026949841981633e-08 8.658742701774615436e-08 -2.105347861823900116e-09 -1.722584171299210140e-08 3.714608146053177694e-08 1.770780207037610488e-09 -3.460119623989026188e-09 7.797934807016718215e-10 -2.653481376454565101e-09 1.398343351824249218e-09 -8.924903736181207819e-11 1.137861216852017607e-10 3.318637601235683669e-11 -5.918436498219701154e-09 -7.210348621079035270e-09 -3.736642789779550011e-09 3.480247677994514105e-09 2.360663558330719054e-09 2.067125283013195778e-09 2.028708393143704241e-09 2.944142204252961535e-09 2.245610070359858892e-09 2.332112490242469232e-09 2.280279297810989855e-09 2.254473054549947193e-09 2.260021595135738674e-09 8.649619231163578673e-09 6.962067642210411018e-09 1.543616815926094734e-09 3.593579907501387972e-10 -1.341323165840586328e-09 8.759278026033521603e-10 2.415987288407234958e-09 2.430368963739186490e-09 2.320919255750427738e-09 2.074631373050637139e-09 2.209300733645692212e-09 2.178460467374489618e-09 2.293241241206878409e-09
-8.109980884275869653e-08 9.349720786410810231e-08 -9.376274450017086344e-10 -1.698668504119985859e-08 3.417640001639090435e-08 1.534044088094124614e-09 -3.520554974834805974e-09 2.554206216227624130e-10 -2.522545728419219327e-09 1.555152644848347236e-09 -4.524030355911716475e-11 8.840522587308369330e-11 6.868063031202094502e-11 8.358934241302791442e-11 -8.459014293546040169e-09 -2.918857851939289095e-09 2.726171373653469005e-09 2.364458576320221081e-09 2.239747469972267058e-09 2.120116994922094754e-09 2.934681000874518868e-09 2.261055004721472185e-09 2.330569998347331339e-09 2.272318393108551701e-09 2.260021595135738674e-09 2.311547879236510238e-09 1.226691242296829938e-08 7.684568150877959055e-09 1.039242530422496272e-10 -1.948311101410820853e-10 -1.173691077971438975e-09 1.046716173299173456e-09 2.568627372818705742e-09 2.410283827727037105e-09 2.309485923097695520e-09 2.059869333143264361e-09 2.195670987234019487e-09 2.188781271411563900e-09 2.347594359526382997e-09
1.267558854423458903e-07 -7.144383862173847644e-07 7.816088307760699165e-07 -8.178556742451851977e-07 -1.414863790464669823e-07 -5.948703673670207362e-09 -9.741586584944119782e-08 -6.580663159644419203e-08 -3.691279341965186389e-08 2.662900033213231548e-08 8.347368928869945431e-09 -7.900492496890422370e-09 -3.162565851045663920e-09 6.932694489374740658e-07 -3.608798665328365871e-07 1.089944769352869604e-07 -2.756313958169000133e-08 -5.277881287226879204e-09 5.373603774630936182e-08 1.754943681276046031e-09 2.237221521825708383e-09 5.246000172191638206e-09 1.020435784959453824e-08 8.561453081511936142e-09 8.649619231163577019e-09 1.226691242296829938e-08 1.281592264366415902e-06 8.693231342636937093e-08 -4.787249522593241577e-08 4.746509019874802656e-08 -3.584791420230745033e-09 2.571019043981075473e-08 2.203608369428369373e-08 8.894807480043517723e-09 1.166587795223587913e-08 7.797318729018234679e-09 8.579774615761378001e-09 7.705203848612731893e-09 1.250989419312618888e-08
-6.899783439120180583e-06 2.052761662085675384e-06 -1.019843032662162837e-07 -2.435715911736693928e-07 -4.410633439872562445e-08 -1.854127800346669311e-07 1.497377523939276284e-08 2.429003650156739593e-08 -1.508166051803028904e-08 1.995091636508634840e-08 9.169499111490585452e-10 -8.898517270081083382e-10 4.566215736065664746e-09 1.263212358828586182e-07 1.553802789789858788e-08 -4.053258568734954143e-08 5.361593038993172248e-08 2.839677969008259119e-08 2.181964054420202960e-08 1.228612692469694697e-08 1.586751951483860531e-08 1.390969254597098248e-08 7.240786656455409257e-09 7.460758917184469450e-09 6.962067642210411018e-09 7.684568150877957401e-09 8.693231342636937093e-08 5.088682080674691267e-07 -9.920367628873458804e-08 -3.263959493473386120e-08 1.541037332003460087e-08 7.029643347125919155e-09 1.434781855001593288e-08 1.073625341968040259e-08 8.366314473349742429e-09 7.826816987168809846e-09 7.600553750133409899e-09 6.901598780602288582e-09 7.895488945014529585e-09
3.158308386694181654e-06 -2.124716454823995383e-07 8.330334272471919074e-08 -4.608599004534935321e-08 2.071508469930799533e-07 7.245554791534094813e-08 -2.183082185226967014e-08 1.102742414949191138e-08 -4.167205411731632458e-09 -6.331958860537753435e-09 1.052833116371550752e-09 1.838309272838914146e-09 -2.093282008153873589e-09 -2.178778314630269173e-07 -1.368607454017625320e-08 -4.138711030583094077e-08 2.451209678552531120e-08 -1.458527243072511635e-08 3.227871964064777095e-09 -1.489747587842127904e-09 8.740771443094728761e-10 6.228542442513297500e-10 1.686229282945303104e-09 2.292567242976488856e-09 1.543616815926095148e-09 1.039242530422498340e-10 -4.787249522593242238e-08 -9.920367628873457480e-08 8.740119673021282258e-08 1.667430588111119259e-08 -5.324819156741445851e-09 -4.578303691810464162e-09 -6.564168344965474368e-09 6.996861895368981525e-10 2.585140772410511782e-09 1.410120354631040550e-09 2.282924733774213780e-09 1.249647236086897446e-09 -8.978220508666173744e-12
1.965107147251183623e-06 -4.733361154719703228e-07 -9.034679515257455500e-08 -1.092319712967393144e-07 -5.151267585981704188e-09 -1.337870310985932277e-08 2.534817770006158042e-08 1.435344315821846558e-08 -1.686481503878924489e-08 -5.107995690955243652e-09 1.748007902649720268e-09 -1.267834502675212883e-09 -1.472715441881975492e-09 3.857524901329431077e-08 -4.992237134975971433e-08 1.156602840654542221e-08 1.399560725308280926e-08 1.647327154612411062e-08 -7.459395252353080940e-09 -4.647900570107976748e-09 -1.382643632475726120e-10 -4.359711668119070932e-10 9.773426745112174071e-10 6.874737401189373204e-10 3.593579907501389006e-10 -1.948311101410821370e-10 4.746509019874803979e-08 -3.263959493473386120e-08 1.667430588111118929e-08 5.297062400792909948e-08 -1.200791120228353023e-08 -1.187264746090900098e-09 -4.198010288238589932e-09 -1.258142527557536718e-10 1.009274844179223155e-09 1.540506597174421172e-09 1.030151126993614207e-09 2.003144469044265625e-10 -2.068616645242734065e-10
-4.810032930051796197e-07 1.094253718745308111e-07 5.395130073952750657e-08 2.868428188119538830e-08 -1.346487801209778872e-08 -1.083354681379986977e-08 -1.433932317043233414e-09 -2.601441444429220758e-09 4.067290711861515356e-09 7.005712162380065079e-10 -2.449031595327612059e-10 2.643958817173363843e-10 4.025421340407082892e-10 5.335108552141123254e-09 7.506197549603501350e-09 -6.651962663827392934e-09 -3.061703896030371290e-09 -6.389673382300987421e-09 3.534155148522269784e-09 -1.483577543882436064e-10 -1.445964401044252860e-09 -7.436172762097415360e-10 -1.634928872090003123e-09 -1.370374305301452265e-09 -1.341323165840586328e-09 -1.173691077971438975e-09 -3.584791420230749169e-09 1.541037332003460087e-08 -5.324819156741445851e-09 -1.200791120228353023e-08 6.039048263039997783e-09 1.082716773854833547e-09 -1.020443929009005961e-09 -1.300861930077228796e-09 -1.423130699406239253e-09 -1.551592784959551813e-09 -1.467673416327332239e-09 -1.245324996399556527e-09 -1.200420841339959072e-09
-1.564036160290321457e-07 2.825163303639752780e-08 2.858609153143076859e-08 -1.214515970241043757e-08 7.176201950148554084e-09 -9.316240433680558882e-09 1.014529112319631134e-09 -9.277863569509189729e-10 -1.060589722771491130e-09 9.157698763845304570e-10 -1.124633828560554385e-10 -1.650332858253356385e-10 1.488705573817173090e-10 2.078081116920421333e-08 -9.880856696509699743e-09 7.502467775891087923e-10 -9.845996298846479033e-10 -1.860075816085953750e-10 2.983509012506883864e-09 9.812339222238494554e-10 1.231035046983171384e-09 1.038483116745376772e-09 9.071705058003305956e-10 8.569694001336299981e-10 8.759278026033521603e-10 1.046716173299173456e-09 2.571019043981075473e-08 7.029643347125919983e-09 -4.578303691810464162e-09 -1.187264746090900098e-09 1.082716773854833547e-09 1.734840566504482832e-09 1.511787608943770296e-09 9.830000038101769327e-10 8.878814212051443082e-10 7.834889763128567462e-10 8.053747682671546705e-10 8.463849589321800325e-10 1.065222925878624288e-09
-3.585225532175730718e-07 7.610309902525401441e-08 1.242784939101292135e-08 -2.158635969191921573e-08 2.384374864854665532e-08 -4.927755698733371648e-09 -3.177172502513478113e-09 -1.347222155333946060e-09 -1.415312796350090165e-09 2.260927182850790940e-09 -4.991047095768117674e-10 -1.951932020506331990e-10 2.427920908833673731e-10 6.833300280190909123e-09 -6.976470732981627056e-10 3.251378809799352317e-09 8.690181517097012814e-11 2.116202631644891375e-09 2.637029961508168394e-09 2.680280627407395813e-09 3.299253681894022343e-09 2.399365319199323076e-09 2.611153855488316906e-09 2.341930911544339295e-09 2.415987288407235371e-09 2.568627372818706156e-09 2.203608369428369704e-08 1.434781855001593288e-08 -6.564168344965475196e-09 -4.198010288238589932e-09 -1.020443929009005961e-09 1.511787608943770502e-09 4.378378461182793929e-09 2.890634077007635621e-09 2.385167899927884014e-09 2.270622452717247489e-09 2.286978717157862817e-09 2.313463853437532647e-09 2.619065615904390211e-09
-8.093698283993876140e-08 8.034292223989290116e-08 2.110909310298275260e-09 -1.877854851880922912e-08 3.861311827233752461e-08 -1.653155636269646968e-09 -3.792860491335004970e-09 8.642399162937260284e-10 -2.789030725006922321e-09 1.705301340163211490e-09 -3.877907593918659500e-10 6.942251320230671697e-11 5.041422794178045789e-11 -1.081853371758501218e-08 -3.679577108707648967e-09 -3.757645704603772981e-09 3.946856012082316315e-09 2.599397635057411142e-09 2.266164693757317350e-09 2.151757305019781105e-09 3.235762956340396172e-09 2.416877685735221660e-09 2.526039355822816632e-09 2.442293417776755012e-09 2.430368963739186903e-09 2.410283827727037105e-09 8.894807480043517723e-09 1.073625341968040259e-08 6.996861895368978423e-10 -1.258142527557534909e-10 -1.300861930077228796e-09 9.830000038101767259e-10 2.890634077007635621e-09 2.805591086320636656e-09 2.491836037066661303e-09 2.259586272140396196e-09 2.368647556887825561e-09 2.342826544799311590e-09 2.445365605647427202e-09
1.056475819150490605e-08 9.150889868288419864e-08 1.995007498379203851e-09 -2.379867221471467120e-08 4.031518826192329433e-08 1.497944013359019556e-09 -3.420206440739916762e-09 1.223870008348432863e-09 -3.117457417783357161e-09 1.406873307935565623e-09 5.834013199142857443e-11 1.016334424323545740e-10 2.227850823933755825e-12 -6.111798874411966796e-09 -8.026463939552540149e-09 -4.311069608519417224e-09 4.446884644453496415e-09 2.267536493640458775e-09 2.353895054358826565e-09 2.024068217644015031e-09 3.024700723970347423e-09 2.347532346853924402e-09 2.422522269398054056e-09 2.368833061411906689e-09 2.320919255750427738e-09 2.309485923097695520e-09 1.166587795223588244e-08 8.366314473349742429e-09 2.585140772410512609e-09 1.009274844179222948e-09 -1.423130699406239253e-09 8.878814212051443082e-10 2.385167899927884014e-09 2.491836037066661303e-09 2.437601887691802009e-09 2.170015430109421964e-09 2.301997083171478640e-09 2.232674127052850911e-09 2.340796777477136509e-09
5.665036427894465653e-09 6.989471335522160604e-08 -2.182537219924736300e-09 -2.208765590398089949e-08 3.420630050771754900e-08 -1.002538210248468535e-09 -1.152059967305528143e-09 1.668344201173381491e-09 -2.934720638116962143e-09 1.063272026445203245e-09 7.208331673456992310e-12 2.086886837868648387e-11 2.337157246998908178e-11 -4.703920546361378685e-09 -5.950381540888468612e-09 -2.635635353714568667e-09 3.977666482368012137e-09 2.528743255277310460e-09 1.758751159067397647e-09 1.797738117882182649e-09 2.790610533108565656e-09 2.113489957973395232e-09 2.209771631951022038e-09 2.112972009288731849e-09 2.074631373050637139e-09 2.059869333143264361e-09 7.797318729018234679e-09 7.826816987168809846e-09 1.410120354631039930e-09 1.540506597174420759e-09 -1.551592784959551813e-09 7.834889763128568496e-10 2.270622452717247489e-09 2.259586272140395783e-09 2.170015430109421964e-09 2.001895321578904694e-09 2.070575438470612172e-09 1.988381321032027962e-09 2.089958157386805917e-09
-4.382222604619997066e-09 8.216539121878754862e-08 -4.020348193588909286e-09 -2.007776650907343963e-08 3.797742364892329216e-08 1.222618635024692253e-09 -2.662936236768672403e-09 1.357586258271896812e-09 -2.738473805177761370e-09 1.145300003606341585e-09 -8.863002230409596427e-11 9.659676476212474514e-11 2.810635574697097302e-11 -8.113143832332889486e-09 -8.353586167253723140e-09 -3.800533792189864755e-09 3.975519229310073902e-09 2.371392817822913739e-09 2.064132489649356601e-09 1.968538269754403722e-09 2.958405669658660061e-09 2.224349077673818514e-09 2.313541967048659840e-09 2.254932534768915525e-09 2.209300733645692212e-09 2.195670987234019901e-09 8.579774615761378001e-09 7.600553750133409899e-09 2.282924733774213780e-09 1.030151126993614207e-09 -1.467673416327332446e-09 8.053747682671546705e-10 2.286978717157862817e-09 2.368647556887825561e-09 2.301997083171478640e-09 2.070575438470612172e-09 2.203707771312924049e-09 2.126822682746275046e-09 2.229074644972808038e-09
-4.260609240841689442e-08 8.761400082554577898e-08 -3.640576825112364707e-09 -1.495887361218646936e-08 3.534469475181202945e-08 1.951400468771859641e-09 -3.548995048682298101e-09 6.369515959480207704e-10 -2.504877495650616270e-09 1.398004943918501814e-09 -1.031331074378647490e-10 1.264702780130980910e-10 4.037797501883780527e-11 -5.365853111544855781e-09 -7.095567125200424257e-09 -3.777962502008928494e-09 3.240427902291701715e-09 2.366087165825065233e-09 1.958013985093238364e-09 1.972890039603795759e-09 2.838018916912658621e-09 2.167331686028019817e-09 2.238358988933226069e-09 2.199751572615315701e-09 2.178460467374489618e-09 2.188781271411563900e-09 7.705203848612730239e-09 6.901598780602288582e-09 1.249647236086897240e-09 2.003144469044264850e-10 -1.245324996399556527e-09 8.463849589321801359e-10 2.313463853437532647e-09 2.342826544799311590e-09 2.232674127052850911e-09 1.988381321032027962e-09 2.126822682746275046e-09 2.110223442244362892e-09 2.221342078097436061e-09
-8.804414051141655912e-08 9.453633362928095697e-08 -1.696359387223754901e-09 -1.704270038330911942e-08 3.437886474208369499e-08 1.507693258912312333e-09 -3.527256645287806662e-09 2.495151233285270754e-10 -2.526617722804677343e-09 1.566718013600139597e-09 -6.429223553537912845e-11 8.690809851052115373e-11 7.465064280656213191e-11 1.319183889102197961e-10 -8.785707817211485707e-09 -2.862784833729842708e-09 2.699057666257356122e-09 2.437116119098462923e-09 2.260915711827551548e-09 2.159945336233143252e-09 2.987091365154086017e-09 2.292687086917522545e-09 2.365630283483627552e-09 2.305097994062353649e-09 2.293241241206878409e-09 2.347594359526382997e-09 1.250989419312618557e-08 7.895488945014529585e-09 -8.978220508666160820e-12 -2.068616645242738460e-10 -1.200420841339959072e-09 1.065222925878624495e-09 2.619065615904389798e-09 2.445365605647426789e-09 2.340796777477136509e-09 2.089958157386805917e-09 2.229074644972808038e-09 2.221342078097436061e-09 2.384862393276115476e-09
