1.697858337597642813e-05 -2.585097727314178503e-08 -1.271317728374241545e-06 -1.534139329708589329e-06 -1.124913374241005692e-06 -5.199844589928383928e-07 -6.186958277898101587e-07 7.399490304492362389e-08 -1.700268798570656842e-07 4.538360727574466247e-08 3.763574658177837803e-08 -4.269478023585602853e-09 2.003898116214151064e-08 4.245941802545894517e-07 -3.109142828818775976e-07 -8.234655769862737227e-08 -2.763995364494032541e-07 8.154204087584406096e-08 -7.986070861061538680e-08 1.540312789457494101e-08 -1.141667596710895449e-08 -1.187722913072046852e-08 -2.770413509633351483e-08 -3.327184394123492371e-08 -4.050012746962032753e-08 -4.035809933819721217e-08 -4.644581421104785615e-07 -4.613867261701893665e-07 -1.695303582710176263e-07 -4.255480334262775965e-07 -2.345447891576465320e-07 6.260820362877435036e-08 -2.308071398856260494e-08 -5.837255710026685385e-08 -2.726848014347131795e-08 -4.470368469034967246e-08 -3.809562799582821682e-08 -3.542810188109573577e-08 -4.049808486640390590e-08
-2.585097727314294970e-08 1.632574965165684190e-05 -1.036550737559141140e-06 -7.621701175550758335e-07 6.081112457653515223e-07 -1.586228229988683344e-07 1.463832280161357935e-07 -9.299833108581429058e-08 1.690889415408932543e-07 6.682033810767390909e-08 5.341733979586218476e-08 5.033596126857753020e-08 2.557550013742861046e-08 -4.820057534944761417e-07 -4.327579382468871314e-07 9.931400010971000866e-08 -1.709626205686028330e-07 -7.686760648455382395e-08 -1.081053346480178792e-07 2.741578076605896138e-08 -2.912937098637987709e-08 -3.913473180593615570e-08 -3.802202561926454296e-08 -2.930174924259365665e-08 -3.041172069581377450e-08 -3.092706666330861326e-08 -1.110144398407835226e-06 -5.183242183094621635e-07 -1.032452405242888100e-07 -8.354843159225058824e-08 -1.510985128542751834e-07 -8.507794021632244403e-08 -2.630770468861804760e-08 -3.185552294827672154e-08 -5.866406929525949309e-08 -3.510256107314315690e-08 -2.183856499045380784e-08 -3.386020697490693011e-08 -3.143143741156482122e-08
-1.271317728374241121e-06 -1.036550737559141140e-06 2.835202522982494287e-06 -6.878968516939433864e-08 2.406379256738269450e-07 1.124931712266406968e-07 1.064481725383415205e-07 1.554752066082887440e-08 -3.747118836063023187e-08 -3.896771102741099777e-08 3.198231132563984340e-09 -1.014645753310204444e-09 6.960506692975582413e-09 -5.529376382592160981e-08 -1.283050846016989300e-07 2.187999100905667131e-07 -2.488545819889553320e-08 -4.948471190242406458e-08 -1.286793569054485162e-08 -6.366367357140605403e-09 -6.147800144708218587e-09 -7.596067276980665956e-09 -1.021050019482346972e-08 -9.506738041140362925e-10 -2.629808523885880034e-10 -1.426284886076707406e-09 -6.064991578745977789e-07 -3.986755075319480474e-08 -1.468203062515947112e-08 3.234795838245465832e-08 -6.450127240740109975e-08 -2.055878641758321986e-09 -4.038897517646220237e-08 7.988062381073560156e-09 -4.186124770246723953e-09 -1.608262433299270936e-09 -1.689776501758053745e-09 -2.350634844450531787e-09 -1.182224084913511212e-09
-1.534139329708589329e-06 -7.621701175550758335e-07 -6.878968516939431217e-08 1.402725673453234401e-06 -2.268149892465017660e-09 6.923696716865009565e-08 -8.987300747937299831e-10 -9.820206243604742419e-09 -1.340583212493532861e-08 -1.595195669088885430e-08 2.390216119245269125e-08 1.108072601422696268e-08 8.403285342927592536e-10 2.062992546701456091e-07 -8.622118993948173522e-08 1.013481431250958521e-07 8.038322232439512685e-08 3.557029066579879340e-08 1.901968981843331426e-08 2.859200158338322135e-08 1.371942378780645918e-08 2.174320065454523519e-08 2.465681373477722286e-08 2.549714508587241179e-08 2.573522233572127682e-08 2.209695849405771409e-08 -3.362348279436617651e-08 5.722082521699421114e-08 7.603113886256549201e-08 8.410271922510853008e-08 1.047818367385812894e-07 1.190335365826131104e-08 1.996470832919378968e-08 1.794583662199899566e-08 3.273129692086765002e-08 2.170660430539405967e-08 2.469747894923758006e-08 2.627621845203201301e-08 2.141876013118999913e-08
-1.124913374241005480e-06 6.081112457653516282e-07 2.406379256738269450e-07 -2.268149892465006907e-09 3.605090267403398872e-07 -3.245114232269720858e-08 1.139971276486053505e-07 -3.813992561343924858e-08 8.740136812952500044e-09 -1.609777789608077521e-08 -5.030731738719103743e-09 6.359498109524490953e-09 -1.492089380036310223e-09 1.242843762593779432e-07 1.207303442109296006e-07 2.694192939388138932e-08 -1.315651073148435311e-08 -8.903034221938880953e-09 -7.138154810394908771e-09 -2.453486720705560083e-09 -3.189155124696006032e-09 -8.841875995650579330e-09 -5.083224790880282078e-09 -5.300031691323298552e-09 -4.484139185261301160e-09 -4.097955798538412066e-09 -1.048565807274422537e-07 8.849569754494703736e-08 -2.090604958808672114e-08 4.478937934839076899e-08 -1.275414875472208446e-08 -9.142332667509581593e-09 -9.047735588924476219e-09 -7.664201421821935797e-10 -7.243354296565516669e-09 -4.923920560999647051e-09 -4.892372956450753781e-09 -5.297685736607954593e-09 -3.906698786711635240e-09
-5.199844589928384986e-07 -1.586228229988683344e-07 1.124931712266406968e-07 6.923696716865009565e-08 -3.245114232269718873e-08 1.085830455791424240e-07 2.265175723984759576e-09 1.963494204243689478e-08 -3.510284766594754621e-09 3.525300776084021904e-09 4.782599310919668540e-09 1.306513726573042003e-11 1.035609475287002041e-09 1.370824360493522187e-07 -3.337431389527750502e-09 -1.663758839466167508e-08 2.170158296269475073e-08 2.891773206664273270e-09 7.929855095562014552e-09 -3.552706239784711799e-09 1.627547692035651294e-10 3.191417394975261721e-09 2.148586494629336770e-09 2.703797759213702023e-09 3.029920594845041030e-09 3.236175786294795353e-09 1.341183823524227249e-08 -5.943418317525473335e-08 -1.698737660873346170e-08 2.287356235311886018e-08 1.256402759155047055e-08 4.447616033260488606e-09 1.322994002610563434e-09 3.648581751779586411e-09 3.310874744738226811e-09 3.688350725871892010e-09 2.537633138458142351e-09 2.990786855126398490e-09 3.068607538045713441e-09
-6.186958277898101587e-07 1.463832280161357935e-07 1.064481725383415337e-07 -8.987300747937119919e-10 1.139971276486053505e-07 2.265175723984757922e-09 5.370075410361004940e-08 -5.378341976710093003e-09 4.671631227818148827e-09 -5.156670786952191555e-09 -2.577386766331955889e-09 1.108264380995367242e-09 -1.360469063434800190e-09 1.199007478593270265e-08 4.820970144527894063e-08 1.244644357702068290e-08 -7.723408019729467043e-09 -2.027073345923655124e-09 -2.222319016501128178e-09 -3.278907297407200478e-09 -1.160700736081547828e-10 -2.808836406129247123e-09 -1.320380850216999260e-09 -1.056954939216264814e-09 -2.589732381783968602e-10 -6.571738674495772093e-12 1.981255913027813589e-08 6.325722147087339705e-09 9.340949205752818899e-09 2.134515761334557070e-08 5.980498453377578514e-10 -2.957617254841083965e-09 -2.036595312361606617e-09 1.419028663940354502e-09 -2.053276377492003448e-09 -8.338626847395969473e-10 -7.617499429385131374e-10 -6.656207303002680803e-10 1.060140589668290827e-13
7.399490304492363713e-08 -9.299833108581429058e-08 1.554752066082887771e-08 -9.820206243604742419e-09 -3.813992561343924858e-08 1.963494204243690471e-08 -5.378341976710093830e-09 1.254708690578448166e-08 -3.469917646929724793e-09 1.537786050422941690e-09 9.199834548909047482e-10 -1.158534051764198174e-09 3.495554792403128349e-10 -1.528715394945747840e-09 -4.296445393955365853e-09 -1.184678658031953352e-08 -1.600649713572559565e-09 3.685574361774076290e-09 7.650653280939550178e-10 -2.245996042450042012e-09 9.016829169605959900e-10 8.279487483387361951e-10 4.377202536187681395e-10 6.830818167477519865e-10 8.674968325980384349e-10 1.012713549256201267e-09 3.173550854258004608e-08 -3.567470035840769512e-08 4.279173568176504535e-09 -4.752449001353273846e-10 2.507045127292419852e-09 2.733007372325717062e-09 5.546219575905721176e-10 3.778875940304602221e-10 1.046727091358010356e-09 7.402969852649583869e-10 5.961018616041003379e-10 8.810855975851460298e-10 9.566501169858530237e-10
-1.700268798570656842e-07 1.690889415408932543e-07 -3.747118836063023849e-08 -1.340583212493532199e-08 8.740136812952500044e-09 -3.510284766594754621e-09 4.671631227818148827e-09 -3.469917646929724793e-09 5.813089566416918884e-09 1.107228521582618749e-09 -9.266035664307037309e-10 1.078214372509622727e-10 -2.568506897220624234e-10 -3.495739175848435011e-08 -3.258311065285474277e-09 2.422556332768001252e-10 1.896650638751697620e-09 -3.035165933692862893e-09 -1.130341854368889454e-11 3.189345620857763944e-10 -3.110565565924032435e-10 -3.212059387290528899e-10 -1.794047966108178991e-10 -1.745357145847718379e-10 -1.927514837989960001e-10 -1.805753442334108127e-10 4.923044621429548728e-09 7.640224140593911281e-09 1.942367861753242565e-09 2.488537778634906117e-10 6.275041109351450134e-10 -2.529279511941223187e-09 5.524671909515516116e-10 4.725588881707173336e-11 -6.948851429011411230e-10 -1.852989949045039668e-11 1.358637880968261136e-11 -2.533215671928195139e-10 -1.585507796477601246e-10
4.538360727574466247e-08 6.682033810767390909e-08 -3.896771102741099777e-08 -1.595195669088885430e-08 -1.609777789608077521e-08 3.525300776084021904e-09 -5.156670786952191555e-09 1.537786050422941690e-09 1.107228521582618749e-09 1.824714885028923554e-09 3.074817721452645699e-10 -1.577219184247644385e-10 1.444010480286729471e-10 -3.555020077331049163e-09 -4.938485882129215654e-09 -4.625717947929656878e-09 2.009804490180259015e-10 -1.087397134647023261e-10 7.430615980763819829e-11 -1.776182951261949143e-10 -1.595642808083163240e-10 1.301878836623443682e-10 -9.571015277998163067e-11 -1.132497107504385020e-10 -1.430898100220398144e-10 -1.040719014920461783e-10 3.122264475017362635e-09 -6.797115566734399002e-09 -7.268094230521894405e-10 -2.738107903735526058e-09 -2.862655407015972971e-10 1.441690374320161241e-12 4.502495182621632264e-10 -2.488147206157463485e-10 -2.138619917575389239e-10 -6.383657265981787778e-11 -7.921686472024299827e-11 -1.158831570564643291e-10 -1.166828982004499383e-10
3.763574658177837141e-08 5.341733979586218476e-08 3.198231132563988063e-09 2.390216119245269125e-08 -5.030731738719103743e-09 4.782599310919668540e-09 -2.577386766331956303e-09 9.199834548909047482e-10 -9.266035664307037309e-10 3.074817721452645699e-10 1.466624157830898104e-09 5.557428869276620256e-10 3.515838231744099779e-10 1.502321299947145805e-08 -7.440608760340787112e-09 3.197045401099308992e-09 6.032199303696408663e-10 9.732434486336199528e-10 -1.797769606635795658e-10 7.825142381012236406e-10 7.036564357622135307e-11 4.282584382943147064e-10 3.334618786514049033e-10 4.206452682416357661e-10 3.878303629506484687e-10 3.022155031630646084e-10 -9.869552026017132639e-09 -9.035869990700184297e-09 -1.468739723315710503e-09 5.548840390606276985e-10 7.348271791022806151e-10 4.324974884338533394e-10 1.647457409766244867e-10 1.907748869514016537e-10 4.817691587742494021e-10 2.907778441916787109e-10 3.986949841324585284e-10 4.090305549171642455e-10 2.727146954374208727e-10
-4.269478023585601199e-09 5.033596126857753020e-08 -1.014645753310202169e-09 1.108072601422696268e-08 6.359498109524490953e-09 1.306513726573026816e-11 1.108264380995366828e-09 -1.158534051764197967e-09 1.078214372509622339e-10 -1.577219184247644643e-10 5.557428869276620256e-10 4.882698722274469981e-10 9.218283372331491539e-11 9.095221248396525205e-09 -1.276588797502852845e-09 2.809057320201616041e-09 2.090646792322227041e-10 1.218714020214784521e-10 -2.678165585418448695e-10 5.427540911747490157e-10 -8.275325599373190082e-11 -6.146416001286280584e-14 6.126848427586469809e-11 5.770114333918557735e-11 3.526456869526541236e-11 -6.229370151298950461e-12 -6.266142403366406277e-09 -1.074745325852751655e-09 -1.665485491459842026e-09 1.071185449405089115e-09 3.956322242476384489e-11 -2.433792050890575901e-10 -9.807449066046241267e-12 4.704458377806961598e-11 7.778339661237280079e-12 7.551149703144892644e-12 6.729459209563206543e-11 3.485488655566466810e-11 -1.266244068372827967e-11
2.003898116214151395e-08 2.557550013742861046e-08 6.960506692975582413e-09 8.403285342927590469e-10 -1.492089380036310636e-09 1.035609475287002041e-09 -1.360469063434800396e-09 3.495554792403128866e-10 -2.568506897220624751e-10 1.444010480286729729e-10 3.515838231744099779e-10 9.218283372331491539e-11 1.998916579407487245e-10 1.626160607068893487e-09 -2.764679002464605834e-09 -2.004070951620385485e-10 -1.848595524900144490e-10 -6.112782317191136026e-11 -1.894536273917155496e-10 8.855657902711506945e-11 -6.235097145887204204e-11 4.099062374192375930e-12 -6.856779838975266463e-11 -8.792600454126711759e-12 -2.995425153180275435e-11 -4.349532003356553977e-11 -7.932030832489374136e-09 -1.907114556335775681e-09 -7.552900499020139423e-10 -6.238713972144479553e-10 -5.415408957720087300e-10 1.298091798964576220e-10 -2.144264886012038566e-10 -1.126517560401064457e-10 -4.470834964808506580e-13 -4.487242527494669307e-11 -1.921109100733269487e-11 -3.197145694906194792e-11 -4.707049894566771668e-11
4.245941802545896105e-07 -4.820057534944761417e-07 -5.529376382592157673e-08 2.062992546701456091e-07 1.242843762593779432e-07 1.370824360493521923e-07 1.199007478593269272e-08 -1.528715394945747840e-09 -3.495739175848435673e-08 -3.555020077331049163e-09 1.502321299947145805e-08 9.095221248396525205e-09 1.626160607068893280e-09 7.682681576834406250e-07 1.236442854159414780e-07 -1.207277981173360092e-08 1.515207773478888945e-08 2.475987555352350873e-08 6.293034896049470638e-09 -1.438035702805493687e-09 -3.330927972683666366e-09 9.771358628761774679e-10 8.685097852997300386e-10 -1.130298474958626954e-09 -6.834504093886413753e-10 -3.598980875940186186e-10 -1.134361339839444314e-07 -4.096161892806489392e-08 -9.162950924385820430e-08 5.083801816989307832e-08 1.944100653806171228e-09 1.713023175223051117e-08 -2.415198993276134783e-09 1.358729896568064955e-09 1.763422230609555084e-09 -7.534395267425364959e-10 -2.327135503656126833e-09 -1.883022891134235307e-10 -7.313412144968427983e-10
-3.109142828818775976e-07 -4.327579382468871314e-07 -1.283050846016989300e-07 -8.622118993948173522e-08 1.207303442109296271e-07 -3.337431389527752570e-09 4.820970144527894725e-08 -4.296445393955367507e-09 -3.258311065285473450e-09 -4.938485882129215654e-09 -7.440608760340787112e-09 -1.276588797502852845e-09 -2.764679002464605834e-09 1.236442854159414780e-07 1.361263775063670445e-07 -4.371660807116774239e-08 -1.167601154708429026e-08 6.499590795194584122e-09 8.923173416268525230e-10 -9.627728273496414851e-09 -9.191523570141798505e-11 -4.261909732281726492e-09 -2.527358839838437616e-09 -3.807356875918453178e-09 -2.660417958675238208e-09 -1.673883991802330399e-09 7.573341867330643832e-08 5.059675307096275641e-08 3.936355955159389964e-09 1.992757943103256057e-08 -1.508464007350653828e-10 3.793863975122770139e-09 -1.674403423758782594e-09 -1.196209927182822646e-09 -3.139780450990852180e-09 -3.066585727249165852e-09 -3.918235721714247723e-09 -2.843186683908054176e-09 -1.630592162342737371e-09
-8.234655769862742521e-08 9.931400010970998219e-08 2.187999100905667131e-07 1.013481431250958521e-07 2.694192939388137608e-08 -1.663758839466167508e-08 1.244644357702068621e-08 -1.184678658031953021e-08 2.422556332768005388e-10 -4.625717947929656878e-09 3.197045401099308992e-09 2.809057320201616041e-09 -2.004070951620386261e-10 -1.207277981173359596e-08 -4.371660807116774239e-08 7.293185425342472118e-08 -1.440018105302460961e-09 -5.549532639030450994e-09 -3.477732936091131970e-09 6.751048804626382493e-09 -4.809758145509641746e-10 5.664276297310702100e-10 8.758505253830090169e-10 1.614752000621716030e-09 1.453379332781747306e-09 6.802654218677646591e-10 -5.401544055111785015e-08 -2.062656686214395859e-09 4.177947436179558190e-09 4.447856178720537217e-09 -2.181013934369933996e-09 -4.368908056261206914e-09 -1.056575505974980024e-09 2.712486210232275914e-09 4.579891762590826121e-10 8.547859917703460359e-10 1.794055663470037567e-09 1.367198649337637376e-09 6.510145402267870419e-10
-2.763995364494032541e-07 -1.709626205686028330e-07 -2.488545819889553320e-08 8.038322232439512685e-08 -1.315651073148435145e-08 2.170158296269475404e-08 -7.723408019729467043e-09 -1.600649713572559358e-09 1.896650638751697620e-09 2.009804490180258757e-10 6.032199303696408663e-10 2.090646792322226524e-10 -1.848595524900144490e-10 1.515207773478888945e-08 -1.167601154708428860e-08 -1.440018105302460755e-09 1.959609398983278471e-08 -2.499025661381377979e-10 5.656429096332848403e-09 2.395428197418220947e-09 5.262057798918036432e-10 2.596495512247337573e-09 2.521860920598662227e-09 2.216066098648550431e-09 1.862972079606381132e-09 1.681364347514605790e-09 2.042043592758756716e-08 1.441778921504935458e-08 -8.790273666854872053e-09 8.237115510109467264e-09 1.056381549967809960e-08 -6.103943666176599494e-10 2.786513244659865407e-09 1.769941102346492123e-09 2.801400490848061727e-09 2.672954879397363130e-09 2.147738125362544258e-09 1.994974256339471578e-09 1.693701081017507744e-09
8.154204087584406096e-08 -7.686760648455382395e-08 -4.948471190242406458e-08 3.557029066579878679e-08 -8.903034221938882607e-09 2.891773206664273270e-09 -2.027073345923656365e-09 3.685574361774076290e-09 -3.035165933692862893e-09 -1.087397134647023519e-10 9.732434486336201596e-10 1.218714020214784262e-10 -6.112782317191133441e-11 2.475987555352350873e-08 6.499590795194585776e-09 -5.549532639030450994e-09 -2.499025661381378496e-10 4.811085323916052121e-09 5.289207513665781631e-10 -7.342792396408330313e-11 8.773847946761262014e-10 7.472641984908511143e-10 8.918096256248942441e-10 6.990609652030418426e-10 7.854168218696087812e-10 7.900851543228965595e-10 2.508297099787820996e-08 -1.144569710247231690e-08 2.100418161741325767e-09 2.328841580026732411e-09 4.114731436942171067e-09 1.993960677495068946e-09 1.216228659318433651e-09 2.514476373080995954e-10 1.223677492893559305e-09 5.670377686019896265e-10 6.029877262805294602e-10 8.619276451906175624e-10 7.478753159593897397e-10
-7.986070861061540003e-08 -1.081053346480179057e-07 -1.286793569054485162e-08 1.901968981843331426e-08 -7.138154810394907117e-09 7.929855095562014552e-09 -2.222319016501127764e-09 7.650653280939550178e-10 -1.130341854368900278e-11 7.430615980763817244e-11 -1.797769606635795916e-10 -2.678165585418449212e-10 -1.894536273917155496e-10 6.293034896049468156e-09 8.923173416268530400e-10 -3.477732936091131970e-09 5.656429096332848403e-09 5.289207513665781631e-10 2.029671698674886651e-09 1.293724098038334425e-10 2.924652559165493934e-10 8.050646264330804180e-10 7.806606659301600863e-10 6.438289850218112699e-10 5.892861659268901181e-10 5.845619234793453753e-10 1.521338972300240601e-08 3.997155531344920010e-09 -1.553668742581017796e-09 2.683931940817374193e-09 3.651331934581802381e-09 3.178141770861429895e-10 9.568367183445481840e-10 5.613188101955046077e-10 9.207207486147886971e-10 8.274826841271874398e-10 6.020997412138985080e-10 6.353518252774769566e-10 5.867310588414594846e-10
1.540312789457494101e-08 2.741578076605896138e-08 -6.366367357140605403e-09 2.859200158338321473e-08 -2.453486720705560083e-09 -3.552706239784713454e-09 -3.278907297407200478e-09 -2.245996042450042012e-09 3.189345620857763944e-10 -1.776182951261949143e-10 7.825142381012236406e-10 5.427540911747490157e-10 8.855657902711506945e-11 -1.438035702805493273e-09 -9.627728273496414851e-09 6.751048804626382493e-09 2.395428197418220947e-09 -7.342792396408325143e-11 1.293724098038334683e-10 1.699504086358855577e-09 8.048380036974332238e-11 5.364511993143921903e-10 5.585662626378333260e-10 5.287060881051839694e-10 3.855883986956535467e-10 2.368038761431165025e-10 -6.083941152832571169e-09 2.498259917535435703e-09 -1.228125819170616573e-09 -1.539065086103087859e-10 1.263375267928851267e-09 -5.591288898970469600e-10 5.380263705989793828e-10 2.462423839365038590e-10 5.539471806459615588e-10 4.166978409644252435e-10 5.303012430448148818e-10 4.285884845434652045e-10 2.353349048620347372e-10
-1.141667596710895449e-08 -2.912937098637987047e-08 -6.147800144708218587e-09 1.371942378780646249e-08 -3.189155124696006032e-09 1.627547692035650001e-10 -1.160700736081548215e-10 9.016829169605958866e-10 -3.110565565924032435e-10 -1.595642808083163499e-10 7.036564357622136600e-11 -8.275325599373190082e-11 -6.235097145887205497e-11 -3.330927972683666366e-09 -9.191523570141810137e-11 -4.809758145509641746e-10 5.262057798918034364e-10 8.773847946761262014e-10 2.924652559165493934e-10 8.048380036974332238e-11 3.339204026106554194e-10 3.015675657461896870e-10 3.555773452000944607e-10 3.498391455998663344e-10 3.735717243858482928e-10 3.536730654832140310e-10 7.948162813118101872e-09 -1.224359560374377192e-09 2.223732446672776092e-09 7.581474797595382403e-10 1.692311855845098392e-09 3.027193909351517089e-10 4.126846981091895222e-10 2.170962816043300103e-10 4.793388370059662372e-10 3.148567513016716101e-10 3.377120260128471321e-10 3.833638339417403105e-10 3.460952503944225770e-10
-1.187722913072046190e-08 -3.913473180593614908e-08 -7.596067276980665956e-09 2.174320065454523519e-08 -8.841875995650579330e-09 3.191417394975261721e-09 -2.808836406129247123e-09 8.279487483387358849e-10 -3.212059387290528382e-10 1.301878836623443940e-10 4.282584382943147064e-10 -6.146416001285917077e-14 4.099062374192378354e-12 9.771358628761770544e-10 -4.261909732281726492e-09 5.664276297310702100e-10 2.596495512247337573e-09 7.472641984908511143e-10 8.050646264330803146e-10 5.364511993143921903e-10 3.015675657461896870e-10 6.481768203481968490e-10 6.096817905137440110e-10 5.910032069642294253e-10 5.512084618985077884e-10 4.921630241013671300e-10 6.153256571116058687e-09 -1.435374007765562916e-09 5.468497450008489252e-10 7.962645207553676581e-10 2.372846826136855477e-09 2.993401757865548530e-10 6.816637608551160534e-10 3.831748080297463098e-10 7.615047546095784982e-10 5.805705215951566334e-10 5.669201675192134558e-10 5.867988246671035592e-10 4.811086849140885468e-10
-2.770413509633350821e-08 -3.802202561926453634e-08 -1.021050019482346972e-08 2.465681373477722286e-08 -5.083224790880282078e-09 2.148586494629336356e-09 -1.320380850216999260e-09 4.377202536187681395e-10 -1.794047966108179766e-10 -9.571015277998163067e-11 3.334618786514049550e-10 6.126848427586471102e-11 -6.856779838975266463e-11 8.685097852997298318e-10 -2.527358839838437202e-09 8.758505253830090169e-10 2.521860920598662227e-09 8.918096256248943475e-10 7.806606659301600863e-10 5.585662626378333260e-10 3.555773452000944607e-10 6.096817905137439076e-10 6.489287750189815969e-10 6.067639956528229265e-10 5.815366307767477423e-10 5.233662977662965517e-10 8.746768133233795316e-09 -5.020842767954304732e-10 9.274127146086764680e-10 1.513668243140626346e-09 2.711335798642752303e-09 1.941794432389179013e-10 7.464267418918956827e-10 4.279570533550792329e-10 7.751677961268500770e-10 5.946795510931731729e-10 5.895285449494691510e-10 6.121795424775031983e-10 5.136339951871387829e-10
-3.327184394123491048e-08 -2.930174924259365665e-08 -9.506738041140360858e-10 2.549714508587241179e-08 -5.300031691323299379e-09 2.703797759213702023e-09 -1.056954939216264814e-09 6.830818167477518831e-10 -1.745357145847718637e-10 -1.132497107504385278e-10 4.206452682416357661e-10 5.770114333918556442e-11 -8.792600454126685909e-12 -1.130298474958626954e-09 -3.807356875918453178e-09 1.614752000621715409e-09 2.216066098648550431e-09 6.990609652030418426e-10 6.438289850218111665e-10 5.287060881051840728e-10 3.498391455998663344e-10 5.910032069642294253e-10 6.067639956528228231e-10 6.272083603999874066e-10 6.157274213081508669e-10 5.485010613869607043e-10 5.326116133155183806e-09 -1.339904126523084319e-09 1.588354986022291196e-09 1.432329812079135982e-09 2.520964767222153277e-09 2.023647188176623835e-10 6.037666580889249105e-10 4.553876679809590149e-10 7.724319586852312960e-10 5.920776228179976892e-10 6.136982515163892783e-10 6.342627683507223930e-10 5.360316693168955907e-10
-4.050012746962032753e-08 -3.041172069581376788e-08 -2.629808523885884170e-10 2.573522233572127682e-08 -4.484139185261301160e-09 3.029920594845041030e-09 -2.589732381783970670e-10 8.674968325980382281e-10 -1.927514837989960518e-10 -1.430898100220397627e-10 3.878303629506485204e-10 3.526456869526539943e-11 -2.995425153180273497e-11 -6.834504093886409617e-10 -2.660417958675238622e-09 1.453379332781747099e-09 1.862972079606381132e-09 7.854168218696087812e-10 5.892861659268902215e-10 3.855883986956535467e-10 3.735717243858482411e-10 5.512084618985077884e-10 5.815366307767477423e-10 6.157274213081508669e-10 6.336755470236738293e-10 5.739541799334811097e-10 5.833819811864585666e-09 -1.604535177496819487e-09 2.312986576685268039e-09 1.698489204412223726e-09 2.589107937981548912e-09 2.787472263953466650e-10 5.741552059895695590e-10 4.810388637339922510e-10 7.586874516903817427e-10 5.737102722007783745e-10 6.050281643927548450e-10 6.446869465418489578e-10 5.585267489306572294e-10
-4.035809933819720556e-08 -3.092706666330860665e-08 -1.426284886076707199e-09 2.209695849405771078e-08 -4.097955798538412066e-09 3.236175786294795353e-09 -6.571738674495949808e-12 1.012713549256201267e-09 -1.805753442334108127e-10 -1.040719014920461395e-10 3.022155031630646084e-10 -6.229370151298948845e-12 -4.349532003356553977e-11 -3.598980875940183601e-10 -1.673883991802330399e-09 6.802654218677646591e-10 1.681364347514605790e-09 7.900851543228965595e-10 5.845619234793452719e-10 2.368038761431165025e-10 3.536730654832140310e-10 4.921630241013671300e-10 5.233662977662964483e-10 5.485010613869606009e-10 5.739541799334811097e-10 5.310522784518771630e-10 6.935517825068319103e-09 -1.869854304544355167e-09 2.141416995497263955e-09 1.686193288141814772e-09 2.435273856219983370e-09 2.951908573429519909e-10 5.412594459887139514e-10 4.404108514526312030e-10 6.838379236326498180e-10 5.243336766030371712e-10 5.386671608600394591e-10 5.828442995162570758e-10 5.168223142771665194e-10
-4.644581421104786674e-07 -1.110144398407835226e-06 -6.064991578745979906e-07 -3.362348279436615665e-08 -1.048565807274422537e-07 1.341183823524228407e-08 1.981255913027814582e-08 3.173550854258003946e-08 4.923044621429548728e-09 3.122264475017362221e-09 -9.869552026017134293e-09 -6.266142403366406277e-09 -7.932030832489374136e-09 -1.134361339839444314e-07 7.573341867330643832e-08 -5.401544055111785015e-08 2.042043592758756716e-08 2.508297099787820996e-08 1.521338972300240271e-08 -6.083941152832571169e-09 7.948162813118105181e-09 6.153256571116060341e-09 8.746768133233795316e-09 5.326116133155185460e-09 5.833819811864585666e-09 6.935517825068319103e-09 6.275632366273799152e-07 -9.556061281571267311e-08 2.042208576067707450e-08 2.809545407347761364e-08 4.846416730919333012e-08 -2.830215123512443748e-10 2.017246428861760535e-08 6.240937115290883676e-09 6.557624293487336622e-09 7.779453020349084968e-09 5.599979501477044904e-09 6.432688269161163575e-09 6.952051449307565293e-09
-4.613867261701893665e-07 -5.183242183094620576e-07 -3.986755075319483782e-08 5.722082521699421114e-08 8.849569754494706383e-08 -5.943418317525473335e-08 6.325722147087348804e-09 -3.567470035840769512e-08 7.640224140593911281e-09 -6.797115566734400656e-09 -9.035869990700184297e-09 -1.074745325852751448e-09 -1.907114556335775267e-09 -4.096161892806490053e-08 5.059675307096275641e-08 -2.062656686214389655e-09 1.441778921504935458e-08 -1.144569710247231856e-08 3.997155531344919183e-09 2.498259917535434462e-09 -1.224359560374377399e-09 -1.435374007765562916e-09 -5.020842767954304732e-10 -1.339904126523084732e-09 -1.604535177496819487e-09 -1.869854304544355580e-09 -9.556061281571267311e-08 1.910351313059728265e-07 1.103532869961680670e-08 -4.644140352749142375e-10 2.746507424325160999e-10 -3.139991484309691648e-09 -1.803862934376268345e-09 -1.129853235883148293e-09 -4.504332284555848617e-10 -1.256867736833283871e-09 -1.435122373191705256e-09 -1.636939426579678559e-09 -1.629893047472473728e-09
-1.695303582710175998e-07 -1.032452405242888762e-07 -1.468203062515947609e-08 7.603113886256550524e-08 -2.090604958808672114e-08 -1.698737660873345839e-08 9.340949205752818899e-09 4.279173568176505362e-09 1.942367861753243392e-09 -7.268094230521900609e-10 -1.468739723315710503e-09 -1.665485491459842026e-09 -7.552900499020140457e-10 -9.162950924385820430e-08 3.936355955159389137e-09 4.177947436179558190e-09 -8.790273666854872053e-09 2.100418161741326594e-09 -1.553668742581017796e-09 -1.228125819170616159e-09 2.223732446672775678e-09 5.468497450008498557e-10 9.274127146086764680e-10 1.588354986022291196e-09 2.312986576685268453e-09 2.141416995497263955e-09 2.042208576067707450e-08 1.103532869961680836e-08 4.385738949623608038e-08 -1.058591559334932811e-09 7.876694814009111313e-09 1.672783050840649416e-09 1.153953005079988342e-09 1.272122678663631087e-09 1.876885999335520939e-09 8.119490221207612761e-10 1.714682493922044454e-09 2.155955014389687006e-09 2.056321995878867493e-09
-4.255480334262775965e-07 -8.354843159225057501e-08 3.234795838245467155e-08 8.410271922510853008e-08 4.478937934839077561e-08 2.287356235311886018e-08 2.134515761334557401e-08 -4.752449001353274880e-10 2.488537778634905083e-10 -2.738107903735526058e-09 5.548840390606275951e-10 1.071185449405089115e-09 -6.238713972144479553e-10 5.083801816989308494e-08 1.992757943103256057e-08 4.447856178720536390e-09 8.237115510109467264e-09 2.328841580026731997e-09 2.683931940817374193e-09 -1.539065086103087859e-10 7.581474797595382403e-10 7.962645207553676581e-10 1.513668243140625932e-09 1.432329812079135982e-09 1.698489204412223726e-09 1.686193288141814772e-09 2.809545407347761033e-08 -4.644140352749162538e-10 -1.058591559334934672e-09 1.886078547468157183e-08 9.341871839258741997e-09 -1.716253401026337377e-11 1.145513671094262466e-09 2.186048141434989102e-09 1.676620300795293461e-09 1.695569814130709764e-09 1.442214935066536638e-09 1.618584077181676111e-09 1.650071594858921081e-09
-2.345447891576465320e-07 -1.510985128542751834e-07 -6.450127240740109975e-08 1.047818367385812894e-07 -1.275414875472208612e-08 1.256402759155047055e-08 5.980498453377582650e-10 2.507045127292419025e-09 6.275041109351448066e-10 -2.862655407015972971e-10 7.348271791022808219e-10 3.956322242476384489e-11 -5.415408957720087300e-10 1.944100653806171228e-09 -1.508464007350651760e-10 -2.181013934369933583e-09 1.056381549967809960e-08 4.114731436942171894e-09 3.651331934581801554e-09 1.263375267928851267e-09 1.692311855845098392e-09 2.372846826136855477e-09 2.711335798642752303e-09 2.520964767222153277e-09 2.589107937981549325e-09 2.435273856219983370e-09 4.846416730919333674e-08 2.746507424325166686e-10 7.876694814009111313e-09 9.341871839258741997e-09 1.328815626688936443e-08 8.936876684920983443e-10 3.403821838231310281e-09 1.974603469203000866e-09 3.231696374269143742e-09 2.557284516187592754e-09 2.493110374009179076e-09 2.668560629946355114e-09 2.385817738075569062e-09
6.260820362877435036e-08 -8.507794021632244403e-08 -2.055878641758321573e-09 1.190335365826131104e-08 -9.142332667509583247e-09 4.447616033260488606e-09 -2.957617254841083965e-09 2.733007372325717062e-09 -2.529279511941223187e-09 1.441690374320190523e-12 4.324974884338534428e-10 -2.433792050890575901e-10 1.298091798964576479e-10 1.713023175223050786e-08 3.793863975122770139e-09 -4.368908056261206914e-09 -6.103943666176600528e-10 1.993960677495068946e-09 3.178141770861429895e-10 -5.591288898970469600e-10 3.027193909351517089e-10 2.993401757865549047e-10 1.941794432389179013e-10 2.023647188176623576e-10 2.787472263953467167e-10 2.951908573429520943e-10 -2.830215123512437544e-10 -3.139991484309690821e-09 1.672783050840649416e-09 -1.716253401026327037e-11 8.936876684920980341e-10 1.717220439705388754e-09 1.188608674956425195e-11 3.017557191565362803e-12 5.570848413118081100e-10 1.190468268641631938e-10 1.108363335571698595e-10 3.068143867369962997e-10 2.706653953093204857e-10
-2.308071398856260494e-08 -2.630770468861805091e-08 -4.038897517646220237e-08 1.996470832919379299e-08 -9.047735588924474564e-09 1.322994002610564055e-09 -2.036595312361606204e-09 5.546219575905723244e-10 5.524671909515515082e-10 4.502495182621632264e-10 1.647457409766245642e-10 -9.807449066046255807e-12 -2.144264886012038566e-10 -2.415198993276135610e-09 -1.674403423758782180e-09 -1.056575505974980231e-09 2.786513244659865407e-09 1.216228659318433651e-09 9.568367183445481840e-10 5.380263705989793828e-10 4.126846981091895739e-10 6.816637608551160534e-10 7.464267418918955793e-10 6.037666580889249105e-10 5.741552059895694556e-10 5.412594459887140548e-10 2.017246428861760535e-08 -1.803862934376268759e-09 1.153953005079988135e-09 1.145513671094262673e-09 3.403821838231310281e-09 1.188608674956431658e-11 1.271322849968074539e-09 4.073232607960206576e-10 7.402518814845028941e-10 6.363095723841772980e-10 6.113992079308728118e-10 6.244901965577542032e-10 5.307606828312062459e-10
-5.837255710026686046e-08 -3.185552294827672154e-08 7.988062381073561811e-09 1.794583662199899897e-08 -7.664201421821935797e-10 3.648581751779587238e-09 1.419028663940354709e-09 3.778875940304601704e-10 4.725588881707177859e-11 -2.488147206157463485e-10 1.907748869514016279e-10 4.704458377806962244e-11 -1.126517560401064715e-10 1.358729896568065575e-09 -1.196209927182822439e-09 2.712486210232275500e-09 1.769941102346492123e-09 2.514476373080996471e-10 5.613188101955047111e-10 2.462423839365038590e-10 2.170962816043300103e-10 3.831748080297463098e-10 4.279570533550793363e-10 4.553876679809590149e-10 4.810388637339922510e-10 4.404108514526312030e-10 6.240937115290883676e-09 -1.129853235883147879e-09 1.272122678663630467e-09 2.186048141434989102e-09 1.974603469203001280e-09 3.017557191565385825e-12 4.073232607960206576e-10 5.187373917757797222e-10 4.993438066670644936e-10 4.672233026546484918e-10 4.589562836598135312e-10 4.805112932990310842e-10 4.302937131451713728e-10
-2.726848014347132457e-08 -5.866406929525949971e-08 -4.186124770246723953e-09 3.273129692086765002e-08 -7.243354296565516669e-09 3.310874744738227225e-09 -2.053276377492003448e-09 1.046727091358010149e-09 -6.948851429011412264e-10 -2.138619917575389239e-10 4.817691587742494021e-10 7.778339661237280079e-12 -4.470834964808576253e-13 1.763422230609554464e-09 -3.139780450990852180e-09 4.579891762590825087e-10 2.801400490848061727e-09 1.223677492893559512e-09 9.207207486147886971e-10 5.539471806459615588e-10 4.793388370059662372e-10 7.615047546095786016e-10 7.751677961268500770e-10 7.724319586852312960e-10 7.586874516903817427e-10 6.838379236326498180e-10 6.557624293487336622e-09 -4.504332284555846549e-10 1.876885999335520939e-09 1.676620300795293874e-09 3.231696374269143742e-09 5.570848413118081100e-10 7.402518814845029975e-10 4.993438066670644936e-10 1.042895224454224696e-09 7.251107700382473929e-10 7.327930833227713676e-10 7.908296254808110687e-10 6.686449619517134731e-10
-4.470368469034967246e-08 -3.510256107314315690e-08 -1.608262433299270108e-09 2.170660430539406298e-08 -4.923920560999647051e-09 3.688350725871892010e-09 -8.338626847395969473e-10 7.402969852649581801e-10 -1.852989949045043545e-11 -6.383657265981787778e-11 2.907778441916787626e-10 7.551149703144882950e-12 -4.487242527494669307e-11 -7.534395267425367027e-10 -3.066585727249165439e-09 8.547859917703460359e-10 2.672954879397363130e-09 5.670377686019897299e-10 8.274826841271874398e-10 4.166978409644253469e-10 3.148567513016716101e-10 5.805705215951566334e-10 5.946795510931731729e-10 5.920776228179976892e-10 5.737102722007784779e-10 5.243336766030372746e-10 7.779453020349084968e-09 -1.256867736833283664e-09 8.119490221207612761e-10 1.695569814130709764e-09 2.557284516187592754e-09 1.190468268641632455e-10 6.363095723841772980e-10 4.672233026546484918e-10 7.251107700382473929e-10 6.073765925997604582e-10 5.808784873100873940e-10 5.927282265251039479e-10 5.156487740693293685e-10
-3.809562799582821682e-08 -2.183856499045381115e-08 -1.689776501758052918e-09 2.469747894923758337e-08 -4.892372956450753781e-09 2.537633138458142764e-09 -7.617499429385132408e-10 5.961018616041003379e-10 1.358637880968261459e-11 -7.921686472024297242e-11 3.986949841324585284e-10 6.729459209563207836e-11 -1.921109100733267871e-11 -2.327135503656126833e-09 -3.918235721714247723e-09 1.794055663470037567e-09 2.147738125362544258e-09 6.029877262805294602e-10 6.020997412138984046e-10 5.303012430448148818e-10 3.377120260128471321e-10 5.669201675192134558e-10 5.895285449494691510e-10 6.136982515163892783e-10 6.050281643927548450e-10 5.386671608600394591e-10 5.599979501477044904e-09 -1.435122373191705049e-09 1.714682493922044454e-09 1.442214935066536638e-09 2.493110374009179076e-09 1.108363335571698725e-10 6.113992079308728118e-10 4.589562836598135312e-10 7.327930833227713676e-10 5.808784873100873940e-10 6.080747155698104620e-10 6.203101765623459177e-10 5.264305490707495189e-10
-3.542810188109573577e-08 -3.386020697490693011e-08 -2.350634844450531373e-09 2.627621845203201632e-08 -5.297685736607955420e-09 2.990786855126398490e-09 -6.656207303002681837e-10 8.810855975851458230e-10 -2.533215671928196173e-10 -1.158831570564643550e-10 4.090305549171642455e-10 3.485488655566469394e-11 -3.197145694906197377e-11 -1.883022891134234531e-10 -2.843186683908054176e-09 1.367198649337637376e-09 1.994974256339471578e-09 8.619276451906175624e-10 6.353518252774769566e-10 4.285884845434653079e-10 3.833638339417403105e-10 5.867988246671035592e-10 6.121795424775031983e-10 6.342627683507223930e-10 6.446869465418489578e-10 5.828442995162570758e-10 6.432688269161163575e-09 -1.636939426579678353e-09 2.155955014389686592e-09 1.618584077181676525e-09 2.668560629946355114e-09 3.068143867369962997e-10 6.244901965577542032e-10 4.805112932990310842e-10 7.908296254808110687e-10 5.927282265251039479e-10 6.203101765623460211e-10 6.611043000535222539e-10 5.673207364818115850e-10
-4.049808486640390590e-08 -3.143143741156482784e-08 -1.182224084913510592e-09 2.141876013118999913e-08 -3.906698786711635240e-09 3.068607538045713441e-09 1.060140589667070932e-13 9.566501169858532305e-10 -1.585507796477601246e-10 -1.166828982004499641e-10 2.727146954374208727e-10 -1.266244068372831198e-11 -4.707049894566771668e-11 -7.313412144968425916e-10 -1.630592162342737164e-09 6.510145402267867317e-10 1.693701081017507744e-09 7.478753159593897397e-10 5.867310588414594846e-10 2.353349048620347889e-10 3.460952503944225770e-10 4.811086849140886502e-10 5.136339951871385761e-10 5.360316693168956941e-10 5.585267489306573328e-10 5.168223142771666228e-10 6.952051449307563639e-09 -1.629893047472473728e-09 2.056321995878868320e-09 1.650071594858921288e-09 2.385817738075569476e-09 2.706653953093205374e-10 5.307606828312061425e-10 4.302937131451714245e-10 6.686449619517134731e-10 5.156487740693293685e-10 5.264305490707495189e-10 5.673207364818115850e-10 5.037966954904948579e-10
