2.642554596888477205e-05 4.167668353855071082e-06 -2.884123691226638186e-06 -5.048462333256909622e-07 7.559776113987833629e-07 2.116056259022221584e-07 8.093527310018803717e-08 2.556958125236057464e-07 1.647198398773350019e-07 2.185614564040030122e-07 2.662415513538205863e-07 2.123627296612348708e-07 1.797715774338906197e-07 4.979091545296346585e-07 -2.302773800043804772e-07 1.530938371509014857e-07 4.663762065296004544e-08 -1.771421238131130713e-08 2.769530680193602221e-08 2.143766706521624251e-08 5.340607940069777391e-08 6.347857182401351111e-09 2.338497180296663767e-09 -2.736125272491290123e-09 9.550458023384306483e-09 9.121727993639442530e-09 2.352207934553716714e-09 4.293130356686269459e-08 2.996026478721957313e-08 7.873596019238022558e-09 1.679353987973946683e-08 1.586392037087003741e-08 2.018824936315121661e-08 1.363101203239634534e-08 1.938752128007885635e-08 1.138968731534339237e-08 7.814966447271826876e-10 1.086980920268205484e-08 7.648097674059794432e-09
4.167668353855071082e-06 3.069079638295639924e-06 -3.244402645471362904e-07 8.623934294286665725e-08 3.842284371769064192e-07 1.382883772116893542e-07 1.260159903732355110e-07 5.469455629686416186e-08 4.122057653216172982e-08 3.393039985261288753e-08 6.119007038925928137e-08 4.388828055181378697e-08 6.406887142429715816e-08 -3.633732098778953847e-07 -1.389326805891530200e-07 -2.962977724345995002e-08 2.113718491374173015e-08 1.882677819246426472e-08 3.156540842681584673e-09 -1.199660930438705596e-08 -1.088129830479203216e-09 -1.434760495212758080e-08 -1.096126715688480090e-08 -8.288336298547661923e-09 -5.812401212738929550e-09 -5.230253097590020828e-09 5.681510452113306648e-08 6.889601313671858993e-09 -2.443932196648026400e-08 -4.207460383044180064e-09 -1.336811974641348411e-08 -3.204659085983918035e-09 -4.767698003141245436e-09 -7.112149447006276946e-09 -5.946602811077337428e-09 -6.166934492377156470e-09 -9.291064384538453443e-09 -9.423572721146589455e-09 -7.881133237280258287e-09
-2.884123691226637763e-06 -3.244402645471362374e-07 7.334428344455003587e-07 1.825684111878900455e-07 -5.506186969662158938e-08 2.051211004610293523e-08 3.511360206559834565e-08 -2.313425836147042028e-08 -3.561871195328321172e-08 -3.463170133080519310e-08 -3.554263890263891302e-08 -2.637747094960864989e-08 -2.235567395634619213e-08 -2.209386147273966043e-07 2.634883197931773442e-08 2.581491703938046743e-08 -1.390253868435131513e-08 1.153516786638840683e-08 9.463150426447622808e-09 1.082925879259840475e-08 7.117346182160005956e-09 8.276191954635850961e-09 9.956285694543041553e-09 9.340697906301558239e-09 7.601505642469550781e-09 7.697663810481447948e-09 1.908162521727825423e-09 9.026614743222713180e-09 4.723674531515819848e-09 7.379441740419631002e-09 5.977185563145923158e-09 5.373830802768798181e-09 4.405676819545983650e-09 7.678968787578725500e-09 6.432707089804331948e-09 7.096743676794946747e-09 8.180552458679086077e-09 6.450224839621775528e-09 7.249458623109763552e-09
-5.048462333256909622e-07 8.623934294286665725e-08 1.825684111878900455e-07 9.763197832830337602e-08 4.641275172664865776e-08 1.700006767334152736e-08 1.133494177752291027e-08 -2.217314292074815425e-09 -5.621533148321075539e-09 -1.357182079511540731e-08 -6.858439776864897796e-09 -6.178605970718256710e-09 -3.063872961986100398e-09 -9.797328060790184463e-08 -1.774391494549849150e-08 1.048171025585354719e-08 -6.820654072335655044e-09 2.556056178728536031e-09 -1.855994782228866918e-10 2.370471451155784347e-09 1.321914909697937155e-10 -4.931756940455331446e-10 -6.853330977000788034e-10 4.553310027057068806e-10 7.362894504780339609e-10 1.577851994172191124e-09 -5.307345825440435411e-09 2.837840890634846881e-09 -1.524232238680440613e-09 -1.168967163450871331e-11 -6.177233092627549857e-10 -1.794071341123706935e-10 -3.319816247267761704e-10 6.369263098548585410e-10 4.832086151947241708e-11 4.805480489542484745e-11 3.684052980671094578e-10 4.133427245656455802e-10 1.352323963104108986e-09
7.559776113987833629e-07 3.842284371769064722e-07 -5.506186969662158938e-08 4.641275172664865776e-08 2.212891817733933705e-07 4.003489278723637127e-08 1.933895608152923185e-08 -7.129073003193193232e-09 -1.062848001437583334e-08 -2.836992755884627760e-08 -1.571000104017711861e-08 -1.003989416986269373e-08 -2.379595363128256603e-10 -1.482986102066165464e-08 -5.599371111127573292e-08 -5.424454095028209714e-09 -4.234172436189270510e-09 -2.589711649444210163e-09 -3.361996368738346010e-09 5.977737634791033486e-10 8.177217881909470635e-10 -8.692348360903944844e-10 -1.342605972734854544e-09 5.921637476047070507e-10 1.032885462545665063e-09 9.531013685801875429e-10 -1.621057331959847381e-09 3.229787636755381672e-09 -2.235617191467842206e-09 1.232749082177243953e-09 -1.149607015184010012e-09 4.565119855963477566e-10 1.132499110238423576e-09 8.028110347715835873e-10 9.938293187736496725e-10 3.130878080347811121e-10 7.431526006526046247e-10 9.378656952851950643e-10 1.046903152976827546e-09
2.116056259022221584e-07 1.382883772116893277e-07 2.051211004610293523e-08 1.700006767334152736e-08 4.003489278723637127e-08 2.412797439745378373e-08 1.214003855510645366e-08 3.314335491333997816e-09 -3.916652157328333098e-10 -2.707651903290209774e-09 1.370668900019009483e-09 1.665214657326414000e-11 1.583730274324018289e-10 -2.321415369864427709e-08 -1.362930618816849736e-08 -4.737786670153914621e-09 -1.278123495948308066e-09 -9.399966442798064174e-10 1.464581849737810312e-09 6.360415441393312534e-10 1.210703939512164796e-09 -3.144825350372927713e-10 -3.310059663878513799e-11 2.371981623703643592e-10 9.286113866500084236e-11 1.785210994974961364e-10 -1.682583875798763018e-09 2.359401966886983755e-09 -1.772153427818084388e-09 -5.423807191739820617e-11 8.240444187328024675e-11 -8.788498952739845708e-11 1.084612763478793169e-10 4.143313225494022795e-10 3.501774984151482132e-10 3.002908172352820685e-10 2.605818826418370258e-10 1.764074495451762939e-10 2.214386173302686969e-10
8.093527310018803717e-08 1.260159903732355110e-07 3.511360206559835227e-08 1.133494177752291027e-08 1.933895608152923185e-08 1.214003855510645366e-08 1.158454742314711138e-08 1.214316278113125929e-09 -2.404025971676628160e-09 -1.459977402951341503e-09 -3.128169890100415350e-13 4.610970083373199314e-10 1.039690097592392791e-09 -3.173708212654944993e-08 -4.219559053222342422e-09 3.648659196953631577e-10 -1.275373096676098183e-10 1.367295951005933076e-09 1.639604089293139864e-09 4.386376047656297768e-10 1.076948924417727670e-09 4.899726033001240279e-10 8.684789487297526652e-10 7.763823489838506854e-10 5.917800974905721755e-10 4.205846006567804009e-10 3.081433680672994593e-09 1.345061622893858788e-09 -9.645128800380248927e-10 6.688759664506084279e-10 1.786036678667250023e-10 4.965871028382148225e-10 4.055144373597953127e-10 5.682255755667894776e-10 6.331269742508454031e-10 6.464348420392257844e-10 5.820759183901064972e-10 3.457987843128791603e-10 3.108219403065317069e-10
2.556958125236057464e-07 5.469455629686416186e-08 -2.313425836147042028e-08 -2.217314292074816252e-09 -7.129073003193192405e-09 3.314335491333997816e-09 1.214316278113126549e-09 6.763854976618619474e-09 4.616645586572312203e-09 7.912378055071345619e-09 7.250790587386661286e-09 4.840242126104836691e-09 3.507914104923748550e-09 -1.142399077117470843e-08 -1.798193577317669163e-09 2.828751059901573928e-10 4.619924035823957390e-10 3.429542211244571968e-10 6.776842316587289505e-10 -2.130096252518275181e-10 3.113753582079112756e-11 -5.395308336769561408e-10 -6.207414718989969983e-10 -6.017782059322085940e-10 -5.475521594331476455e-10 -4.648624028820811213e-10 -1.268925051651014613e-09 -3.238192108981136077e-11 -7.606074963445428261e-10 -9.836133007700578928e-10 -4.514396131786956178e-10 -5.750088046699775943e-10 -5.654677996673046843e-10 -5.428214187815151993e-10 -5.192581862899859983e-10 -4.796469220941363716e-10 -6.022620434044567521e-10 -5.350773676623337665e-10 -5.266596167649429277e-10
1.647198398773350019e-07 4.122057653216172982e-08 -3.561871195328321172e-08 -5.621533148321075539e-09 -1.062848001437583334e-08 -3.916652157328332581e-10 -2.404025971676627746e-09 4.616645586572312203e-09 8.790217955351457005e-09 9.830342363360020840e-09 9.053555960934270006e-09 5.803985328630290663e-09 3.880773572365926401e-09 7.468560545362523022e-09 1.532446614822437341e-09 -1.685306160898875562e-09 1.053982415653973974e-09 1.021488334695802192e-10 -5.139226584032054581e-10 -7.864591386933234775e-11 -2.858324092911909673e-10 -9.766814646005319351e-10 -8.732656654944101411e-10 -9.610668746921321729e-10 -8.582968582598349116e-10 -7.889547850223424227e-10 -5.501131625410809436e-10 5.701582796526066974e-10 -5.945296780699559529e-10 -1.263265134071923269e-09 -6.278428865554545202e-10 -5.305749287637153975e-10 -5.149079535381918661e-10 -6.513220334674595746e-10 -7.508777833327212674e-10 -7.102853699258674401e-10 -9.237989486231803397e-10 -9.354692546344159137e-10 -8.503381697700162838e-10
2.185614564040030122e-07 3.393039985261288753e-08 -3.463170133080519310e-08 -1.357182079511540731e-08 -2.836992755884627760e-08 -2.707651903290209774e-09 -1.459977402951340883e-09 7.912378055071345619e-09 9.830342363360020840e-09 1.599948857393645552e-08 1.261476728867034975e-08 8.857624113237769969e-09 5.754224904393635501e-09 -2.112933424854019495e-09 6.748085964634173714e-09 -3.771492608260737387e-10 1.573839142752862776e-09 1.202537761356782809e-09 4.840118736454518816e-10 -8.316299308850041821e-11 -6.166830369884648875e-11 -5.360698217005139899e-10 -4.053118068576547116e-10 -7.457542909607806388e-10 -8.369539685686592761e-10 -9.850295166333862716e-10 1.542954787995910760e-10 1.299340805141973766e-10 -6.747383535643167925e-10 -1.541474135154390746e-09 -6.347453441103503457e-10 -5.822538565039283380e-10 -6.383205243957311064e-10 -7.647424132804465951e-10 -7.606545769497731317e-10 -6.296228215352576524e-10 -8.579246820898608922e-10 -1.022176872012574473e-09 -1.106454584710854357e-09
2.662415513538205863e-07 6.119007038925928137e-08 -3.554263890263891302e-08 -6.858439776864896141e-09 -1.571000104017712192e-08 1.370668900019009897e-09 -3.128169890100717262e-13 7.250790587386661286e-09 9.053555960934270006e-09 1.261476728867035140e-08 1.153838325330673496e-08 7.980213466750637727e-09 5.059248383061055578e-09 -3.100123511500708254e-09 2.741147316672395750e-09 6.522014664027573037e-11 1.024298636368812365e-09 5.266813569498608725e-10 2.629306942099629869e-10 -6.268514027969975486e-11 -5.653524398962081598e-11 -7.859520280387980974e-10 -6.632113032969789969e-10 -8.756435777318840069e-10 -8.517487542453978858e-10 -8.677584613199756081e-10 -4.631411505535030159e-10 5.660971528649050626e-10 -1.057459143419050437e-09 -1.440384113220477634e-09 -6.589575581127718763e-10 -6.016834807246547059e-10 -6.221181581572878790e-10 -6.993267275329608256e-10 -7.322759553228956920e-10 -6.679787358913290410e-10 -9.220651052916747535e-10 -9.880234851903524369e-10 -9.607629980192035517e-10
2.123627296612348708e-07 4.388828055181378697e-08 -2.637747094960864989e-08 -6.178605970718256710e-09 -1.003989416986269538e-08 1.665214657326446635e-11 4.610970083373204484e-10 4.840242126104836691e-09 5.803985328630291490e-09 8.857624113237769969e-09 7.980213466750637727e-09 5.975704016139037372e-09 3.756360711936520495e-09 -2.706332311987745879e-09 3.024496374855089259e-09 1.427306216155725481e-09 7.008479983941943779e-10 5.952870732036478638e-10 2.411729416967947860e-10 3.496540573166450988e-11 5.932113082230104957e-11 -3.113598650480744618e-10 -2.174715407809283273e-10 -4.432134941889660774e-10 -4.524977916248620696e-10 -5.560502631684001288e-10 2.324833759034708581e-10 3.887030335293054282e-10 -6.922966180276249655e-10 -8.740636188516093098e-10 -4.093245586596305226e-10 -2.826861560909505885e-10 -3.189549580423120464e-10 -3.977044678837251354e-10 -3.778186970238871774e-10 -3.465869417679019034e-10 -5.255780291665807616e-10 -6.129769727802960374e-10 -6.336882602504351490e-10
1.797715774338906197e-07 6.406887142429715816e-08 -2.235567395634619544e-08 -3.063872961986100398e-09 -2.379595363128262290e-10 1.583730274324016479e-10 1.039690097592392791e-09 3.507914104923749378e-09 3.880773572365927228e-09 5.754224904393635501e-09 5.059248383061055578e-09 3.756360711936520495e-09 3.273662426977186236e-09 -5.730670646962676566e-09 -5.294977601268797153e-10 4.831465217318948683e-10 8.638251697593858725e-10 8.146175065571560014e-10 4.197958784110024062e-11 -1.817566865210509560e-10 -3.562114171948508468e-11 -3.653507712685086135e-10 -3.290545816663826389e-10 -3.736654261916955365e-10 -3.088927532824946242e-10 -3.504826751937258423e-10 1.040095350226627762e-09 8.118924898019417385e-11 -4.202686066229770903e-10 -5.221760119269829564e-10 -4.382863880659846128e-10 -1.893467907318738632e-10 -2.366518978681423974e-10 -3.527403681899733698e-10 -3.160436986124785729e-10 -3.020725790794823822e-10 -4.258773559318634584e-10 -4.486489811135093906e-10 -4.466755163099166311e-10
4.979091545296346585e-07 -3.633732098778953847e-07 -2.209386147273966043e-07 -9.797328060790184463e-08 -1.482986102066165630e-08 -2.321415369864427709e-08 -3.173708212654944332e-08 -1.142399077117471008e-08 7.468560545362524676e-09 -2.112933424854019081e-09 -3.100123511500707426e-09 -2.706332311987744638e-09 -5.730670646962676566e-09 2.227182798048504178e-07 1.680730275216730844e-08 -6.651660222560671911e-09 4.456325822152851330e-09 -8.869476112835126087e-09 -3.263525903587755013e-09 1.956610990905559691e-09 2.393283129849904269e-09 1.677068010183062831e-09 1.648085056826135452e-09 5.014938672333422042e-10 9.791152629234833506e-10 7.245443754253069174e-10 -2.927217248415451270e-09 1.861509722118877019e-09 8.365093718055717488e-09 2.605590027054861298e-09 3.994875797585569463e-09 2.495056957034753926e-09 3.266312164307599878e-09 2.305908401118865030e-09 2.301624592582757451e-09 1.725115691917180045e-09 1.381177411884184903e-09 2.016414481694273279e-09 1.417059644720968649e-09
-2.302773800043804772e-07 -1.389326805891530200e-07 2.634883197931773442e-08 -1.774391494549849150e-08 -5.599371111127573292e-08 -1.362930618816849736e-08 -4.219559053222342422e-09 -1.798193577317669163e-09 1.532446614822437341e-09 6.748085964634174541e-09 2.741147316672395750e-09 3.024496374855089259e-09 -5.294977601268797153e-10 1.680730275216730844e-08 2.228255987918386299e-08 5.391311399504609905e-09 9.436838067813540102e-10 1.256395234977455704e-09 1.094216579099281208e-09 1.148870871561825080e-09 9.157181124600104039e-10 1.623845709019624762e-09 2.023507701693092991e-09 1.028226172692645748e-09 7.109005717229226604e-10 3.083521796496269899e-10 2.712178849106709129e-09 4.429832489135207094e-10 1.761515429858322205e-09 7.294077685481776283e-10 1.192645540495767595e-09 1.005451769624215469e-09 7.981109186448167791e-10 8.388039887398449604e-10 8.283436517870216402e-10 9.448040578209332724e-10 8.161319308121942385e-10 4.762283020703849876e-10 2.788605732473756469e-10
1.530938371509015122e-07 -2.962977724345994671e-08 2.581491703938046082e-08 1.048171025585354719e-08 -5.424454095028209714e-09 -4.737786670153914621e-09 3.648659196953633128e-10 2.828751059901577547e-10 -1.685306160898875149e-09 -3.771492608260734285e-10 6.522014664027600179e-11 1.427306216155725481e-09 4.831465217318947649e-10 -6.651660222560671911e-09 5.391311399504609078e-09 1.359152394070855298e-08 -1.088384319576005965e-09 1.349460791823736397e-09 9.840743520708607623e-10 2.099424776582458598e-09 1.755956109405504719e-09 1.660449671965660896e-09 1.590660819125554182e-09 1.223141492205778222e-09 1.431608833641108168e-09 1.423754407782089691e-09 3.240036959861487897e-10 1.465037663444946129e-09 2.316589563746177604e-09 1.400158339093245336e-09 1.328959421740409754e-09 1.325514389818106933e-09 1.193339995254656666e-09 1.396309070416480789e-09 1.368766414845131187e-09 1.223983056310691884e-09 1.134224254132671421e-09 1.227755634389473708e-09 1.321015910825935533e-09
4.663762065296005206e-08 2.113718491374173346e-08 -1.390253868435131513e-08 -6.820654072335655044e-09 -4.234172436189270510e-09 -1.278123495948307653e-09 -1.275373096676097408e-10 4.619924035823957390e-10 1.053982415653973974e-09 1.573839142752862776e-09 1.024298636368812365e-09 7.008479983941943779e-10 8.638251697593858725e-10 4.456325822152851330e-09 9.436838067813542169e-10 -1.088384319576005758e-09 1.012716991274590018e-09 2.046313599123842332e-10 6.881242160882607676e-11 -2.887996850903363103e-10 1.134699475182763801e-12 -9.630610580902579002e-11 -1.844440261224283684e-11 -1.075233523365630184e-10 -7.559426644853172203e-11 -1.007264992634588208e-10 1.476702731734188538e-09 -1.747641330531117684e-10 1.452417250295367210e-10 7.644815570671782780e-11 -1.108361631600170946e-11 6.428908913840072190e-11 2.787517945065007597e-11 -7.474075394088937703e-11 -3.713898379957385528e-11 -2.655955351622520654e-11 -1.014414352072709455e-10 -9.228836237683803502e-11 -1.275682326713963621e-10
-1.771421238131130713e-08 1.882677819246426141e-08 1.153516786638840683e-08 2.556056178728536445e-09 -2.589711649444210577e-09 -9.399966442798066242e-10 1.367295951005933076e-09 3.429542211244571968e-10 1.021488334695801158e-10 1.202537761356782809e-09 5.266813569498608725e-10 5.952870732036476570e-10 8.146175065571560014e-10 -8.869476112835127741e-09 1.256395234977455704e-09 1.349460791823736604e-09 2.046313599123842332e-10 9.585765702951006489e-10 2.781828478535701150e-10 1.696359352308030181e-10 1.793238218428933572e-10 1.970145012825841361e-10 2.650524252817873758e-10 1.987379275363624454e-10 1.801711655299093781e-10 1.291074002859787287e-10 1.276140808408184992e-09 1.110751135024188886e-10 1.415488703941967196e-10 1.538325820846429667e-10 1.394723047736190358e-11 1.798584832428753721e-10 9.941954505164081449e-11 1.074415116009921510e-10 1.141114882970223731e-10 1.406166450629946861e-10 1.220271473103346996e-10 5.314241441583099742e-11 5.702452926291372030e-11
2.769530680193602221e-08 3.156540842681583846e-09 9.463150426447622808e-09 -1.855994782228863816e-10 -3.361996368738346010e-09 1.464581849737810312e-09 1.639604089293139864e-09 6.776842316587289505e-10 -5.139226584032054581e-10 4.840118736454518816e-10 2.629306942099630386e-10 2.411729416967946826e-10 4.197958784110016308e-11 -3.263525903587755013e-09 1.094216579099281208e-09 9.840743520708607623e-10 6.881242160882608968e-11 2.781828478535701667e-10 7.199994354221781587e-10 3.835309396203988221e-10 5.730089603819836199e-10 4.017411470628075881e-10 4.792730539329702027e-10 3.562461338853224606e-10 3.129610267905492635e-10 2.812180490360368899e-10 4.141409196769496188e-10 3.980531769141805316e-10 3.693369019411403313e-10 3.499709719740427103e-10 3.867498504432591419e-10 2.893516710164690396e-10 2.707420090507383315e-10 3.463018408627989174e-10 3.550815335390754692e-10 3.573879850603479565e-10 3.292339622928321824e-10 3.032599197604798763e-10 2.672866713061427107e-10
2.143766706521623920e-08 -1.199660930438705762e-08 1.082925879259840475e-08 2.370471451155784347e-09 5.977737634791031418e-10 6.360415441393312534e-10 4.386376047656297768e-10 -2.130096252518274664e-10 -7.864591386933230898e-11 -8.316299308850040529e-11 -6.268514027969975486e-11 3.496540573166450988e-11 -1.817566865210509560e-10 1.956610990905559691e-09 1.148870871561825080e-09 2.099424776582458598e-09 -2.887996850903363103e-10 1.696359352308030439e-10 3.835309396203988221e-10 8.259415630878197984e-10 7.478591747532648301e-10 5.224317072029674353e-10 5.799146223197483296e-10 4.650137449052345335e-10 4.664884610549071309e-10 4.460805478359362788e-10 -1.074927645915581516e-10 8.339577591236705201e-10 8.057455205809967035e-10 4.649033306110187391e-10 5.389343734727171550e-10 4.661805107920056196e-10 4.760291159385956851e-10 5.531138347369935692e-10 5.120762785709924767e-10 4.762655298978848556e-10 4.571219926653791542e-10 4.395920829754728779e-10 4.397196198614768401e-10
5.340607940069777391e-08 -1.088129830479203216e-09 7.117346182160005956e-09 1.321914909697938706e-10 8.177217881909470635e-10 1.210703939512164796e-09 1.076948924417727670e-09 3.113753582079110171e-11 -2.858324092911909673e-10 -6.166830369884654045e-11 -5.653524398962080952e-11 5.932113082230093325e-11 -3.562114171948511699e-11 2.393283129849904269e-09 9.157181124600104039e-10 1.755956109405504306e-09 1.134699475182731893e-12 1.793238218428933055e-10 5.730089603819836199e-10 7.478591747532648301e-10 8.537232099019919750e-10 5.648436401659178185e-10 6.493126040867464135e-10 5.055511719683769947e-10 5.073564182895811272e-10 4.732758274885248511e-10 3.809076817951092485e-10 8.093763886299512958e-10 8.481359643384529429e-10 5.820750259100039183e-10 6.052793785348420002e-10 5.264112995595371244e-10 5.312423955424348910e-10 5.922311445360957755e-10 5.780824368098586940e-10 5.391317840330341034e-10 4.993362978622577035e-10 4.900274822559657095e-10 4.641755696047458663e-10
6.347857182401351938e-09 -1.434760495212758080e-08 8.276191954635850961e-09 -4.931756940455331446e-10 -8.692348360903944844e-10 -3.144825350372927713e-10 4.899726033001240279e-10 -5.395308336769562442e-10 -9.766814646005319351e-10 -5.360698217005139899e-10 -7.859520280387980974e-10 -3.113598650480745135e-10 -3.653507712685086135e-10 1.677068010183062831e-09 1.623845709019624762e-09 1.660449671965661310e-09 -9.630610580902581587e-11 1.970145012825841103e-10 4.017411470628075881e-10 5.224317072029674353e-10 5.648436401659178185e-10 5.423031580849280857e-10 5.862735656282743244e-10 4.609132173521148671e-10 4.291620264339089261e-10 3.635443890545205981e-10 3.672212787918037269e-10 4.068511360532787347e-10 6.669412148535166627e-10 4.864135472429545678e-10 4.636649371182732614e-10 4.127812057332284428e-10 4.060069053132837929e-10 4.491802435285640798e-10 4.566944622651000699e-10 4.341432621039079943e-10 4.347729806508802768e-10 4.054246090586660778e-10 3.618879158792663617e-10
2.338497180296672866e-09 -1.096126715688480090e-08 9.956285694543043208e-09 -6.853330977000789068e-10 -1.342605972734854750e-09 -3.310059663878513799e-11 8.684789487297526652e-10 -6.207414718989971017e-10 -8.732656654944103479e-10 -4.053118068576548150e-10 -6.632113032969788935e-10 -2.174715407809284824e-10 -3.290545816663826389e-10 1.648085056826135452e-09 2.023507701693092991e-09 1.590660819125554389e-09 -1.844440261224284330e-11 2.650524252817873758e-10 4.792730539329703061e-10 5.799146223197483296e-10 6.493126040867464135e-10 5.862735656282743244e-10 6.738913037097683941e-10 5.133499985471573331e-10 4.680657160697621392e-10 3.868489145920806770e-10 6.556219271920096497e-10 5.331334959562376998e-10 6.871368608806535368e-10 5.453001464941067621e-10 5.118595562402310918e-10 4.751778071682845592e-10 4.606398818028117175e-10 5.061895117134898276e-10 5.104354514261210470e-10 4.908439290405101572e-10 4.778805339657892250e-10 4.274795503638364963e-10 3.801219836956092021e-10
-2.736125272491289295e-09 -8.288336298547658615e-09 9.340697906301558239e-09 4.553310027057067255e-10 5.921637476047072575e-10 2.371981623703643592e-10 7.763823489838506854e-10 -6.017782059322086974e-10 -9.610668746921321729e-10 -7.457542909607806388e-10 -8.756435777318840069e-10 -4.432134941889660774e-10 -3.736654261916954848e-10 5.014938672333422042e-10 1.028226172692645541e-09 1.223141492205778222e-09 -1.075233523365630184e-10 1.987379275363624196e-10 3.562461338853224606e-10 4.650137449052345335e-10 5.055511719683769947e-10 4.609132173521147637e-10 5.133499985471572297e-10 4.182201952355136950e-10 3.861612439712416782e-10 3.315620851280290232e-10 4.009525059189184458e-10 4.099255583007828083e-10 5.462182715188229755e-10 4.462712695077621594e-10 3.980128812371835519e-10 3.695461788948138302e-10 3.636649026635801721e-10 4.068975783831786971e-10 4.085102556928325920e-10 3.899840562719551644e-10 3.937384826281068461e-10 3.605830682204374269e-10 3.278776743601404261e-10
9.550458023384308138e-09 -5.812401212738929550e-09 7.601505642469549127e-09 7.362894504780339609e-10 1.032885462545665063e-09 9.286113866500077773e-11 5.917800974905721755e-10 -5.475521594331476455e-10 -8.582968582598351184e-10 -8.369539685686592761e-10 -8.517487542453978858e-10 -4.524977916248620696e-10 -3.088927532824945725e-10 9.791152629234831438e-10 7.109005717229226604e-10 1.431608833641108168e-09 -7.559426644853173495e-11 1.801711655299093781e-10 3.129610267905492635e-10 4.664884610549071309e-10 5.073564182895811272e-10 4.291620264339089261e-10 4.680657160697621392e-10 3.861612439712416782e-10 3.861461557325011991e-10 3.564080343018092568e-10 3.862301895700309361e-10 4.156648281640089364e-10 6.109045398044651422e-10 4.648872974848258279e-10 4.035287890469781657e-10 3.777788067110068780e-10 3.706974932398533654e-10 4.089948084223109461e-10 4.064150843827680151e-10 3.795618763329281019e-10 3.746474566391568484e-10 3.671727747782841529e-10 3.498968303407273205e-10
9.121727993639444184e-09 -5.230253097590020828e-09 7.697663810481447948e-09 1.577851994172191124e-09 9.531013685801875429e-10 1.785210994974961881e-10 4.205846006567804009e-10 -4.648624028820811213e-10 -7.889547850223424227e-10 -9.850295166333862716e-10 -8.677584613199755047e-10 -5.560502631684000254e-10 -3.504826751937257906e-10 7.245443754253072276e-10 3.083521796496270416e-10 1.423754407782089484e-09 -1.007264992634588467e-10 1.291074002859787287e-10 2.812180490360368899e-10 4.460805478359362788e-10 4.732758274885248511e-10 3.635443890545205981e-10 3.868489145920806253e-10 3.315620851280290232e-10 3.564080343018092568e-10 3.634667512303481692e-10 2.188619384530528977e-10 4.008092944573297070e-10 6.144941653739397746e-10 4.430615985397954991e-10 3.885277828025528355e-10 3.449060161512093158e-10 3.389959908990648738e-10 3.854900181355523897e-10 3.719241556988094140e-10 3.433170954643208732e-10 3.360531075863366463e-10 3.539836711824703641e-10 3.576127348250407558e-10
2.352207934553716301e-09 5.681510452113305324e-08 1.908162521727827904e-09 -5.307345825440436239e-09 -1.621057331959847794e-09 -1.682583875798763018e-09 3.081433680672994593e-09 -1.268925051651014819e-09 -5.501131625410810470e-10 1.542954787995911794e-10 -4.631411505535030159e-10 2.324833759034705220e-10 1.040095350226627969e-09 -2.927217248415450442e-09 2.712178849106709543e-09 3.240036959861492550e-10 1.476702731734188538e-09 1.276140808408185199e-09 4.141409196769496188e-10 -1.074927645915581516e-10 3.809076817951092485e-10 3.672212787918037786e-10 6.556219271920096497e-10 4.009525059189184458e-10 3.862301895700309878e-10 2.188619384530529235e-10 4.576703343829294625e-09 1.578166854971216380e-10 3.643640951462122006e-10 7.727278618766515996e-10 2.016074897573055193e-10 6.016992469910823068e-10 4.455250455619472310e-10 3.134425932039413248e-10 3.938774944023139237e-10 4.070286798071384485e-10 2.924175473403097256e-10 1.730313252584535177e-10 1.142799929759107502e-10
4.293130356686269459e-08 6.889601313671860647e-09 9.026614743222714834e-09 2.837840890634847708e-09 3.229787636755381672e-09 2.359401966886983755e-09 1.345061622893858788e-09 -3.238192108981133492e-11 5.701582796526066974e-10 1.299340805141974283e-10 5.660971528649052694e-10 3.887030335293055316e-10 8.118924898019418678e-11 1.861509722118876606e-09 4.429832489135206060e-10 1.465037663444946129e-09 -1.747641330531117684e-10 1.110751135024189274e-10 3.980531769141805316e-10 8.339577591236705201e-10 8.093763886299512958e-10 4.068511360532788381e-10 5.331334959562376998e-10 4.099255583007828083e-10 4.156648281640089364e-10 4.008092944573297070e-10 1.578166854971216380e-10 1.109719534053912243e-09 6.116987470302501488e-10 4.334458917023426950e-10 5.021057112399382100e-10 4.689104995474098247e-10 4.833197128964179884e-10 5.549545213704843213e-10 5.006133582433662332e-10 4.607746311156813057e-10 4.054741880836405330e-10 3.730026026583961089e-10 3.897145298929476893e-10
2.996026478721957313e-08 -2.443932196648026400e-08 4.723674531515819848e-09 -1.524232238680440613e-09 -2.235617191467842206e-09 -1.772153427818084388e-09 -9.645128800380248927e-10 -7.606074963445428261e-10 -5.945296780699559529e-10 -6.747383535643167925e-10 -1.057459143419050643e-09 -6.922966180276249655e-10 -4.202686066229771937e-10 8.365093718055719142e-09 1.761515429858322411e-09 2.316589563746177604e-09 1.452417250295367210e-10 1.415488703941966421e-10 3.693369019411403313e-10 8.057455205809967035e-10 8.481359643384529429e-10 6.669412148535166627e-10 6.871368608806534334e-10 5.462182715188228721e-10 6.109045398044651422e-10 6.144941653739397746e-10 3.643640951462121489e-10 6.116987470302501488e-10 1.453712107496850787e-09 7.771702107907461192e-10 7.632037007405685487e-10 6.470813025462739977e-10 6.482527446233101550e-10 6.798183462347297141e-10 6.572401989949308452e-10 6.035875782194952360e-10 5.777418114339803650e-10 6.307597056101886287e-10 6.116114925114138522e-10
7.873596019238024212e-09 -4.207460383044178410e-09 7.379441740419631002e-09 -1.168967163450854528e-11 1.232749082177243746e-09 -5.423807191739821910e-11 6.688759664506083245e-10 -9.836133007700578928e-10 -1.263265134071923269e-09 -1.541474135154390746e-09 -1.440384113220477427e-09 -8.740636188516093098e-10 -5.221760119269829564e-10 2.605590027054861298e-09 7.294077685481777317e-10 1.400158339093245130e-09 7.644815570671782780e-11 1.538325820846429667e-10 3.499709719740426586e-10 4.649033306110186357e-10 5.820750259100039183e-10 4.864135472429545678e-10 5.453001464941067621e-10 4.462712695077621594e-10 4.648872974848258279e-10 4.430615985397954991e-10 7.727278618766514962e-10 4.334458917023426950e-10 7.771702107907461192e-10 6.430175884027924424e-10 5.053333810023901980e-10 4.803114842840536387e-10 4.655234755364605237e-10 4.951032426661896801e-10 4.971541900381041126e-10 4.612547031192018098e-10 4.460319833883910479e-10 4.553781884091622497e-10 4.377163257292409609e-10
1.679353987973946683e-08 -1.336811974641348411e-08 5.977185563145923158e-09 -6.177233092627547789e-10 -1.149607015184009805e-09 8.240444187328028553e-11 1.786036678667249765e-10 -4.514396131786957212e-10 -6.278428865554545202e-10 -6.347453441103503457e-10 -6.589575581127718763e-10 -4.093245586596305226e-10 -4.382863880659846128e-10 3.994875797585570290e-09 1.192645540495767595e-09 1.328959421740409754e-09 -1.108361631600171430e-11 1.394723047736191650e-11 3.867498504432591419e-10 5.389343734727170516e-10 6.052793785348420002e-10 4.636649371182732614e-10 5.118595562402310918e-10 3.980128812371835519e-10 4.035287890469781657e-10 3.885277828025528355e-10 2.016074897573054935e-10 5.021057112399382100e-10 7.632037007405685487e-10 5.053333810023901980e-10 5.162327499257775311e-10 4.162334580316710778e-10 4.209661390216476483e-10 4.682803259693079851e-10 4.562516239312153390e-10 4.256858210670395671e-10 4.067464314919143120e-10 4.160027759170929388e-10 3.948901147130109413e-10
1.586392037087003741e-08 -3.204659085983918035e-09 5.373830802768798181e-09 -1.794071341123705643e-10 4.565119855963478600e-10 -8.788498952739844416e-11 4.965871028382147191e-10 -5.750088046699775943e-10 -5.305749287637153975e-10 -5.822538565039283380e-10 -6.016834807246547059e-10 -2.826861560909505885e-10 -1.893467907318738374e-10 2.495056957034753926e-09 1.005451769624215469e-09 1.325514389818107139e-09 6.428908913840069605e-11 1.798584832428753721e-10 2.893516710164690396e-10 4.661805107920056196e-10 5.264112995595371244e-10 4.127812057332284428e-10 4.751778071682845592e-10 3.695461788948138819e-10 3.777788067110068780e-10 3.449060161512093675e-10 6.016992469910823068e-10 4.689104995474098247e-10 6.470813025462739977e-10 4.803114842840537421e-10 4.162334580316710778e-10 4.058966632623537291e-10 3.948943930157909963e-10 4.171859133920456590e-10 4.124547329400718696e-10 3.839250394851238241e-10 3.609327579799645129e-10 3.519801053510302859e-10 3.355855040963081901e-10
2.018824936315121991e-08 -4.767698003141245436e-09 4.405676819545983650e-09 -3.319816247267762221e-10 1.132499110238423576e-09 1.084612763478793686e-10 4.055144373597952610e-10 -5.654677996673047877e-10 -5.149079535381919695e-10 -6.383205243957311064e-10 -6.221181581572879824e-10 -3.189549580423120464e-10 -2.366518978681424491e-10 3.266312164307599878e-09 7.981109186448167791e-10 1.193339995254657080e-09 2.787517945065006628e-11 9.941954505164081449e-11 2.707420090507383315e-10 4.760291159385957885e-10 5.312423955424349944e-10 4.060069053132837929e-10 4.606398818028117175e-10 3.636649026635801721e-10 3.706974932398534171e-10 3.389959908990649255e-10 4.455250455619471793e-10 4.833197128964179884e-10 6.482527446233101550e-10 4.655234755364605237e-10 4.209661390216475449e-10 3.948943930157909963e-10 3.947699111781874003e-10 4.174254757677679823e-10 4.117324290402659205e-10 3.799779579888788538e-10 3.610628653073327894e-10 3.556884534255364943e-10 3.361828411186958696e-10
1.363101203239635196e-08 -7.112149447006276946e-09 7.678968787578725500e-09 6.369263098548586444e-10 8.028110347715834839e-10 4.143313225494022795e-10 5.682255755667894776e-10 -5.428214187815151993e-10 -6.513220334674596780e-10 -7.647424132804465951e-10 -6.993267275329608256e-10 -3.977044678837251871e-10 -3.527403681899733698e-10 2.305908401118865030e-09 8.388039887398451672e-10 1.396309070416480789e-09 -7.474075394088937703e-11 1.074415116009921510e-10 3.463018408627989174e-10 5.531138347369935692e-10 5.922311445360957755e-10 4.491802435285640798e-10 5.061895117134898276e-10 4.068975783831786454e-10 4.089948084223109461e-10 3.854900181355524414e-10 3.134425932039413248e-10 5.549545213704843213e-10 6.798183462347296107e-10 4.951032426661896801e-10 4.682803259693079851e-10 4.171859133920456073e-10 4.174254757677679823e-10 4.640272194168259038e-10 4.501871587181828157e-10 4.191240621754552717e-10 4.036303393441115825e-10 3.974672411042836183e-10 3.836627176865535312e-10
1.938752128007885635e-08 -5.946602811077337428e-09 6.432707089804331948e-09 4.832086151947237184e-11 9.938293187736498793e-10 3.501774984151481615e-10 6.331269742508454031e-10 -5.192581862899861017e-10 -7.508777833327212674e-10 -7.606545769497731317e-10 -7.322759553228956920e-10 -3.778186970238871774e-10 -3.160436986124785729e-10 2.301624592582757451e-09 8.283436517870216402e-10 1.368766414845131187e-09 -3.713898379957388760e-11 1.141114882970223472e-10 3.550815335390754692e-10 5.120762785709924767e-10 5.780824368098586940e-10 4.566944622651000699e-10 5.104354514261210470e-10 4.085102556928325920e-10 4.064150843827680151e-10 3.719241556988094140e-10 3.938774944023138720e-10 5.006133582433662332e-10 6.572401989949308452e-10 4.971541900381041126e-10 4.562516239312153390e-10 4.124547329400718696e-10 4.117324290402659205e-10 4.501871587181828157e-10 4.468310909290264425e-10 4.156134014582225604e-10 4.013815813815317480e-10 3.934198157705288477e-10 3.700824896136878415e-10
1.138968731534339402e-08 -6.166934492377153989e-09 7.096743676794945092e-09 4.805480489542486037e-11 3.130878080347810604e-10 3.002908172352821202e-10 6.464348420392257844e-10 -4.796469220941363716e-10 -7.102853699258674401e-10 -6.296228215352575490e-10 -6.679787358913290410e-10 -3.465869417679018517e-10 -3.020725790794823305e-10 1.725115691917180045e-09 9.448040578209330656e-10 1.223983056310691884e-09 -2.655955351622521300e-11 1.406166450629946861e-10 3.573879850603479565e-10 4.762655298978848556e-10 5.391317840330341034e-10 4.341432621039079943e-10 4.908439290405100538e-10 3.899840562719551644e-10 3.795618763329281019e-10 3.433170954643208732e-10 4.070286798071383451e-10 4.607746311156813057e-10 6.035875782194952360e-10 4.612547031192018098e-10 4.256858210670394637e-10 3.839250394851238241e-10 3.799779579888789055e-10 4.191240621754552717e-10 4.156134014582225604e-10 3.912663134198496539e-10 3.790715681594304711e-10 3.642849699912668542e-10 3.401566537184376316e-10
7.814966447271897187e-10 -9.291064384538455097e-09 8.180552458679087731e-09 3.684052980671094578e-10 7.431526006526043145e-10 2.605818826418369224e-10 5.820759183901064972e-10 -6.022620434044568555e-10 -9.237989486231803397e-10 -8.579246820898608922e-10 -9.220651052916747535e-10 -5.255780291665807616e-10 -4.258773559318634584e-10 1.381177411884185317e-09 8.161319308121943419e-10 1.134224254132671421e-09 -1.014414352072709455e-10 1.220271473103346996e-10 3.292339622928321824e-10 4.571219926653790508e-10 4.993362978622577035e-10 4.347729806508802768e-10 4.778805339657891216e-10 3.937384826281067944e-10 3.746474566391569001e-10 3.360531075863366980e-10 2.924175473403097256e-10 4.054741880836405330e-10 5.777418114339803650e-10 4.460319833883910479e-10 4.067464314919143120e-10 3.609327579799645129e-10 3.610628653073327894e-10 4.036303393441115825e-10 4.013815813815317480e-10 3.790715681594305228e-10 3.815720937788542333e-10 3.640348059501647761e-10 3.368613468665028163e-10
1.086980920268205980e-08 -9.423572721146589455e-09 6.450224839621774701e-09 4.133427245656457870e-10 9.378656952851946507e-10 1.764074495451762939e-10 3.457987843128791086e-10 -5.350773676623338699e-10 -9.354692546344159137e-10 -1.022176872012574473e-09 -9.880234851903522301e-10 -6.129769727802960374e-10 -4.486489811135093906e-10 2.016414481694273279e-09 4.762283020703850910e-10 1.227755634389473708e-09 -9.228836237683803502e-11 5.314241441583098450e-11 3.032599197604798763e-10 4.395920829754728779e-10 4.900274822559657095e-10 4.054246090586661295e-10 4.274795503638364963e-10 3.605830682204374269e-10 3.671727747782842046e-10 3.539836711824703641e-10 1.730313252584534660e-10 3.730026026583961606e-10 6.307597056101886287e-10 4.553781884091622497e-10 4.160027759170929388e-10 3.519801053510302859e-10 3.556884534255364943e-10 3.974672411042836183e-10 3.934198157705288477e-10 3.642849699912668542e-10 3.640348059501648278e-10 3.744243545313570997e-10 3.573893571859411577e-10
7.648097674059792778e-09 -7.881133237280254979e-09 7.249458623109764380e-09 1.352323963104108986e-09 1.046903152976827339e-09 2.214386173302686452e-10 3.108219403065316552e-10 -5.266596167649429277e-10 -8.503381697700162838e-10 -1.106454584710854150e-09 -9.607629980192033449e-10 -6.336882602504351490e-10 -4.466755163099165277e-10 1.417059644720967821e-09 2.788605732473757503e-10 1.321015910825935740e-09 -1.275682326713963880e-10 5.702452926291372676e-11 2.672866713061427107e-10 4.397196198614769435e-10 4.641755696047458663e-10 3.618879158792663100e-10 3.801219836956092021e-10 3.278776743601404778e-10 3.498968303407273205e-10 3.576127348250408075e-10 1.142799929759107761e-10 3.897145298929477410e-10 6.116114925114136454e-10 4.377163257292408575e-10 3.948901147130110447e-10 3.355855040963081384e-10 3.361828411186958696e-10 3.836627176865534795e-10 3.700824896136877898e-10 3.401566537184376833e-10 3.368613468665027646e-10 3.573893571859411060e-10 3.581811236576728031e-10
