2.503800332484914419e-05 -3.197718320151370998e-06 -1.415658845947095654e-06 -1.381069120828623324e-06 -5.591119119525895368e-07 -1.613131770499869514e-07 -3.051264697263802335e-07 4.766857207018389545e-07 2.560125540461849754e-07 4.159785045151174979e-07 2.832505795105855127e-07 2.321545042456309560e-07 1.279231621966702031e-07 -1.111454280905436535e-06 -1.723370935213790967e-07 -6.124254768976702040e-07 6.621147189170599199e-08 3.680879338717132924e-07 2.754907042303593450e-07 1.865367841808583776e-07 1.658797965504201160e-07 1.813326955660585714e-07 1.767424705338700895e-07 1.618680787486991411e-07 1.812255867483136045e-07 1.890801007388746106e-07 -5.306976669033032630e-08 1.735769540834876023e-07 1.359010082927980310e-07 1.951633940577563297e-07 1.808221200891536733e-07 1.710399633685939042e-07 1.885693159413050711e-07 1.906009612555319116e-07 1.826898221598808763e-07 1.739803820856816272e-07 1.711059853692119958e-07 1.810753312862062205e-07 1.909864995702098984e-07
-3.197718320151370998e-06 3.461239930419558924e-06 -8.873306500980234908e-07 7.340499233855725976e-07 -3.822433673330416269e-08 -5.839221600819549414e-08 -7.149649975356852343e-09 4.993850652855821003e-08 -2.642979562979294805e-08 -4.652997577573848424e-08 -8.290828142125914792e-08 -8.012387427077905868e-08 -3.858104582623994040e-08 -7.361819654039735966e-08 -1.446737696487570644e-07 -8.290678613356116142e-09 4.487054882582218356e-08 -5.260557923438992765e-08 1.196163632818708071e-08 -1.632148451014128225e-08 -1.536655693588748293e-08 -1.685296415245878751e-08 -9.508734172612727169e-09 -8.762298571450162452e-09 -1.260708541389834069e-08 -1.569130224100376158e-08 -1.214653735441914635e-08 -5.326573207017629843e-08 1.613712584745839369e-08 -3.169700215105606056e-08 -1.468933627680359879e-08 -2.113544241541031764e-08 -2.524312302558352435e-08 -2.297102587488860747e-08 -2.232162185930282955e-08 -1.707493366514782957e-08 -1.362398382374465448e-08 -1.334154168146295438e-08 -1.473942084749591069e-08
-1.415658845947095442e-06 -8.873306500980234908e-07 2.815872056007266135e-06 -7.251644839806553322e-07 6.270553293396809126e-07 2.707314104585109209e-07 2.942814719516731752e-07 -4.727376367122765011e-08 4.230448398319982437e-08 -3.173556114590725127e-08 -3.343884097815667941e-08 -3.056038836377240920e-08 -5.160264849356351346e-08 2.924856542800828309e-07 1.506466067687273312e-07 7.934387799181670199e-08 -9.723365062531674953e-08 2.586955005206278898e-08 -3.370821787329817452e-08 -1.617343348595506829e-08 -5.145175294636181606e-09 -2.373194922207787146e-08 -1.356196241122768860e-08 -9.059627171132433915e-09 -1.573861714615541579e-08 -2.094099706588374903e-08 -3.362580319499360807e-08 3.762610088799746005e-08 -3.033259755268483401e-08 -1.164735710141118801e-08 -3.323354314828667316e-09 -1.252317678947730885e-08 -1.539777266968414684e-08 -1.148395580536692278e-08 -1.253878534649863137e-08 -9.958650893078360683e-09 -9.784739603487278629e-09 -1.490808065868586325e-08 -2.168604489347861312e-08
-1.381069120828623324e-06 7.340499233855725976e-07 -7.251644839806553322e-07 1.210421790686596374e-06 -2.898778555023996463e-07 -1.745572705161035467e-07 -1.480545035049625908e-07 7.628857032953792757e-09 -2.684741253994391858e-10 5.788421246115691592e-08 2.217164862429634146e-08 2.492173450801360947e-08 8.275399446684084814e-09 -6.850303178888873587e-08 1.305411763896436598e-07 4.636958907454495662e-08 1.232674756934406123e-07 1.108794459877505169e-08 6.409253973215280896e-09 3.715559177383841224e-08 3.600226568083477515e-08 2.606769008727033991e-08 2.697267295971106088e-08 2.695187314722206661e-08 2.572674693087910199e-08 2.593176268063468508e-08 1.045859078732133868e-07 1.258381744062264309e-08 1.659324420193119559e-08 2.955220252721313594e-08 2.960099791262800640e-08 2.254907461266670894e-08 2.735806720294842320e-08 2.307209329463826625e-08 2.592853783287734067e-08 2.499290441038958387e-08 2.565150049587027260e-08 2.621594299521606676e-08 2.787817938655517590e-08
-5.591119119525895368e-07 -3.822433673330415608e-08 6.270553293396810185e-07 -2.898778555023996463e-07 4.774557096234435003e-07 3.204023663524790002e-08 7.764828050731863593e-08 5.719647342586016747e-09 1.671778529973152755e-08 -3.981523832505724897e-09 -2.326968111435471551e-08 -2.000569368350039102e-08 -1.903655317806997969e-08 -8.189692371945589605e-08 -6.690569918240483648e-08 4.643646549112389628e-09 -7.198580711435636464e-08 -7.705089799156008443e-09 -1.292971360616872291e-08 -2.325759595640630700e-08 -1.494991274403269194e-08 -1.692876222308276869e-08 -1.358190226398055994e-08 -1.198152659720971696e-08 -1.400395963801307468e-08 -1.243098648076227665e-08 1.684793243941729827e-08 -2.823849539353506593e-09 -1.540968450137397085e-08 -5.840216991969011996e-09 -8.599370607590937671e-09 -1.426651303766963295e-08 -1.309984285643274560e-08 -1.213182617678278214e-08 -1.225955785256186184e-08 -1.233421903029222766e-08 -1.207924081627618558e-08 -1.404763434239976481e-08 -1.345285379476716724e-08
-1.613131770499870308e-07 -5.839221600819548752e-08 2.707314104585109209e-07 -1.745572705161035467e-07 3.204023663524790664e-08 1.191688007798813554e-07 9.225353848038023562e-08 2.722365062599690418e-08 1.146414379640673946e-08 -1.786484240536357232e-08 -9.114005846952010633e-09 -1.349647530541654063e-08 -8.647012560617570702e-09 1.500805463324912425e-07 6.534108153401572523e-08 6.208880260395307720e-08 -1.051392963756309526e-08 -1.223771048686226967e-08 -1.243898724851987375e-10 -3.472916505978987673e-10 -3.460377179848225435e-09 -2.317656845838668440e-09 -7.340742901439932353e-10 9.438363057206402673e-11 -9.008042151860537968e-10 -2.565649023419091406e-09 -1.962185280257730421e-08 -8.345929020970306974e-09 7.348318857358220873e-10 -3.973870615750159757e-09 -2.700215333898339777e-10 -2.379715224440433157e-10 -1.156827300213056490e-09 -7.372495621577581346e-10 -7.491794620395230557e-10 -3.697894936582955555e-11 -3.721146208606893110e-10 -1.113235652211998245e-09 -2.604577660158977118e-09
-3.051264697263802865e-07 -7.149649975356849034e-09 2.942814719516731752e-07 -1.480545035049625908e-07 7.764828050731863593e-08 9.225353848038023562e-08 9.750690951148178653e-08 2.548595457719275393e-08 1.390746799626015798e-08 -1.335858760848755462e-08 -7.926516424198490670e-09 -1.462767318476866719e-08 -1.021360225336827063e-08 8.486719593643032071e-08 2.669302128205572418e-08 4.698461103948586881e-08 -2.194264141512709012e-08 -1.475333919525246181e-08 -3.908354171871598931e-09 -4.448095597035099533e-09 -4.851554715899100116e-09 -4.910722430077273191e-09 -3.844961577347286715e-09 -2.661459390537725716e-09 -3.162236125698307565e-09 -4.301671273914281696e-09 -8.688518520418010059e-09 -3.604260775916779534e-09 -8.198554346253786196e-10 -5.062371172729402170e-09 -1.298292201939036001e-09 -1.841770073622854877e-09 -3.167614518264022784e-09 -2.697595032632639465e-09 -2.671727517504897313e-09 -2.160141728311172641e-09 -2.525468676212333233e-09 -3.109621897148709717e-09 -4.462803455932081301e-09
4.766857207018387428e-07 4.993850652855820341e-08 -4.727376367122763688e-08 7.628857032953789448e-09 5.719647342586015093e-09 2.722365062599690418e-08 2.548595457719275393e-08 5.080640740400466519e-08 2.918713098667856788e-08 2.196995444000127938e-08 9.891809633882860441e-09 3.667308638994452329e-09 3.673990307638088313e-09 1.911290180478995704e-08 2.964038805179039753e-08 2.498926196250388672e-08 5.018559364599196305e-09 2.406468713814421082e-09 8.246671897220205583e-09 9.465419872186112021e-09 7.868316460191676283e-09 7.212606454125632044e-09 8.755495892983689171e-09 8.325241163308044043e-09 8.785656202847810448e-09 8.577519664057091470e-09 2.258662751070834295e-09 1.758893628340696941e-09 9.427246220993305988e-09 9.296511118276645098e-09 1.116659994930084282e-08 8.819490838781324451e-09 8.831622837891505851e-09 8.847059603956094395e-09 8.947123435203083298e-09 8.757159753279085297e-09 8.562055507873073964e-09 8.829879586505830427e-09 8.904043053292998920e-09
2.560125540461849754e-07 -2.642979562979294143e-08 4.230448398319982437e-08 -2.684741253994476644e-10 1.671778529973152424e-08 1.146414379640674112e-08 1.390746799626015798e-08 2.918713098667856788e-08 2.438338921620781896e-08 1.923991051366571374e-08 9.640601714771143393e-09 5.776321197977745787e-09 4.428012939941122278e-09 8.802172712095984981e-09 3.382753212641999819e-08 1.363872286033793032e-08 1.907039389798114975e-10 4.966620786868484413e-09 2.486430966714962258e-09 6.498356014806066282e-09 6.291177741045342516e-09 4.606000981798283041e-09 5.899877832602262387e-09 5.364324161557825797e-09 5.654422894405088988e-09 5.465561950849265606e-09 5.749239486281952284e-10 4.178261724229447899e-09 5.362018945717272931e-09 6.694556130950274204e-09 8.317956794917099111e-09 5.617254016202060947e-09 5.624229939290725161e-09 5.857420665229512623e-09 5.936646383058852458e-09 5.683115103900556742e-09 5.506578728294079110e-09 5.669129014356549128e-09 5.658376987284998520e-09
4.159785045151174979e-07 -4.652997577573848424e-08 -3.173556114590724466e-08 5.788421246115691592e-08 -3.981523832505725724e-09 -1.786484240536357232e-08 -1.335858760848755793e-08 2.196995444000127938e-08 1.923991051366571374e-08 2.432726600144439845e-08 1.266488868909553326e-08 1.040909197864139122e-08 6.273658858134198087e-09 -2.597514791407423177e-08 2.004438632483664358e-08 -1.949657146098135685e-09 7.796543850515440673e-09 1.050789550494285279e-08 4.735642665952851865e-09 8.579011526605909329e-09 8.673780678131010568e-09 6.819750263651700141e-09 7.627128802086719366e-09 6.967518131183736495e-09 7.431424305210940170e-09 7.666845585008106296e-09 7.927049589324841819e-09 7.260304387859966870e-09 5.657378523150295219e-09 9.374490201961024396e-09 9.517021745174295743e-09 7.177872268113852974e-09 7.742515839658840043e-09 7.654551688857844811e-09 7.746843560444854670e-09 7.295580551835635290e-09 7.217453299137513611e-09 7.523689558140634679e-09 7.927837590153620273e-09
2.832505795105854597e-07 -8.290828142125913469e-08 -3.343884097815667279e-08 2.217164862429633816e-08 -2.326968111435471551e-08 -9.114005846952010633e-09 -7.926516424198490670e-09 9.891809633882858786e-09 9.640601714771143393e-09 1.266488868909553326e-08 9.068873456617296211e-09 7.281442709130073495e-09 4.882299546905363313e-09 -1.148088719041603146e-08 1.434890271837902220e-08 -2.000333696136458767e-09 4.385338192116265164e-09 5.643142177472886929e-09 2.196946662533378308e-09 4.991617913770430443e-09 4.751699639024868715e-09 4.064585205629645295e-09 4.041994477280092957e-09 3.623077463397528686e-09 4.106506446084084612e-09 4.215955623143199388e-09 2.759829712397466086e-09 4.560733485103087324e-09 3.102358262694224584e-09 4.904280651758522853e-09 5.006243663486512557e-09 4.194697795461795291e-09 4.413861406704803784e-09 4.331427651964916962e-09 4.369387922225360055e-09 4.032218452903481169e-09 3.880066058037218743e-09 4.157075835948849819e-09 4.341878537539819702e-09
2.321545042456309031e-07 -8.012387427077905868e-08 -3.056038836377240920e-08 2.492173450801360616e-08 -2.000569368350038771e-08 -1.349647530541653732e-08 -1.462767318476866719e-08 3.667308638994451501e-09 5.776321197977745787e-09 1.040909197864139122e-08 7.281442709130073495e-09 6.953582790021694581e-09 4.397916868707322219e-09 -1.238607899456739660e-08 1.163693478319381512e-08 -4.912089499428589410e-09 5.124413150115405199e-09 6.187419136468823057e-09 1.739780060289362070e-09 4.157552855773438254e-09 4.031197590923084050e-09 3.419691074864978210e-09 3.391526895369630304e-09 2.979419024643712770e-09 3.292022123249646353e-09 3.454300900250480041e-09 2.649090534692251180e-09 3.886634592707622524e-09 1.994952316454137708e-09 4.205313741086955382e-09 3.834913881238908378e-09 3.204930642121274047e-09 3.563376403833786349e-09 3.462753485905376865e-09 3.487808862051211529e-09 3.191833001444541749e-09 3.115579918188151614e-09 3.313869090626718905e-09 3.556398980734569728e-09
1.279231621966702031e-07 -3.858104582623993379e-08 -5.160264849356351346e-08 8.275399446684079851e-09 -1.903655317806997969e-08 -8.647012560617569047e-09 -1.021360225336826897e-08 3.673990307638088313e-09 4.428012939941122278e-09 6.273658858134198087e-09 4.882299546905363313e-09 4.397916868707322219e-09 3.956599198021833878e-09 -5.240053145237950667e-09 7.194304347516671456e-09 -2.263576557051854402e-09 2.483922131502954931e-09 2.358033579607038128e-09 6.316662954312076911e-10 2.142926699011373113e-09 1.884425584953992994e-09 1.827007265537422551e-09 1.738142647302037702e-09 1.337433958515745845e-09 1.665818575690257306e-09 1.782832554884291952e-09 -7.074475035379632543e-10 1.149997418791963352e-09 1.580995479100416833e-09 2.015550410282689905e-09 1.942364183413236214e-09 1.635708838327305694e-09 1.695012409957564709e-09 1.699855461041223730e-09 1.704877785866559132e-09 1.502771395092017724e-09 1.429125370261846151e-09 1.644421216113671649e-09 1.836010387033766545e-09
-1.111454280905436535e-06 -7.361819654039735966e-08 2.924856542800828309e-07 -6.850303178888874910e-08 -8.189692371945589605e-08 1.500805463324912425e-07 8.486719593643032071e-08 1.911290180478996035e-08 8.802172712095984981e-09 -2.597514791407423177e-08 -1.148088719041603311e-08 -1.238607899456739826e-08 -5.240053145237951494e-09 3.441637480225777390e-07 1.374380295647810176e-07 1.286680585148381891e-07 2.339547336415476417e-08 -2.134609051175902300e-08 -7.024239190094439255e-09 6.126636222072833929e-09 -9.051609866541350415e-10 -1.516340860962052063e-09 1.673493585309459768e-09 2.155058372992283864e-09 3.668754181170931626e-10 -2.654411703123897071e-09 -3.108206853664282760e-08 -1.481710752329517038e-08 2.663599351932436169e-09 -4.134570964097884868e-09 -2.051637857476810074e-10 2.400500582315854492e-09 -2.432917133727875490e-10 -2.015107516553966911e-10 4.813936295959385749e-11 1.352787676790610613e-09 1.226602270745319783e-09 3.566147120192279712e-10 -2.015797231040590185e-09
-1.723370935213791496e-07 -1.446737696487570379e-07 1.506466067687273312e-07 1.305411763896436333e-07 -6.690569918240483648e-08 6.534108153401572523e-08 2.669302128205573080e-08 2.964038805179039753e-08 3.382753212641999157e-08 2.004438632483664358e-08 1.434890271837902220e-08 1.163693478319381346e-08 7.194304347516671456e-09 1.374380295647810441e-07 2.012620347179448185e-07 7.075807515087092591e-08 2.305215294516330473e-08 8.137594721369866675e-09 -7.456484741727364983e-10 1.788235122179776460e-08 1.425862934044607283e-08 1.074228663168998067e-08 1.334062257051340729e-08 1.249439343683543355e-08 1.117995855587657964e-08 9.296929839451313502e-09 -5.292050292908853199e-10 1.053234499619424001e-09 6.798087597872407612e-09 1.083453064751041219e-08 1.607626476283233277e-08 9.316664861947515379e-09 1.118993357882828074e-08 1.097430142507992227e-08 1.190261175033258808e-08 1.159590334788912594e-08 1.103154204200415246e-08 1.054886347769203095e-08 9.756169390158495456e-09
-6.124254768976702040e-07 -8.290678613356119451e-09 7.934387799181668876e-08 4.636958907454496324e-08 4.643646549112387973e-09 6.208880260395306397e-08 4.698461103948586881e-08 2.498926196250388672e-08 1.363872286033793032e-08 -1.949657146098134444e-09 -2.000333696136459181e-09 -4.912089499428589410e-09 -2.263576557051853989e-09 1.286680585148381891e-07 7.075807515087092591e-08 7.316486394257081216e-08 8.636295613519924960e-09 -1.388675628181821009e-08 -4.011341377562265100e-09 3.764560632571481382e-09 1.346342717145747581e-09 6.000786239676692235e-10 2.165033732755589864e-09 2.632856767607269059e-09 1.884315472557974822e-09 1.021183903630896670e-09 3.592646987927356316e-09 -6.650253105965627012e-09 2.371677157808729061e-09 1.884113755585394373e-09 3.507279379783646816e-09 2.797364940686736127e-09 2.416844356260791753e-09 1.920317065931397406e-09 2.457984407879315110e-09 2.604772513794550548e-09 2.365173739127523106e-09 1.906166045950200470e-09 1.315289330675735245e-09
6.621147189170599199e-08 4.487054882582217694e-08 -9.723365062531674953e-08 1.232674756934406123e-07 -7.198580711435636464e-08 -1.051392963756309526e-08 -2.194264141512709012e-08 5.018559364599196305e-09 1.907039389798113166e-10 7.796543850515440673e-09 4.385338192116265164e-09 5.124413150115406026e-09 2.483922131502955344e-09 2.339547336415476417e-08 2.305215294516330142e-08 8.636295613519924960e-09 2.309314214954384484e-08 5.025310292024394826e-09 4.673523673316484112e-09 8.196130415975851639e-09 6.551468035967249541e-09 5.693885453850057017e-09 6.052304642376588197e-09 5.816995876253880905e-09 5.720932988437541740e-09 5.471865174782599315e-09 5.780700366051834571e-09 1.824000693587379210e-09 4.295081916651340330e-09 5.505708740710770427e-09 5.294194350780401105e-09 5.452121261877136076e-09 5.814672487990068849e-09 5.316014648258036173e-09 5.494289645901348964e-09 5.519986227664167722e-09 5.650263014642357065e-09 5.806372878133448013e-09 5.865269413719070633e-09
3.680879338717132924e-07 -5.260557923438992765e-08 2.586955005206279228e-08 1.108794459877505169e-08 -7.705089799156010097e-09 -1.223771048686226636e-08 -1.475333919525245850e-08 2.406468713814421082e-09 4.966620786868485241e-09 1.050789550494285279e-08 5.643142177472886929e-09 6.187419136468823057e-09 2.358033579607038955e-09 -2.134609051175902300e-08 8.137594721369865021e-09 -1.388675628181821009e-08 5.025310292024394826e-09 1.092345768419377452e-08 4.110217581340216508e-09 4.793920318505941109e-09 4.914978420749582708e-09 3.911016007744033845e-09 4.259175319519497820e-09 3.899300851425016952e-09 3.949160332802425526e-09 3.975988867885053618e-09 1.040539541541099959e-09 5.523797893373017339e-09 1.958711283355948328e-09 4.634062578361343561e-09 4.436588651842528957e-09 3.422638268079009541e-09 3.974140255982882978e-09 4.042467356441737659e-09 3.949384941019092250e-09 3.821040328821868876e-09 3.874620293131048041e-09 3.951514870159411060e-09 4.076709502476240358e-09
2.754907042303593450e-07 1.196163632818707906e-08 -3.370821787329817452e-08 6.409253973215283377e-09 -1.292971360616872622e-08 -1.243898724851986599e-10 -3.908354171871599758e-09 8.246671897220205583e-09 2.486430966714961844e-09 4.735642665952851865e-09 2.196946662533378722e-09 1.739780060289362484e-09 6.316662954312077945e-10 -7.024239190094439255e-09 -7.456484741727358779e-10 -4.011341377562265100e-09 4.673523673316484940e-09 4.110217581340216508e-09 4.557947799046387399e-09 3.205120267680849386e-09 2.620285179682178897e-09 2.766406782594613179e-09 2.924455277885950226e-09 2.806138312014938880e-09 2.902072864192257234e-09 2.905307470369008446e-09 4.133832355594109373e-10 1.302713382614918409e-09 2.426673350048177159e-09 2.805816525797345721e-09 2.743535591973596507e-09 2.647334159290769263e-09 2.900056300823414533e-09 2.845792534869123664e-09 2.786257367703833393e-09 2.781592765973108424e-09 2.816294557343788271e-09 2.906415864333023246e-09 2.997693603392833200e-09
1.865367841808583247e-07 -1.632148451014127563e-08 -1.617343348595506498e-08 3.715559177383841224e-08 -2.325759595640630370e-08 -3.472916505978994911e-10 -4.448095597035097878e-09 9.465419872186112021e-09 6.498356014806066282e-09 8.579011526605909329e-09 4.991617913770430443e-09 4.157552855773438254e-09 2.142926699011373113e-09 6.126636222072828139e-09 1.788235122179776460e-08 3.764560632571481382e-09 8.196130415975851639e-09 4.793920318505940281e-09 3.205120267680849386e-09 5.216364219652317943e-09 4.540718568916843436e-09 3.840613464735187293e-09 4.217087162357732884e-09 3.992795334808626913e-09 4.063757334404786323e-09 3.932322880772616399e-09 2.285591048517708149e-09 2.697919714546067059e-09 3.054427701884320185e-09 4.286679570226426501e-09 4.580612950042310779e-09 3.902874503563382382e-09 4.170326277715405300e-09 4.044959081190230695e-09 4.105234036235525542e-09 4.013939926107456570e-09 3.990323762994834010e-09 4.090789848646387634e-09 4.112927971663930916e-09
1.658797965504201160e-07 -1.536655693588747631e-08 -5.145175294636182433e-09 3.600226568083477515e-08 -1.494991274403269525e-08 -3.460377179848225435e-09 -4.851554715899100943e-09 7.868316460191676283e-09 6.291177741045341689e-09 8.673780678131008914e-09 4.751699639024868715e-09 4.031197590923084050e-09 1.884425584953993408e-09 -9.051609866541341109e-10 1.425862934044607283e-08 1.346342717145746754e-09 6.551468035967250368e-09 4.914978420749582708e-09 2.620285179682178897e-09 4.540718568916843436e-09 4.217340545409571951e-09 3.374108561884310653e-09 3.731653347529450012e-09 3.533985169681702870e-09 3.602312044175504057e-09 3.531092714570214584e-09 3.066550750768612249e-09 3.125502209023965479e-09 2.550472165971580923e-09 4.011688796188947989e-09 4.237547445306969419e-09 3.444566351644542490e-09 3.717573982799603497e-09 3.619817703393260006e-09 3.675366798629658383e-09 3.569022165327015695e-09 3.555256100304677071e-09 3.640954351377541166e-09 3.684333236667943398e-09
1.813326955660585449e-07 -1.685296415245878751e-08 -2.373194922207787146e-08 2.606769008727033991e-08 -1.692876222308276869e-08 -2.317656845838669267e-09 -4.910722430077273191e-09 7.212606454125632044e-09 4.606000981798282214e-09 6.819750263651698487e-09 4.064585205629646123e-09 3.419691074864978210e-09 1.827007265537422551e-09 -1.516340860962052063e-09 1.074228663168997901e-08 6.000786239676690167e-10 5.693885453850057017e-09 3.911016007744033845e-09 2.766406782594613179e-09 3.840613464735187293e-09 3.374108561884310653e-09 3.002931587966030227e-09 3.183424374517118741e-09 3.001160609472610769e-09 3.107498989261546627e-09 3.083061510406858511e-09 2.169421562053738151e-09 2.103544507558364650e-09 2.307843942885025175e-09 3.357811900401245664e-09 3.439137467422064196e-09 2.952386812043812781e-09 3.229012755949953001e-09 3.118187715081891520e-09 3.155721198610958514e-09 3.049720633665132454e-09 3.023209024780057272e-09 3.120551017435929047e-09 3.202064452600796648e-09
1.767424705338701160e-07 -9.508734172612727169e-09 -1.356196241122768860e-08 2.697267295971106750e-08 -1.358190226398055994e-08 -7.340742901439951998e-10 -3.844961577347287542e-09 8.755495892983689171e-09 5.899877832602262387e-09 7.627128802086719366e-09 4.041994477280092957e-09 3.391526895369630304e-09 1.738142647302037702e-09 1.673493585309458941e-09 1.334062257051340729e-08 2.165033732755588210e-09 6.052304642376588197e-09 4.259175319519497820e-09 2.924455277885949813e-09 4.217087162357732884e-09 3.731653347529450839e-09 3.183424374517118741e-09 3.549982557936888310e-09 3.349014560905339506e-09 3.400470626712236713e-09 3.332961379148393966e-09 2.017495923399581348e-09 2.168515743769004952e-09 2.562714412233279845e-09 3.696516322086814264e-09 3.887319015778599499e-09 3.203066864655587405e-09 3.477824800738814739e-09 3.392731558162843491e-09 3.433445380625868078e-09 3.349032280742544926e-09 3.338095503896766072e-09 3.412576195104512951e-09 3.471668354418486321e-09
1.618680787486991411e-07 -8.762298571450162452e-09 -9.059627171132433915e-09 2.695187314722206661e-08 -1.198152659720971696e-08 9.438363057206406550e-11 -2.661459390537726129e-09 8.325241163308044043e-09 5.364324161557826624e-09 6.967518131183734840e-09 3.623077463397528686e-09 2.979419024643712770e-09 1.337433958515745638e-09 2.155058372992283864e-09 1.249439343683543521e-08 2.632856767607269473e-09 5.816995876253880905e-09 3.899300851425016952e-09 2.806138312014938880e-09 3.992795334808626913e-09 3.533985169681703697e-09 3.001160609472610769e-09 3.349014560905339506e-09 3.200653051339907942e-09 3.228103615993324929e-09 3.156989329553172322e-09 2.363579812881311612e-09 2.092832856932951623e-09 2.376984578591003217e-09 3.511530382853435839e-09 3.682416049792606971e-09 3.060380390044060203e-09 3.331269217389099165e-09 3.230204106620373467e-09 3.275464901971573502e-09 3.203156171446183056e-09 3.193444836743853707e-09 3.247292359885400360e-09 3.289971180973466105e-09
1.812255867483136045e-07 -1.260708541389833903e-08 -1.573861714615541248e-08 2.572674693087909868e-08 -1.400395963801307468e-08 -9.008042151860537968e-10 -3.162236125698306738e-09 8.785656202847808794e-09 5.654422894405088988e-09 7.431424305210938515e-09 4.106506446084084612e-09 3.292022123249646353e-09 1.665818575690257306e-09 3.668754181170921804e-10 1.117995855587657964e-08 1.884315472557974822e-09 5.720932988437541740e-09 3.949160332802425526e-09 2.902072864192257234e-09 4.063757334404785496e-09 3.602312044175504057e-09 3.107498989261546627e-09 3.400470626712235885e-09 3.228103615993324929e-09 3.321657126874861311e-09 3.274428701828808893e-09 2.281884710247813877e-09 2.273316398573929306e-09 2.536128787637744427e-09 3.612967477036039944e-09 3.765924898131691476e-09 3.198674833408288410e-09 3.436425650260443349e-09 3.337620723259762251e-09 3.373704256582821760e-09 3.281783150946136200e-09 3.261278204452549432e-09 3.349606229878552447e-09 3.408619984562462812e-09
1.890801007388745841e-07 -1.569130224100376489e-08 -2.094099706588374903e-08 2.593176268063468178e-08 -1.243098648076227665e-08 -2.565649023419091406e-09 -4.301671273914281696e-09 8.577519664057091470e-09 5.465561950849266434e-09 7.666845585008106296e-09 4.215955623143200215e-09 3.454300900250480041e-09 1.782832554884292159e-09 -2.654411703123895417e-09 9.296929839451313502e-09 1.021183903630896463e-09 5.471865174782599315e-09 3.975988867885053618e-09 2.905307470369008032e-09 3.932322880772616399e-09 3.531092714570214584e-09 3.083061510406858511e-09 3.332961379148393139e-09 3.156989329553171909e-09 3.274428701828808893e-09 3.280955736245234732e-09 2.778968094048656954e-09 2.307583598741975662e-09 2.460684201896764767e-09 3.679005702578561821e-09 3.701087903913220912e-09 3.158085786555359638e-09 3.425716019353003818e-09 3.310683668539291267e-09 3.346359690602665675e-09 3.231054092550275320e-09 3.210063563428550847e-09 3.305710156483000960e-09 3.407762604877688680e-09
-5.306976669033032630e-08 -1.214653735441915131e-08 -3.362580319499359483e-08 1.045859078732133735e-07 1.684793243941730488e-08 -1.962185280257730421e-08 -8.688518520418010059e-09 2.258662751070833468e-09 5.749239486281963657e-10 7.927049589324841819e-09 2.759829712397465672e-09 2.649090534692251594e-09 -7.074475035379631509e-10 -3.108206853664283422e-08 -5.292050292908865607e-10 3.592646987927353007e-09 5.780700366051833743e-09 1.040539541541099752e-09 4.133832355594104721e-10 2.285591048517707735e-09 3.066550750768611422e-09 2.169421562053738151e-09 2.017495923399580935e-09 2.363579812881311198e-09 2.281884710247813463e-09 2.778968094048656954e-09 1.923063277417881671e-08 3.075746823027526281e-09 1.525304671643821461e-10 4.331075502066469339e-09 3.093473898573689649e-09 2.286603506721397745e-09 3.238059409925388249e-09 2.556425346206851009e-09 2.888226298209100334e-09 2.540920899480632967e-09 2.519562683780862130e-09 2.420888090726132098e-09 2.861750094185442657e-09
1.735769540834876023e-07 -5.326573207017629843e-08 3.762610088799746005e-08 1.258381744062264309e-08 -2.823849539353505766e-09 -8.345929020970306974e-09 -3.604260775916779534e-09 1.758893628340696735e-09 4.178261724229447899e-09 7.260304387859966870e-09 4.560733485103088151e-09 3.886634592707622524e-09 1.149997418791963352e-09 -1.481710752329517038e-08 1.053234499619424621e-09 -6.650253105965627012e-09 1.824000693587379210e-09 5.523797893373017339e-09 1.302713382614918409e-09 2.697919714546067059e-09 3.125502209023965892e-09 2.103544507558364650e-09 2.168515743769004952e-09 2.092832856932951623e-09 2.273316398573929306e-09 2.307583598741975662e-09 3.075746823027526281e-09 5.037084910318342418e-09 1.063130396422342058e-09 2.897525581947211471e-09 2.850277406818259748e-09 2.404080515871090414e-09 2.491594097186681126e-09 2.483365061993521193e-09 2.448598831055596159e-09 2.324662005885670401e-09 2.303839422613715869e-09 2.388989379696349615e-09 2.381922876931193003e-09
1.359010082927980310e-07 1.613712584745839038e-08 -3.033259755268483401e-08 1.659324420193119559e-08 -1.540968450137397085e-08 7.348318857358223975e-10 -8.198554346253786196e-10 9.427246220993305988e-09 5.362018945717272931e-09 5.657378523150296046e-09 3.102358262694224997e-09 1.994952316454137708e-09 1.580995479100416833e-09 2.663599351932434928e-09 6.798087597872405958e-09 2.371677157808729061e-09 4.295081916651339503e-09 1.958711283355948328e-09 2.426673350048177159e-09 3.054427701884320185e-09 2.550472165971581336e-09 2.307843942885025175e-09 2.562714412233280259e-09 2.376984578591002803e-09 2.536128787637744427e-09 2.460684201896764767e-09 1.525304671643826631e-10 1.063130396422342058e-09 2.553113406585922634e-09 2.457591049651761008e-09 2.846226997593991621e-09 2.489135859573487595e-09 2.479768333388166339e-09 2.464390686653560160e-09 2.472868687225725683e-09 2.438854547829472606e-09 2.423548774435288752e-09 2.557849155241074626e-09 2.577740779807316955e-09
1.951633940577563032e-07 -3.169700215105606056e-08 -1.164735710141118139e-08 2.955220252721313594e-08 -5.840216991969011996e-09 -3.973870615750158929e-09 -5.062371172729402170e-09 9.296511118276645098e-09 6.694556130950275858e-09 9.374490201961024396e-09 4.904280651758522853e-09 4.205313741086955382e-09 2.015550410282689905e-09 -4.134570964097884868e-09 1.083453064751041385e-08 1.884113755585393960e-09 5.505708740710769600e-09 4.634062578361343561e-09 2.805816525797345308e-09 4.286679570226426501e-09 4.011688796188947989e-09 3.357811900401245664e-09 3.696516322086815092e-09 3.511530382853436666e-09 3.612967477036039944e-09 3.679005702578561821e-09 4.331075502066470167e-09 2.897525581947211471e-09 2.457591049651761008e-09 4.420027462392440779e-09 4.256716589008723782e-09 3.512982843274980344e-09 3.878387867826468901e-09 3.725613209947208868e-09 3.782441054291688824e-09 3.613365018364335588e-09 3.587022795302252652e-09 3.658944323412326816e-09 3.814509042503764621e-09
1.808221200891536733e-07 -1.468933627680360044e-08 -3.323354314828666489e-09 2.960099791262799979e-08 -8.599370607590937671e-09 -2.700215333898343913e-10 -1.298292201939037035e-09 1.116659994930084282e-08 8.317956794917099111e-09 9.517021745174295743e-09 5.006243663486512557e-09 3.834913881238908378e-09 1.942364183413236627e-09 -2.051637857476823515e-10 1.607626476283233608e-08 3.507279379783646816e-09 5.294194350780400278e-09 4.436588651842528957e-09 2.743535591973596507e-09 4.580612950042310779e-09 4.237547445306969419e-09 3.439137467422064196e-09 3.887319015778600326e-09 3.682416049792606971e-09 3.765924898131692303e-09 3.701087903913220912e-09 3.093473898573689649e-09 2.850277406818259748e-09 2.846226997593991621e-09 4.256716589008724609e-09 4.621799891327078975e-09 3.606564976738492459e-09 3.893659217494444503e-09 3.814833115419364098e-09 3.882096454082079837e-09 3.753423798687364479e-09 3.711551729669226316e-09 3.790874990546949046e-09 3.846338784185486874e-09
1.710399633685938777e-07 -2.113544241541031764e-08 -1.252317678947730720e-08 2.254907461266670894e-08 -1.426651303766963130e-08 -2.379715224440428504e-10 -1.841770073622854877e-09 8.819490838781324451e-09 5.617254016202060947e-09 7.177872268113852974e-09 4.194697795461795291e-09 3.204930642121274047e-09 1.635708838327305694e-09 2.400500582315853665e-09 9.316664861947513725e-09 2.797364940686736127e-09 5.452121261877135249e-09 3.422638268079009541e-09 2.647334159290769263e-09 3.902874503563382382e-09 3.444566351644542490e-09 2.952386812043812781e-09 3.203066864655586991e-09 3.060380390044060203e-09 3.198674833408288410e-09 3.158085786555359638e-09 2.286603506721398159e-09 2.404080515871090827e-09 2.489135859573487181e-09 3.512982843274980757e-09 3.606564976738492459e-09 3.226631116736508280e-09 3.362644885496928782e-09 3.253607681242897085e-09 3.280606680629719782e-09 3.187321907406107328e-09 3.156727185158204794e-09 3.256647957876315034e-09 3.295797156668806255e-09
1.885693159413050446e-07 -2.524312302558352435e-08 -1.539777266968414684e-08 2.735806720294842320e-08 -1.309984285643274560e-08 -1.156827300213055869e-09 -3.167614518264022371e-09 8.831622837891504196e-09 5.624229939290724334e-09 7.742515839658840043e-09 4.413861406704803784e-09 3.563376403833786349e-09 1.695012409957564709e-09 -2.432917133727864633e-10 1.118993357882828074e-08 2.416844356260791753e-09 5.814672487990067195e-09 3.974140255982882978e-09 2.900056300823414533e-09 4.170326277715405300e-09 3.717573982799603911e-09 3.229012755949953001e-09 3.477824800738813911e-09 3.331269217389099165e-09 3.436425650260443349e-09 3.425716019353003818e-09 3.238059409925388662e-09 2.491594097186681126e-09 2.479768333388165925e-09 3.878387867826468901e-09 3.893659217494443676e-09 3.362644885496928782e-09 3.650154039285091433e-09 3.503794189365818209e-09 3.552735094837933444e-09 3.429080974658147152e-09 3.394453486671390509e-09 3.475779143499706522e-09 3.559851957866687045e-09
1.906009612555319116e-07 -2.297102587488860086e-08 -1.148395580536691947e-08 2.307209329463826625e-08 -1.213182617678278380e-08 -7.372495621577582380e-10 -2.697595032632639465e-09 8.847059603956092741e-09 5.857420665229512623e-09 7.654551688857844811e-09 4.331427651964917789e-09 3.462753485905376865e-09 1.699855461041223730e-09 -2.015107516553961741e-10 1.097430142507992393e-08 1.920317065931397819e-09 5.316014648258036173e-09 4.042467356441738486e-09 2.845792534869123664e-09 4.044959081190229868e-09 3.619817703393260006e-09 3.118187715081891520e-09 3.392731558162843491e-09 3.230204106620373467e-09 3.337620723259762251e-09 3.310683668539291267e-09 2.556425346206851836e-09 2.483365061993521193e-09 2.464390686653560160e-09 3.725613209947208868e-09 3.814833115419364098e-09 3.253607681242897085e-09 3.503794189365818209e-09 3.396342150058039688e-09 3.431111420033945292e-09 3.320051083115930824e-09 3.288289182652161583e-09 3.372355797320977921e-09 3.439445807712775602e-09
1.826898221598808499e-07 -2.232162185930282293e-08 -1.253878534649862806e-08 2.592853783287734067e-08 -1.225955785256186184e-08 -7.491794620395236761e-10 -2.671727517504897727e-09 8.947123435203081643e-09 5.936646383058852458e-09 7.746843560444854670e-09 4.369387922225360882e-09 3.487808862051212356e-09 1.704877785866559132e-09 4.813936295959087188e-11 1.190261175033258642e-08 2.457984407879313869e-09 5.494289645901348964e-09 3.949384941019091423e-09 2.786257367703832979e-09 4.105234036235525542e-09 3.675366798629658383e-09 3.155721198610958101e-09 3.433445380625868078e-09 3.275464901971573502e-09 3.373704256582821760e-09 3.346359690602665675e-09 2.888226298209101161e-09 2.448598831055595746e-09 2.472868687225725683e-09 3.782441054291688824e-09 3.882096454082079837e-09 3.280606680629719782e-09 3.552735094837932617e-09 3.431111420033945705e-09 3.478838689440239548e-09 3.361553230834568115e-09 3.326369596897896346e-09 3.406188653128492807e-09 3.477281075864403060e-09
1.739803820856816272e-07 -1.707493366514782957e-08 -9.958650893078359029e-09 2.499290441038958387e-08 -1.233421903029222766e-08 -3.697894936582958140e-11 -2.160141728311172228e-09 8.757159753279085297e-09 5.683115103900557569e-09 7.295580551835635290e-09 4.032218452903481169e-09 3.191833001444541749e-09 1.502771395092017931e-09 1.352787676790610406e-09 1.159590334788912594e-08 2.604772513794550962e-09 5.519986227664169377e-09 3.821040328821868876e-09 2.781592765973108424e-09 4.013939926107456570e-09 3.569022165327015695e-09 3.049720633665132041e-09 3.349032280742544926e-09 3.203156171446183056e-09 3.281783150946136614e-09 3.231054092550275733e-09 2.540920899480633381e-09 2.324662005885670815e-09 2.438854547829472606e-09 3.613365018364335588e-09 3.753423798687364479e-09 3.187321907406107328e-09 3.429080974658147152e-09 3.320051083115930824e-09 3.361553230834568115e-09 3.268217739460542556e-09 3.242436638197337437e-09 3.314759939121966370e-09 3.363155195557025073e-09
1.711059853692119958e-07 -1.362398382374464786e-08 -9.784739603487276975e-09 2.565150049587027591e-08 -1.207924081627618558e-08 -3.721146208606885355e-10 -2.525468676212332820e-09 8.562055507873073964e-09 5.506578728294078283e-09 7.217453299137513611e-09 3.880066058037218743e-09 3.115579918188151614e-09 1.429125370261846151e-09 1.226602270745321230e-09 1.103154204200415246e-08 2.365173739127522693e-09 5.650263014642357892e-09 3.874620293131048868e-09 2.816294557343788271e-09 3.990323762994833183e-09 3.555256100304677071e-09 3.023209024780056858e-09 3.338095503896766899e-09 3.193444836743853293e-09 3.261278204452549018e-09 3.210063563428550847e-09 2.519562683780862130e-09 2.303839422613715869e-09 2.423548774435288752e-09 3.587022795302252652e-09 3.711551729669225489e-09 3.156727185158204794e-09 3.394453486671390509e-09 3.288289182652161583e-09 3.326369596897896346e-09 3.242436638197337437e-09 3.226504118823644659e-09 3.295925796393165500e-09 3.344287222971822810e-09
1.810753312862062205e-07 -1.334154168146295438e-08 -1.490808065868585994e-08 2.621594299521606676e-08 -1.404763434239976150e-08 -1.113235652211998245e-09 -3.109621897148709717e-09 8.829879586505830427e-09 5.669129014356549128e-09 7.523689558140634679e-09 4.157075835948849819e-09 3.313869090626718905e-09 1.644421216113671442e-09 3.566147120192284882e-10 1.054886347769203095e-08 1.906166045950201297e-09 5.806372878133448840e-09 3.951514870159411060e-09 2.906415864333023659e-09 4.090789848646387634e-09 3.640954351377541166e-09 3.120551017435929047e-09 3.412576195104512951e-09 3.247292359885400360e-09 3.349606229878552447e-09 3.305710156483000960e-09 2.420888090726132511e-09 2.388989379696349615e-09 2.557849155241074626e-09 3.658944323412326816e-09 3.790874990546949046e-09 3.256647957876315034e-09 3.475779143499706522e-09 3.372355797320977921e-09 3.406188653128492807e-09 3.314759939121966370e-09 3.295925796393165913e-09 3.387527314189834821e-09 3.444001411852610747e-09
1.909864995702098719e-07 -1.473942084749591069e-08 -2.168604489347861312e-08 2.787817938655517590e-08 -1.345285379476716724e-08 -2.604577660158978359e-09 -4.462803455932082128e-09 8.904043053292997266e-09 5.658376987284998520e-09 7.927837590153620273e-09 4.341878537539819702e-09 3.556398980734569728e-09 1.836010387033766545e-09 -2.015797231040591426e-09 9.756169390158497111e-09 1.315289330675734624e-09 5.865269413719069806e-09 4.076709502476241185e-09 2.997693603392833200e-09 4.112927971663931743e-09 3.684333236667943398e-09 3.202064452600796648e-09 3.471668354418486321e-09 3.289971180973465691e-09 3.408619984562463639e-09 3.407762604877689094e-09 2.861750094185443070e-09 2.381922876931193003e-09 2.577740779807317782e-09 3.814509042503765448e-09 3.846338784185486874e-09 3.295797156668806255e-09 3.559851957866687045e-09 3.439445807712775602e-09 3.477281075864403060e-09 3.363155195557024246e-09 3.344287222971822810e-09 3.444001411852610747e-09 3.543753154993377987e-09
