3.688271173732242289e-05 2.519489540137265014e-06 -4.754041131428574900e-06 -5.018060601513553521e-06 -2.020908405049549621e-06 -9.566177059567557279e-07 7.133380912979270217e-09 5.362653185688579374e-07 7.797229667153961218e-08 8.881281170948348390e-08 1.146434400653707579e-07 -1.030325882354673578e-09 3.581393940919052203e-08 2.796015397776061589e-06 4.169059012850307153e-07 4.422285195869747588e-07 1.125529724731705043e-07 -1.420777085843568167e-07 5.487586136380456824e-08 1.192175559959191871e-07 2.553441742630498165e-08 2.078293004851661362e-08 9.818255607643039063e-09 1.275046568817312007e-08 2.389141812174792620e-08 1.252549903630420922e-08 4.958857631970070635e-07 -3.804081491072814065e-08 1.097124673596840740e-08 -2.291907253182282259e-08 2.353783220890781357e-08 4.116691067501053319e-08 -2.360945758823601944e-08 1.168424916462229316e-08 5.503189353465902997e-09 -3.814906697127749528e-10 1.056562055954933440e-08 5.228620211695963021e-09 5.622998300298743306e-09
2.519489540137264590e-06 9.951495293965507556e-06 7.154601263795606081e-07 -1.336470565210678998e-06 -4.633697040539379838e-07 -1.812024537877496000e-07 4.403805945266116735e-07 2.911440763680863339e-07 3.361944780289347377e-07 2.543082842745630045e-07 1.555984302119298266e-07 1.059935042609299983e-07 9.064685530364465658e-08 -1.741303534480678773e-07 7.847194093270766658e-07 -4.979821575857178888e-07 -3.154183336420158646e-07 -1.171010372752508598e-07 -3.952328489987354966e-08 -9.694543837083361624e-10 -2.692906727627465255e-08 1.666724942710399544e-10 5.249268920673271828e-10 -5.853088067456325301e-09 -2.105683105068791099e-08 -1.793127893782718262e-08 -1.143000812076140492e-07 2.029091136072118739e-08 4.096658645813061982e-08 -3.177379640473728830e-08 1.857434613781544272e-08 5.483984777525908694e-09 -8.377641992482427754e-09 6.091242650138538035e-09 3.420077575603114026e-09 3.389957671372526633e-09 2.599223209059110255e-09 -5.848819536538345597e-09 -8.737386490826682685e-09
-4.754041131428574900e-06 7.154601263795607140e-07 2.304840125931899416e-06 3.586036160942422981e-07 4.029493447879413822e-07 1.799374266155525693e-07 2.045685878458572599e-07 -6.391137973431733897e-09 7.598912106848971618e-08 8.621288164241497080e-08 2.402291733303331008e-08 -5.073793000260997648e-09 -1.106449125483911670e-08 1.534582067887624038e-07 3.333214244743281275e-07 7.069796638103942362e-08 -8.392567856894724278e-08 3.393113081088644784e-08 -8.983926550190322835e-09 -3.782211347553155833e-09 1.205356834495824035e-08 1.617904571735576315e-08 1.284566558878081763e-08 9.519359662473334790e-09 9.853816048225130325e-09 1.210309338729983870e-08 2.097088533998950853e-08 3.418677378291831440e-08 2.688008240008083833e-08 1.841421339846659294e-08 1.286512019144078996e-08 8.318893387989291858e-09 2.211932108401459489e-08 1.431066656170024508e-08 1.679823654893467846e-08 1.762986937757612399e-08 1.540405176554191567e-08 1.556624871905092582e-08 1.388628918277618615e-08
-5.018060601513552674e-06 -1.336470565210678998e-06 3.586036160942422981e-07 1.296460963896524185e-06 1.953274406360563570e-07 1.474598225149110253e-07 -6.813140550653661113e-08 -9.513522623590146553e-08 -2.467413326978061822e-08 -3.512646576779096926e-08 -9.275223954855172760e-09 1.216393274320176800e-08 -8.049636174026106032e-09 -1.443544800593595570e-07 -2.847931499718293148e-07 -1.426199247692279466e-07 -6.921209631324719550e-09 3.002798850975854144e-08 -1.522955296729794835e-08 -3.357789983165105612e-08 -3.230707796940579886e-09 -7.807350781545273981e-09 -5.149415190879974242e-09 -6.940037070992628657e-09 -7.312413983530919219e-09 -8.243986692475506856e-09 -4.322170320760808255e-08 -1.475763624761165285e-08 -2.812260458170021990e-08 -3.699417055033681805e-09 -1.326240696513804355e-08 -1.508835803790584024e-08 -5.269224373665281916e-09 -8.836365452308214781e-09 -8.270509227438475064e-09 -6.577408174337903724e-09 -6.627299850020784578e-09 -5.972019469455206997e-09 -6.755469542378074010e-09
-2.020908405049549621e-06 -4.633697040539379838e-07 4.029493447879413822e-07 1.953274406360563570e-07 2.667883467803913638e-07 8.989035230036066171e-08 2.157218983809583999e-08 -4.228224418802055476e-08 -1.562146939512295515e-08 -1.412587562147481667e-08 -2.627043766740005954e-08 -1.780218445329684043e-08 -7.521363213216706670e-09 -1.634379432206542690e-07 4.208052047111664544e-08 6.049411206579902139e-09 1.194746405536479987e-08 2.417146859385804400e-08 1.521631086599779156e-08 1.371331063772450889e-09 2.821181693495292885e-09 5.986348235997041539e-09 5.296026683560919539e-09 4.897448191064630956e-09 4.960961657769965479e-09 5.252193956316668230e-09 -1.841479648847923963e-08 2.008150494441461936e-08 7.969596675483226959e-09 4.295806982974437325e-09 -3.722321064020252593e-12 9.010781269922385283e-10 5.158600923108363502e-09 3.152170798312028907e-09 3.518698929997067074e-09 3.878907081698408611e-09 3.329925194202166615e-09 3.785708770553293099e-09 3.419520741151770197e-09
-9.566177059567555161e-07 -1.812024537877495736e-07 1.799374266155526222e-07 1.474598225149110518e-07 8.989035230036066171e-08 1.402662619495733668e-07 4.154010893967735594e-08 -2.050760023523037570e-08 3.426616074406612859e-08 1.716385957578621220e-08 3.036391785698987559e-09 2.663060155262140228e-09 -5.032719984604865544e-09 -3.120078171109586112e-08 -1.914889318863563421e-08 2.552879497944508852e-08 4.113526521444955746e-08 1.694496920112433306e-09 -5.496197789824825049e-09 -6.795435593285102160e-09 -8.550604623130851453e-09 -4.235154369970405574e-09 -5.553407256409947583e-09 -7.569793788508871189e-09 -6.404195383576529998e-09 -6.273405100611481936e-09 -7.119138946255535721e-09 -6.840989905391659122e-09 -6.912062027117802851e-09 -6.919485597722736103e-09 -6.593999974730902192e-09 -7.129744225760566861e-09 -5.317825414173486483e-09 -5.395975152243945288e-09 -5.141311978246994212e-09 -5.112619151522100224e-09 -5.371269091363095713e-09 -5.492723884424458348e-09 -5.575701529629442194e-09
7.133380912979227203e-09 4.403805945266118852e-07 2.045685878458572599e-07 -6.813140550653661113e-08 2.157218983809583999e-08 4.154010893967735594e-08 8.882405326980664431e-08 2.203158232271110982e-08 4.106341646427573422e-08 3.163339052234996008e-08 1.413337103172822205e-08 6.575824324659510413e-09 5.288509356404349289e-09 6.931455172317447732e-08 3.751167679884885728e-08 1.664953003493598237e-08 -1.484376637938630718e-08 -1.487440764848325165e-08 -1.336752695913011180e-08 -1.212659190972636744e-08 -1.008146263079941793e-08 -9.669930746051506446e-09 -9.048899772466765557e-09 -1.003244628172670024e-08 -9.089520780546970305e-09 -8.966296952482852303e-09 -5.947720206066422541e-09 -1.515979392028304292e-09 -1.256701365042546980e-08 -1.045611736154189723e-08 -7.017628618761495501e-09 -8.503645168058982111e-09 -8.523679286834935266e-09 -7.790830391884017117e-09 -7.369613423642252100e-09 -7.189522298716163695e-09 -7.117219247959636312e-09 -7.305114351805299308e-09 -7.745129619225144015e-09
5.362653185688579374e-07 2.911440763680863868e-07 -6.391137973431738033e-09 -9.513522623590146553e-08 -4.228224418802055476e-08 -2.050760023523037239e-08 2.203158232271110982e-08 2.185969587596201812e-08 1.389336437368216132e-08 1.503232639700510659e-08 1.004904706801119655e-08 5.071269983745556447e-09 4.403262369794637899e-09 6.035773388488168920e-08 8.514694285387224804e-09 -2.510571824848777848e-09 -8.694052606924059433e-09 -5.480465376083053189e-09 -3.874773552301324561e-09 -1.820241153025608788e-09 -1.680186994478395332e-09 -2.595220102063959650e-09 -2.585825802323904641e-09 -2.659732012923454328e-09 -2.399014235471670293e-09 -2.618539028489036694e-09 4.847255342490740906e-09 -1.972077548454940066e-09 -3.173411855221051814e-09 -2.108831997296203275e-09 -7.687177610247520381e-10 -1.293851478182831236e-09 -2.330817956004151470e-09 -1.693153067561737200e-09 -1.694560224025898522e-09 -1.840709935523636518e-09 -1.692814157643150048e-09 -1.848194523608968827e-09 -2.109962025399339893e-09
7.797229667153961218e-08 3.361944780289347377e-07 7.598912106848971618e-08 -2.467413326978062484e-08 -1.562146939512295515e-08 3.426616074406612859e-08 4.106341646427573422e-08 1.389336437368216132e-08 3.152413331679892259e-08 2.257347269550631800e-08 1.263173249306350755e-08 7.586377657275564367e-09 2.203545858588456888e-09 5.270014233469089555e-08 4.572251570168280764e-09 2.525372031511205298e-09 4.886338013017631522e-10 -7.670615397438747223e-09 -7.367450019873706804e-09 -4.916925304874718089e-09 -5.572717695698869115e-09 -4.038976238844586516e-09 -4.233182862901584130e-09 -5.235591632863131560e-09 -4.850804608764250378e-09 -4.962946571599619583e-09 -1.366228703000799861e-09 -3.598166543624485091e-09 -4.859640326175245892e-09 -4.755849122680016464e-09 -2.896599718121102355e-09 -3.889994127067187007e-09 -4.166878779294720923e-09 -3.547152998070699059e-09 -3.333044194517881165e-09 -3.375806715798094560e-09 -3.310479950148767929e-09 -3.608805295758359082e-09 -3.912872916641926851e-09
8.881281170948349713e-08 2.543082842745630575e-07 8.621288164241495756e-08 -3.512646576779096926e-08 -1.412587562147481667e-08 1.716385957578621220e-08 3.163339052234996008e-08 1.503232639700510659e-08 2.257347269550631800e-08 2.033707587309493292e-08 1.143443874638139096e-08 6.215639000453551345e-09 2.915296083524209581e-09 4.204210059692856176e-08 5.377306369068244397e-09 2.890305022605170458e-09 -1.570551722851180967e-10 -3.991044420489192697e-09 -5.871258391680593514e-09 -3.604025854924619294e-09 -3.375342665959569867e-09 -3.297661213305564045e-09 -3.660066335515927093e-09 -4.236283162873440770e-09 -3.773866119489819401e-09 -3.847867657915664284e-09 1.808412811647355284e-09 -3.751332849437636493e-09 -4.035989495424956349e-09 -2.936910249973912400e-09 -1.866525283455808222e-09 -2.710983267265209340e-09 -2.858083197124846651e-09 -2.566776069158441096e-09 -2.455949175135873647e-09 -2.594563503211372041e-09 -2.617057033420042620e-09 -2.774465464212664467e-09 -3.048633276213085449e-09
1.146434400653707050e-07 1.555984302119298266e-07 2.402291733303331008e-08 -9.275223954855171106e-09 -2.627043766740005954e-08 3.036391785698987559e-09 1.413337103172822040e-08 1.004904706801119821e-08 1.263173249306350589e-08 1.143443874638139261e-08 8.261569374296705656e-09 5.116007757129288654e-09 2.288327462493937918e-09 3.230551986488165242e-08 -4.132135805239288036e-09 -3.132463000819339231e-09 -2.373199705131246952e-09 -3.570563680062323900e-09 -4.819176044075355136e-09 -2.801357616854782700e-09 -2.002160320027792255e-09 -2.430147288388848264e-09 -2.502525920539644425e-09 -2.792326994516057121e-09 -2.583031355677433894e-09 -2.647543050306645242e-09 1.718477921523469906e-09 -4.039588893338442971e-09 -3.456594945420656453e-09 -2.065023239976006725e-09 -1.237353079532759113e-09 -1.812661501720846990e-09 -2.044107504253455267e-09 -1.784701281821304847e-09 -1.765233606989970263e-09 -1.827334592185803377e-09 -1.801216192768423476e-09 -1.916037973834251993e-09 -2.044543335117003996e-09
-1.030325882354669855e-09 1.059935042609300248e-07 -5.073793000260995994e-09 1.216393274320176634e-08 -1.780218445329684704e-08 2.663060155262141055e-09 6.575824324659511240e-09 5.071269983745556447e-09 7.586377657275566022e-09 6.215639000453552172e-09 5.116007757129288654e-09 4.026541543448145261e-09 2.001455529466798525e-09 4.888361556289114519e-09 -9.264444334953758006e-09 -8.945536624235002965e-09 -1.721418119272545872e-09 -2.674216493145309376e-09 -3.548653460020342284e-09 -2.583791488394259259e-09 -1.781697259426416787e-09 -2.102663606991638420e-09 -2.030547803144340885e-09 -2.208098881473326369e-09 -2.184321699173497557e-09 -2.214741255487822789e-09 -1.846064895315441730e-09 -3.424802177052627052e-09 -3.064453585361330944e-09 -1.922098040526309140e-09 -1.253915399405657216e-09 -1.672412926816508808e-09 -1.826272318647053606e-09 -1.588358176070898545e-09 -1.626481121819855020e-09 -1.643313691165103003e-09 -1.630119414168687756e-09 -1.722062708341599468e-09 -1.786855625836277760e-09
3.581393940919050880e-08 9.064685530364465658e-08 -1.106449125483911836e-08 -8.049636174026104377e-09 -7.521363213216705016e-09 -5.032719984604864717e-09 5.288509356404349289e-09 4.403262369794637072e-09 2.203545858588456888e-09 2.915296083524208754e-09 2.288327462493937918e-09 2.001455529466798525e-09 2.765063335222615429e-09 -1.638398876427191147e-08 4.704411810461863625e-09 -1.225920174304264814e-08 -3.633248936173332902e-09 -1.590737429038980899e-09 -1.661993692670273087e-09 -1.684604950305938829e-09 -9.265221836408044611e-10 -1.525922752066293745e-09 -1.465011714819528607e-09 -1.423301614761763809e-09 -1.518459434923669440e-09 -1.455647310743159581e-09 -2.199737968384059608e-09 -2.160777917867645320e-09 -2.342364858737451384e-09 -1.936468021421023814e-09 -9.715979021795396308e-10 -1.145444708933557001e-09 -1.405448090517368502e-09 -1.082193217052700920e-09 -1.268186631787847106e-09 -1.266972165883939727e-09 -1.287367177633297427e-09 -1.369350830037637553e-09 -1.372295920362213631e-09
2.796015397776061589e-06 -1.741303534480679038e-07 1.534582067887623773e-07 -1.443544800593595570e-07 -1.634379432206542690e-07 -3.120078171109586112e-08 6.931455172317447732e-08 6.035773388488167597e-08 5.270014233469090216e-08 4.204210059692856176e-08 3.230551986488165242e-08 4.888361556289116174e-09 -1.638398876427191147e-08 8.343573144579395342e-07 -1.025572991294819388e-07 1.596006773870994506e-07 -1.422534291299783153e-08 -1.329135118135773043e-08 -1.162044491323816911e-08 -3.428995525417629293e-09 -4.781790789073239136e-11 -9.906463413703561217e-10 -1.372913701601290877e-10 -2.065803723165140509e-09 2.472178057663630096e-09 -8.940839978771299947e-10 8.120059089911908965e-08 1.133927346558945459e-08 -7.516327448990648005e-09 6.852396250240672003e-09 2.815892452508965499e-10 -4.106448396635486210e-10 -1.663111014014840434e-09 -2.106979395827824149e-09 9.544128213106266988e-10 9.556221870074686724e-10 3.073989513752090989e-09 3.511270681458741017e-09 1.532723217477725235e-09
4.169059012850306624e-07 7.847194093270767717e-07 3.333214244743281804e-07 -2.847931499718293148e-07 4.208052047111665867e-08 -1.914889318863564414e-08 3.751167679884886390e-08 8.514694285387224804e-09 4.572251570168278283e-09 5.377306369068241088e-09 -4.132135805239287209e-09 -9.264444334953758006e-09 4.704411810461864452e-09 -1.025572991294819388e-07 2.832817494904043075e-07 -2.681243547582713254e-08 -3.425445418658140272e-08 1.922083286918897822e-09 1.314866738063426489e-08 1.707747618697571791e-08 1.002784286788638535e-08 1.502013297944892354e-08 1.282134553718686603e-08 1.265968436080196964e-08 1.008259352286293247e-08 1.188755320296248962e-08 1.202100379418626211e-08 1.256460475923025956e-08 2.461965378777297047e-08 2.949764461850650741e-09 1.085848537230397103e-08 1.177895710790175068e-08 1.113657751267033412e-08 1.232014332415736294e-08 1.102141128941161697e-08 1.123078670672503756e-08 1.047781640510717089e-08 9.405074052428306271e-09 1.008961179404024477e-08
4.422285195869747588e-07 -4.979821575857178888e-07 7.069796638103942362e-08 -1.426199247692279466e-07 6.049411206579907930e-09 2.552879497944509183e-08 1.664953003493597906e-08 -2.510571824848779916e-09 2.525372031511203230e-09 2.890305022605167563e-09 -3.132463000819340472e-09 -8.945536624235001310e-09 -1.225920174304264979e-08 1.596006773870994506e-07 -2.681243547582713254e-08 1.336801038582351893e-07 2.519373944338333361e-08 -5.630567348359091533e-09 -3.550237324848991883e-09 1.968405085978597010e-09 -2.337483284804133278e-09 -2.102730307260304370e-09 -1.940676942600043297e-09 -1.735728979448602611e-09 6.142006221023911754e-10 5.586399208433862198e-10 1.723260030694086210e-08 4.495338796453919250e-09 5.597244913537243453e-10 4.134722493817286837e-09 -4.598595063741955984e-11 1.287308381933234926e-10 5.926479244019774470e-10 -1.244604257731471415e-09 1.798425632819060050e-10 -1.215923080604334066e-10 -3.963375794730116429e-11 8.365682287230162631e-10 9.813873194670209718e-10
1.125529724731704778e-07 -3.154183336420158646e-07 -8.392567856894728248e-08 -6.921209631324719550e-09 1.194746405536480153e-08 4.113526521444956408e-08 -1.484376637938630718e-08 -8.694052606924061088e-09 4.886338013017610843e-10 -1.570551722851192082e-10 -2.373199705131247365e-09 -1.721418119272545872e-09 -3.633248936173333729e-09 -1.422534291299784145e-08 -3.425445418658140934e-08 2.519373944338333030e-08 3.852212396864857656e-08 6.259642681467175270e-09 3.382629282351523138e-09 3.058182012095850617e-09 -6.186831145407694845e-10 4.216548071075540834e-10 -9.077440637580463407e-10 -1.266085737085278529e-09 -3.801410528667456484e-10 -5.799961976074382821e-10 6.478305782607965182e-09 -5.084054411247829287e-09 -4.521133058386631442e-12 3.594607569429286311e-10 -9.928888871075742760e-10 -3.892257359982135778e-10 -5.430104380312754679e-10 -5.437932476150713512e-10 -6.562208050716218496e-10 -1.018097704020130575e-09 -1.084283103503400502e-09 -9.659019996198047956e-10 -8.442717477284721450e-10
-1.420777085843567902e-07 -1.171010372752508863e-07 3.393113081088644784e-08 3.002798850975854144e-08 2.417146859385804400e-08 1.694496920112432686e-09 -1.487440764848324668e-08 -5.480465376083053189e-09 -7.670615397438747223e-09 -3.991044420489192697e-09 -3.570563680062323900e-09 -2.674216493145309376e-09 -1.590737429038980899e-09 -1.329135118135773539e-08 1.922083286918897822e-09 -5.630567348359092360e-09 6.259642681467174443e-09 8.741768637929651130e-09 5.709020657774485289e-09 3.898353519347506130e-09 3.665462112082123996e-09 3.898181579566939395e-09 3.212252351536621031e-09 3.220025168025592552e-09 3.121969246964614723e-09 2.996206385478623517e-09 4.473544096999344741e-09 2.372260688871914043e-09 4.619662247448346378e-09 3.579674018744008570e-09 2.211041923733180379e-09 2.645191661914117852e-09 3.135331355051365957e-09 2.807852641397285641e-09 2.694163645446736813e-09 2.617783366203229356e-09 2.544157111977210832e-09 2.569496703768912443e-09 2.497608273449290596e-09
5.487586136380459471e-08 -3.952328489987354304e-08 -8.983926550190324489e-09 -1.522955296729794835e-08 1.521631086599779156e-08 -5.496197789824827530e-09 -1.336752695913010849e-08 -3.874773552301323734e-09 -7.367450019873706804e-09 -5.871258391680594341e-09 -4.819176044075355136e-09 -3.548653460020341457e-09 -1.661993692670273087e-09 -1.162044491323816746e-08 1.314866738063426489e-08 -3.550237324848991469e-09 3.382629282351521070e-09 5.709020657774485289e-09 6.563635336100902838e-09 5.092864970130290192e-09 3.369961101250571926e-09 4.331641211064704655e-09 3.856034249648899964e-09 3.921086916131138221e-09 3.616037991548708543e-09 3.527340017709448818e-09 3.180719521468333356e-09 4.284721432612710377e-09 6.070751227352886226e-09 3.356341209072006156e-09 2.672151695044348382e-09 3.232653976540549883e-09 3.209631809015158150e-09 3.164881543679999748e-09 3.060311020875144419e-09 3.010737852805356603e-09 3.003387492175585609e-09 2.958619086018920068e-09 2.947178484733189506e-09
1.192175559959191871e-07 -9.694543837083405051e-10 -3.782211347553156660e-09 -3.357789983165105612e-08 1.371331063772449855e-09 -6.795435593285103815e-09 -1.212659190972636744e-08 -1.820241153025608995e-09 -4.916925304874718089e-09 -3.604025854924619294e-09 -2.801357616854782287e-09 -2.583791488394258846e-09 -1.684604950305938829e-09 -3.428995525417629293e-09 1.707747618697571791e-08 1.968405085978597837e-09 3.058182012095849790e-09 3.898353519347506130e-09 5.092864970130290192e-09 5.292613972399734183e-09 3.145721281767395543e-09 4.110825449689219307e-09 3.600770322804558704e-09 3.663881522713152116e-09 3.374262422057623680e-09 3.383452103842826129e-09 4.373132350448517696e-09 3.087518603180086841e-09 6.337097410590066195e-09 3.425695891555009763e-09 2.991672546289866915e-09 3.409405558528651439e-09 3.286864870858896725e-09 3.198429275959567006e-09 3.124581209482244692e-09 3.036176173096681993e-09 2.991681989580294064e-09 2.935082952440073486e-09 2.989085806954797660e-09
2.553441742630496842e-08 -2.692906727627463932e-08 1.205356834495824035e-08 -3.230707796940579886e-09 2.821181693495292472e-09 -8.550604623130853108e-09 -1.008146263079941793e-08 -1.680186994478394918e-09 -5.572717695698869115e-09 -3.375342665959570695e-09 -2.002160320027792255e-09 -1.781697259426416373e-09 -9.265221836408044611e-10 -4.781790789073355458e-11 1.002784286788638370e-08 -2.337483284804133278e-09 -6.186831145407702083e-10 3.665462112082124410e-09 3.369961101250571926e-09 3.145721281767395543e-09 2.710690019044653914e-09 2.878885762096972238e-09 2.594815956509342622e-09 2.699213347272465878e-09 2.486534328975711501e-09 2.474324631687111311e-09 3.637356531606380190e-09 2.071131713561058889e-09 3.899928896466931129e-09 2.573296541284213296e-09 2.074298509376913323e-09 2.349935601543109256e-09 2.446619049813596588e-09 2.292514270699260618e-09 2.226980095909438147e-09 2.203953678982117735e-09 2.175901010317127868e-09 2.162799619834353753e-09 2.176600677571031115e-09
2.078293004851661362e-08 1.666724942710389205e-10 1.617904571735576315e-08 -7.807350781545273981e-09 5.986348235997041539e-09 -4.235154369970406402e-09 -9.669930746051506446e-09 -2.595220102063960477e-09 -4.038976238844587343e-09 -3.297661213305564458e-09 -2.430147288388848264e-09 -2.102663606991638006e-09 -1.525922752066294159e-09 -9.906463413703563285e-10 1.502013297944892354e-08 -2.102730307260304370e-09 4.216548071075546521e-10 3.898181579566939395e-09 4.331641211064704655e-09 4.110825449689219307e-09 2.878885762096972238e-09 3.738793979847722271e-09 3.349771559421170466e-09 3.341777094558986586e-09 3.032163640425620494e-09 3.021607991777693246e-09 3.441062641281769588e-09 3.086932584606181840e-09 5.392414303178764228e-09 2.986220163393635789e-09 2.557027486378900231e-09 2.879561173847797680e-09 2.965302089535011680e-09 2.850103342540155340e-09 2.799980288550173587e-09 2.777335987811809877e-09 2.746828970529254845e-09 2.682572598160924147e-09 2.691514899378460473e-09
9.818255607643048989e-09 5.249268920673220129e-10 1.284566558878081763e-08 -5.149415190879974242e-09 5.296026683560921194e-09 -5.553407256409948410e-09 -9.048899772466765557e-09 -2.585825802323905882e-09 -4.233182862901584130e-09 -3.660066335515927093e-09 -2.502525920539644839e-09 -2.030547803144340885e-09 -1.465011714819528814e-09 -1.372913701601283639e-10 1.282134553718686603e-08 -1.940676942600042884e-09 -9.077440637580463407e-10 3.212252351536621031e-09 3.856034249648900791e-09 3.600770322804559531e-09 2.594815956509342622e-09 3.349771559421170466e-09 3.094476926709801042e-09 3.117115851386437017e-09 2.809302636092381396e-09 2.798171592948231262e-09 2.581078691583667578e-09 3.177295258779329319e-09 4.887538905256816255e-09 2.769406745474194656e-09 2.335971945773650476e-09 2.621028943008544633e-09 2.710849359727653310e-09 2.582666068434287105e-09 2.563176703774540544e-09 2.561356747773471050e-09 2.544981672951320278e-09 2.497341041094121787e-09 2.504530307164907696e-09
1.275046568817312007e-08 -5.853088067456320338e-09 9.519359662473334790e-09 -6.940037070992630312e-09 4.897448191064630129e-09 -7.569793788508872843e-09 -1.003244628172670024e-08 -2.659732012923454328e-09 -5.235591632863132387e-09 -4.236283162873440770e-09 -2.792326994516056708e-09 -2.208098881473325955e-09 -1.423301614761763809e-09 -2.065803723165140096e-09 1.265968436080196799e-08 -1.735728979448603231e-09 -1.266085737085279356e-09 3.220025168025592552e-09 3.921086916131138221e-09 3.663881522713152943e-09 2.699213347272465878e-09 3.341777094558986586e-09 3.117115851386437017e-09 3.192157906587704882e-09 2.876747785093705475e-09 2.876803781504742572e-09 2.457824570859827763e-09 3.236840956940009413e-09 4.920915232363838638e-09 2.868238246242321005e-09 2.393874923621682640e-09 2.693488567836007847e-09 2.774379749394956271e-09 2.623196625629485644e-09 2.600405386346674579e-09 2.596826417795151931e-09 2.576437479416639342e-09 2.543743451841201070e-09 2.563122175565282002e-09
2.389141812174792951e-08 -2.105683105068792423e-08 9.853816048225128671e-09 -7.312413983530919219e-09 4.960961657769965479e-09 -6.404195383576531652e-09 -9.089520780546971960e-09 -2.399014235471670293e-09 -4.850804608764250378e-09 -3.773866119489819401e-09 -2.583031355677433894e-09 -2.184321699173497143e-09 -1.518459434923669440e-09 2.472178057663629683e-09 1.008259352286293247e-08 6.142006221023904516e-10 -3.801410528667459586e-10 3.121969246964614723e-09 3.616037991548708543e-09 3.374262422057624507e-09 2.486534328975711501e-09 3.032163640425620494e-09 2.809302636092381396e-09 2.876747785093705475e-09 2.652510628256854262e-09 2.631236699759098832e-09 2.900747450698211524e-09 2.995669690100208300e-09 4.418491856669239518e-09 2.719628100454469428e-09 2.158397374371663993e-09 2.447213098670537562e-09 2.534968235868096771e-09 2.366049036204999551e-09 2.367354045364551137e-09 2.355390009554078009e-09 2.344234972641441115e-09 2.332815128259163487e-09 2.341944960186588836e-09
1.252549903630419764e-08 -1.793127893782718593e-08 1.210309338729984201e-08 -8.243986692475506856e-09 5.252193956316668230e-09 -6.273405100611483590e-09 -8.966296952482852303e-09 -2.618539028489036281e-09 -4.962946571599619583e-09 -3.847867657915664284e-09 -2.647543050306645242e-09 -2.214741255487822789e-09 -1.455647310743159581e-09 -8.940839978771305117e-10 1.188755320296248962e-08 5.586399208433860130e-10 -5.799961976074380753e-10 2.996206385478623517e-09 3.527340017709448818e-09 3.383452103842826129e-09 2.474324631687110898e-09 3.021607991777693246e-09 2.798171592948231262e-09 2.876803781504742158e-09 2.631236699759098419e-09 2.643728113790414523e-09 2.633174161703762353e-09 2.902007616091211510e-09 4.475807768799100290e-09 2.666898270082707628e-09 2.179042997117034524e-09 2.461332021185541849e-09 2.559985193118724693e-09 2.384383653898313129e-09 2.373978489187265890e-09 2.364353528100850613e-09 2.337563111242266813e-09 2.324180442552888262e-09 2.352125771019642586e-09
4.958857631970070635e-07 -1.143000812076140227e-07 2.097088533998951846e-08 -4.322170320760808255e-08 -1.841479648847923963e-08 -7.119138946255535721e-09 -5.947720206066422541e-09 4.847255342490740078e-09 -1.366228703000799448e-09 1.808412811647355284e-09 1.718477921523470319e-09 -1.846064895315442144e-09 -2.199737968384059608e-09 8.120059089911910288e-08 1.202100379418626707e-08 1.723260030694086541e-08 6.478305782607963527e-09 4.473544096999343914e-09 3.180719521468332529e-09 4.373132350448517696e-09 3.637356531606380190e-09 3.441062641281769588e-09 2.581078691583667578e-09 2.457824570859827763e-09 2.900747450698211524e-09 2.633174161703762353e-09 1.851325976651808644e-08 1.283805974943554482e-10 3.212726837490832724e-09 2.836571727348362853e-09 2.209293154897017690e-09 2.699201129198979195e-09 2.440186989723189446e-09 2.452848715080504140e-09 2.417598093369552048e-09 2.292864754367938128e-09 2.409949639287631214e-09 2.395366635077246441e-09 2.340295482421659752e-09
-3.804081491072812742e-08 2.029091136072118077e-08 3.418677378291832102e-08 -1.475763624761165285e-08 2.008150494441461936e-08 -6.840989905391660777e-09 -1.515979392028304292e-09 -1.972077548454939239e-09 -3.598166543624485091e-09 -3.751332849437634839e-09 -4.039588893338442971e-09 -3.424802177052627052e-09 -2.160777917867645320e-09 1.133927346558946121e-08 1.256460475923025956e-08 4.495338796453920905e-09 -5.084054411247830114e-09 2.372260688871913629e-09 4.284721432612709550e-09 3.087518603180086841e-09 2.071131713561058476e-09 3.086932584606181840e-09 3.177295258779328905e-09 3.236840956940008586e-09 2.995669690100208300e-09 2.902007616091211510e-09 1.283805974943549570e-10 6.862493480004111233e-09 5.146754861401540062e-09 3.127168876512739343e-09 2.215175521605090310e-09 2.454418322141146108e-09 2.670971756716953146e-09 2.385534796541334119e-09 2.598353058331656331e-09 2.645602833490965680e-09 2.689248905662785886e-09 2.717476835087092681e-09 2.602660007389618608e-09
1.097124673596839913e-08 4.096658645813061320e-08 2.688008240008083833e-08 -2.812260458170021990e-08 7.969596675483226959e-09 -6.912062027117804505e-09 -1.256701365042546980e-08 -3.173411855221052641e-09 -4.859640326175245892e-09 -4.035989495424955522e-09 -3.456594945420655625e-09 -3.064453585361330944e-09 -2.342364858737451384e-09 -7.516327448990646351e-09 2.461965378777297047e-08 5.597244913537236215e-10 -4.521133058387226786e-12 4.619662247448346378e-09 6.070751227352886226e-09 6.337097410590066195e-09 3.899928896466931129e-09 5.392414303178764228e-09 4.887538905256816255e-09 4.920915232363839466e-09 4.418491856669239518e-09 4.475807768799100290e-09 3.212726837490833137e-09 5.146754861401540062e-09 8.678239850327678875e-09 4.680256550979755176e-09 4.044642294911231310e-09 4.425559976565320361e-09 4.523339407920300718e-09 4.266670483926700586e-09 4.260629060810890893e-09 4.198609368106825245e-09 4.115412096294756742e-09 4.035668244436867766e-09 4.070170862087103991e-09
-2.291907253182281267e-08 -3.177379640473728168e-08 1.841421339846658963e-08 -3.699417055033681805e-09 4.295806982974437325e-09 -6.919485597722736103e-09 -1.045611736154189558e-08 -2.108831997296203275e-09 -4.755849122680016464e-09 -2.936910249973912400e-09 -2.065023239976006311e-09 -1.922098040526308726e-09 -1.936468021421023814e-09 6.852396250240670348e-09 2.949764461850650328e-09 4.134722493817286010e-09 3.594607569429280624e-10 3.579674018744008570e-09 3.356341209072005329e-09 3.425695891555009763e-09 2.573296541284213296e-09 2.986220163393635789e-09 2.769406745474194656e-09 2.868238246242321005e-09 2.719628100454469428e-09 2.666898270082707628e-09 2.836571727348362439e-09 3.127168876512738929e-09 4.680256550979754349e-09 3.486965600467061586e-09 2.396823034850593787e-09 2.595361160983517973e-09 2.810964742131000066e-09 2.440427169995000961e-09 2.536417536740437738e-09 2.482570841055615698e-09 2.455547649003076073e-09 2.500530690726805368e-09 2.475456826848456542e-09
2.353783220890781688e-08 1.857434613781544272e-08 1.286512019144079327e-08 -1.326240696513804355e-08 -3.722321064020393957e-12 -6.593999974730903020e-09 -7.017628618761495501e-09 -7.687177610247524517e-10 -2.896599718121102355e-09 -1.866525283455808222e-09 -1.237353079532759113e-09 -1.253915399405657216e-09 -9.715979021795396308e-10 2.815892452508961363e-10 1.085848537230397103e-08 -4.598595063741937889e-11 -9.928888871075742760e-10 2.211041923733180379e-09 2.672151695044348382e-09 2.991672546289866915e-09 2.074298509376913323e-09 2.557027486378900231e-09 2.335971945773650890e-09 2.393874923621682640e-09 2.158397374371663993e-09 2.179042997117034524e-09 2.209293154897017690e-09 2.215175521605090310e-09 4.044642294911231310e-09 2.396823034850594200e-09 2.041163545711337673e-09 2.203141815548843253e-09 2.242391240111007111e-09 2.093696383478272888e-09 2.089345335915661257e-09 2.055886999049999502e-09 2.019778234127300387e-09 1.991049810808610249e-09 2.006126851663913722e-09
4.116691067501051995e-08 5.483984777525898768e-09 8.318893387989291858e-09 -1.508835803790584024e-08 9.010781269922385283e-10 -7.129744225760566861e-09 -8.503645168058982111e-09 -1.293851478182831650e-09 -3.889994127067187834e-09 -2.710983267265209340e-09 -1.812661501720846990e-09 -1.672412926816508808e-09 -1.145444708933557001e-09 -4.106448396635487244e-10 1.177895710790174903e-08 1.287308381933239321e-10 -3.892257359982131125e-10 2.645191661914117852e-09 3.232653976540549470e-09 3.409405558528652266e-09 2.349935601543109256e-09 2.879561173847797680e-09 2.621028943008544633e-09 2.693488567836008261e-09 2.447213098670537148e-09 2.461332021185541849e-09 2.699201129198979195e-09 2.454418322141146522e-09 4.425559976565320361e-09 2.595361160983518387e-09 2.203141815548843253e-09 2.436954507452071104e-09 2.454357319613191160e-09 2.315647117094263766e-09 2.293991614392595603e-09 2.258666618799960960e-09 2.226401082182223987e-09 2.197767457804580978e-09 2.222798629718520895e-09
-2.360945758823601944e-08 -8.377641992482426100e-09 2.211932108401459489e-08 -5.269224373665282743e-09 5.158600923108362674e-09 -5.317825414173488137e-09 -8.523679286834935266e-09 -2.330817956004151056e-09 -4.166878779294720923e-09 -2.858083197124846651e-09 -2.044107504253455267e-09 -1.826272318647053606e-09 -1.405448090517368502e-09 -1.663111014014841468e-09 1.113657751267033412e-08 5.926479244019772402e-10 -5.430104380312759849e-10 3.135331355051365957e-09 3.209631809015158150e-09 3.286864870858897139e-09 2.446619049813596588e-09 2.965302089535011680e-09 2.710849359727653310e-09 2.774379749394956685e-09 2.534968235868096771e-09 2.559985193118725106e-09 2.440186989723189446e-09 2.670971756716953146e-09 4.523339407920300718e-09 2.810964742131000480e-09 2.242391240111006698e-09 2.454357319613191574e-09 2.625544297412681344e-09 2.387498178248227954e-09 2.393150068401910894e-09 2.368844088890169789e-09 2.319530604828593969e-09 2.310007510752586954e-09 2.327889906979021554e-09
1.168424916462227827e-08 6.091242650138533072e-09 1.431066656170024508e-08 -8.836365452308214781e-09 3.152170798312029734e-09 -5.395975152243945288e-09 -7.790830391884017117e-09 -1.693153067561737200e-09 -3.547152998070699059e-09 -2.566776069158441096e-09 -1.784701281821304847e-09 -1.588358176070898131e-09 -1.082193217052700920e-09 -2.106979395827824149e-09 1.232014332415736294e-08 -1.244604257731471001e-09 -5.437932476150709376e-10 2.807852641397285641e-09 3.164881543679999748e-09 3.198429275959567420e-09 2.292514270699260618e-09 2.850103342540154926e-09 2.582666068434287105e-09 2.623196625629485644e-09 2.366049036204999551e-09 2.384383653898313129e-09 2.452848715080504140e-09 2.385534796541334119e-09 4.266670483926700586e-09 2.440427169995000961e-09 2.093696383478272888e-09 2.315647117094263766e-09 2.387498178248227954e-09 2.256650346818308262e-09 2.224541680112612255e-09 2.202644914312610255e-09 2.165824414550671556e-09 2.127477092455037566e-09 2.146279429687039834e-09
5.503189353465911269e-09 3.420077575603112785e-09 1.679823654893467846e-08 -8.270509227438476719e-09 3.518698929997067074e-09 -5.141311978246995039e-09 -7.369613423642252100e-09 -1.694560224025898936e-09 -3.333044194517881165e-09 -2.455949175135873647e-09 -1.765233606989970263e-09 -1.626481121819855020e-09 -1.268186631787847313e-09 9.544128213106271124e-10 1.102141128941161697e-08 1.798425632819054105e-10 -6.562208050716217462e-10 2.694163645446736813e-09 3.060311020875144419e-09 3.124581209482245105e-09 2.226980095909438147e-09 2.799980288550173587e-09 2.563176703774540544e-09 2.600405386346674993e-09 2.367354045364551137e-09 2.373978489187265890e-09 2.417598093369552048e-09 2.598353058331656745e-09 4.260629060810890893e-09 2.536417536740437738e-09 2.089345335915661671e-09 2.293991614392595603e-09 2.393150068401910894e-09 2.224541680112612255e-09 2.227819246245593498e-09 2.207061732563969642e-09 2.176350671030609268e-09 2.150904792707353173e-09 2.158910561726402820e-09
-3.814906697127688523e-10 3.389957671372530769e-09 1.762986937757612399e-08 -6.577408174337905378e-09 3.878907081698406957e-09 -5.112619151522101052e-09 -7.189522298716163695e-09 -1.840709935523636104e-09 -3.375806715798094560e-09 -2.594563503211372041e-09 -1.827334592185803377e-09 -1.643313691165103003e-09 -1.266972165883939727e-09 9.556221870074682588e-10 1.123078670672503756e-08 -1.215923080604333290e-10 -1.018097704020130575e-09 2.617783366203229356e-09 3.010737852805356603e-09 3.036176173096682407e-09 2.203953678982117735e-09 2.777335987811809464e-09 2.561356747773471050e-09 2.596826417795151931e-09 2.355390009554078009e-09 2.364353528100850613e-09 2.292864754367938128e-09 2.645602833490965680e-09 4.198609368106826072e-09 2.482570841055615698e-09 2.055886999049999502e-09 2.258666618799960960e-09 2.368844088890169789e-09 2.202644914312610255e-09 2.207061732563969642e-09 2.195494346372797686e-09 2.167177576713987308e-09 2.140532787515819942e-09 2.149007592496127951e-09
1.056562055954933936e-08 2.599223209059116459e-09 1.540405176554191898e-08 -6.627299850020784578e-09 3.329925194202165787e-09 -5.371269091363096540e-09 -7.117219247959636312e-09 -1.692814157643150461e-09 -3.310479950148768343e-09 -2.617057033420042620e-09 -1.801216192768423476e-09 -1.630119414168687756e-09 -1.287367177633297427e-09 3.073989513752090989e-09 1.047781640510717089e-08 -3.963375794730053098e-11 -1.084283103503400502e-09 2.544157111977211245e-09 3.003387492175586023e-09 2.991681989580294891e-09 2.175901010317127868e-09 2.746828970529254845e-09 2.544981672951320692e-09 2.576437479416639342e-09 2.344234972641441529e-09 2.337563111242267226e-09 2.409949639287631628e-09 2.689248905662786299e-09 4.115412096294756742e-09 2.455547649003076487e-09 2.019778234127300387e-09 2.226401082182223987e-09 2.319530604828593969e-09 2.165824414550671969e-09 2.176350671030609268e-09 2.167177576713987308e-09 2.149947348571461137e-09 2.123249200853345408e-09 2.124722028386658481e-09
5.228620211695967157e-09 -5.848819536538338979e-09 1.556624871905092251e-08 -5.972019469455207824e-09 3.785708770553292272e-09 -5.492723884424459175e-09 -7.305114351805300963e-09 -1.848194523608969034e-09 -3.608805295758359909e-09 -2.774465464212664467e-09 -1.916037973834251993e-09 -1.722062708341599468e-09 -1.369350830037637553e-09 3.511270681458741017e-09 9.405074052428306271e-09 8.365682287230161597e-10 -9.659019996198054160e-10 2.569496703768912443e-09 2.958619086018920068e-09 2.935082952440073899e-09 2.162799619834353753e-09 2.682572598160924147e-09 2.497341041094121787e-09 2.543743451841201070e-09 2.332815128259163487e-09 2.324180442552888262e-09 2.395366635077246441e-09 2.717476835087093094e-09 4.035668244436868593e-09 2.500530690726805368e-09 1.991049810808610249e-09 2.197767457804581392e-09 2.310007510752586954e-09 2.127477092455037980e-09 2.150904792707353173e-09 2.140532787515819942e-09 2.123249200853345408e-09 2.110910673835296105e-09 2.112709594198050663e-09
5.622998300298739170e-09 -8.737386490826684339e-09 1.388628918277618119e-08 -6.755469542378075665e-09 3.419520741151770197e-09 -5.575701529629443021e-09 -7.745129619225144015e-09 -2.109962025399340306e-09 -3.912872916641926851e-09 -3.048633276213085863e-09 -2.044543335117003996e-09 -1.786855625836278174e-09 -1.372295920362213631e-09 1.532723217477724821e-09 1.008961179404024643e-08 9.813873194670207650e-10 -8.442717477284724552e-10 2.497608273449290182e-09 2.947178484733189506e-09 2.989085806954798074e-09 2.176600677571031115e-09 2.691514899378460473e-09 2.504530307164908109e-09 2.563122175565282002e-09 2.341944960186588836e-09 2.352125771019643000e-09 2.340295482421658925e-09 2.602660007389618608e-09 4.070170862087103164e-09 2.475456826848456542e-09 2.006126851663914135e-09 2.222798629718521309e-09 2.327889906979021554e-09 2.146279429687040248e-09 2.158910561726402820e-09 2.149007592496127951e-09 2.124722028386658481e-09 2.112709594198050663e-09 2.131793993971697710e-09
