2.646100778815737309e-05 4.347421342280050055e-06 -2.764630292730144043e-06 -3.449208772676218588e-07 8.319064368229300737e-07 3.742602948665968924e-07 1.889952904153933473e-07 3.431238288375979339e-07 2.509412191795643381e-07 3.007568607559713926e-07 3.436784522740452419e-07 2.949770750714840641e-07 2.781467858508435070e-07 4.128736102183938762e-07 -2.636236363216924015e-07 1.650759941027550161e-07 1.441254288840781442e-08 -2.293141218187990164e-08 1.296959641173388295e-08 2.885926610013370315e-08 4.711737414501091337e-08 2.245057970614822622e-09 -4.548878682262666978e-09 -8.482123838885591065e-09 3.967910329787425566e-09 3.304792746916094660e-09 -1.347040902710201040e-09 4.490718889461052329e-08 2.016085307639890476e-08 -3.480638818436914230e-09 9.988658672564246859e-09 9.340703038726940615e-09 1.411807704774495345e-08 6.564384475073809130e-09 1.327390822547893548e-08 4.290674004118776768e-09 -4.327392181433754717e-09 4.685734896630127831e-09 1.709483972022900875e-09
4.347421342280050055e-06 3.109673152766217611e-06 -3.132715163885863095e-07 8.308466794489257170e-08 3.936703808072297633e-07 1.560412022975604301e-07 1.513085816882574789e-07 4.936145093778105185e-08 3.671355624133882215e-08 1.895694685768061952e-08 5.376783468339940562e-08 3.857120196252886379e-08 6.114178707211592267e-08 -3.732072753132596305e-07 -1.509772373110975482e-07 -1.950857438374339909e-08 1.166786294683749907e-08 8.039107038911171005e-09 6.979528539900757247e-09 -9.981826206417868222e-09 -9.160904685661883001e-10 -1.364061429603563831e-08 -1.047310850953569547e-08 -7.745311069334301189e-09 -4.962131585021835123e-09 -5.113988712072732511e-09 5.652291814799665675e-08 7.426719413760341383e-09 -2.750182491388512900e-08 -5.654510526437760580e-09 -1.194931942141100360e-08 -3.487217930155279959e-09 -4.284850023413735336e-09 -6.915140674153679230e-09 -5.579134387313773829e-09 -6.025051170909532681e-09 -8.323041672768231088e-09 -8.680538593046238620e-09 -7.498480138451283536e-09
-2.764630292730144043e-06 -3.132715163885862565e-07 7.918385127045244489e-07 2.227236259389049127e-07 -3.786344355720421166e-08 3.632691987793872009e-08 5.535275850472820096e-08 -2.426030969767789439e-09 -1.663551957125487477e-08 -1.722102217382405442e-08 -1.697278834373162238e-08 -1.135495204297329777e-08 -1.313074664786212828e-08 -2.352616272111319646e-07 2.598720006532773759e-08 2.417492227972695773e-08 -6.888806556465223042e-09 6.475282178969201632e-09 1.331351349642386800e-08 9.055000217756213452e-09 8.466792081713847961e-09 8.375665594976968200e-09 1.032758340903019454e-08 9.866377850129395181e-09 7.980836012642551849e-09 8.308719698305361835e-09 -3.571635769726849927e-09 8.261630136912586766e-09 4.540144432145307482e-09 7.725466293580518713e-09 6.460388733661568530e-09 5.778794639386528165e-09 4.824155404724635420e-09 8.263518981305998684e-09 6.912543549265155585e-09 7.656129417475574235e-09 8.685952528868929853e-09 7.064883663737965368e-09 7.872374648682023778e-09
-3.449208772676218588e-07 8.308466794489257170e-08 2.227236259389049127e-07 1.233840507037468266e-07 5.472424775940182047e-08 3.564248655634192548e-08 2.649707961171776895e-08 1.237652844023918604e-08 8.439645455182534801e-09 1.369079284666471069e-09 7.499517282021440459e-09 6.093920619526033631e-09 5.891227936557246641e-09 -1.067349751422222957e-07 -1.838847292952797136e-08 1.297550395178611924e-08 -7.033410220093950100e-09 -3.250875671489200235e-10 1.415016170962183147e-09 2.670566833523174354e-09 1.326852752024626366e-09 -1.991780653235446317e-10 -3.447275964124993487e-10 6.313858089109064775e-10 9.677980324220404826e-10 2.001387700391554157e-09 -9.036441834556493340e-09 3.822990424004415734e-09 -1.843405895332759004e-09 2.117237165074386964e-10 -5.217846950161430721e-11 1.319636061682548211e-10 -1.583986488408927454e-10 9.225877529692653341e-10 4.357201672244314403e-10 3.509109708060178274e-10 6.527307541939336191e-10 8.278035946627702140e-10 1.777449543836653847e-09
8.319064368229301796e-07 3.936703808072297633e-07 -3.786344355720422490e-08 5.472424775940182047e-08 2.473281555982000876e-07 4.607270019248242915e-08 2.977554070841755427e-08 -3.307029536261598914e-09 -4.803045765440002523e-09 -2.487866931227980665e-08 -1.018592595130948125e-08 -3.527288064571539147e-09 2.309631104934091775e-09 -1.768858614555144586e-08 -5.784761324428398631e-08 2.437647839629121318e-10 -9.823902626454921331e-09 -7.469422294272792878e-09 -2.410560311605653453e-09 2.054764782165825030e-09 3.316550541112375649e-10 -5.297621289803735591e-10 -1.215931738802447463e-09 5.046038760703342718e-10 1.111122850172413457e-09 9.149099214747093345e-10 -4.595819443053569434e-09 4.683140727982223762e-09 -4.045342413959986349e-09 1.228097326644688903e-09 -1.382603188781936332e-09 1.802529909158600144e-10 1.150693682579595557e-09 7.150454048926217514e-10 1.090973264528587467e-09 2.703072012316885346e-10 8.675565050839956345e-10 1.058593640576016571e-09 1.128388572579643088e-09
3.742602948665968924e-07 1.560412022975604301e-07 3.632691987793872009e-08 3.564248655634192548e-08 4.607270019248242915e-08 3.781158256067780964e-08 2.252744602768544100e-08 1.629676392258145778e-08 1.103741873031324880e-08 9.331642895372853335e-09 1.342859945897339545e-08 1.028067138172742048e-08 7.933101110377802769e-09 -3.237424657313593163e-08 -1.725007081811752025e-08 -1.951424240210569305e-09 -1.998403411993544709e-09 -1.337653447802275092e-09 1.764182681712598616e-09 7.720048573803710711e-10 1.477953594452049338e-09 -4.868138037402814652e-10 -3.785648214261747157e-10 -1.101030196755153583e-10 -1.787664842510814270e-10 6.265443189607457636e-11 -4.790998639635038236e-09 2.074131301341789268e-09 -2.382323922121872735e-09 -7.091746584479744782e-10 5.646796592020804035e-11 -5.174895460308753671e-10 -1.933859113558852195e-10 1.429690041664509619e-10 1.203564616971288509e-10 3.237504602487806961e-11 1.625223329011825281e-12 -1.599964977794038339e-11 1.034665562359646385e-10
1.889952904153933473e-07 1.513085816882574789e-07 5.535275850472820096e-08 2.649707961171776895e-08 2.977554070841755427e-08 2.252744602768544100e-08 2.129880142273658832e-08 9.909880269857962615e-09 4.647602780880224329e-09 5.620174401157624582e-09 8.189440397318938398e-09 7.656013956973575448e-09 6.476108662767879621e-09 -4.659752012661280143e-08 -7.084589396462391764e-09 2.625243568395334033e-09 -4.327672100103288756e-10 3.601118769413606902e-11 2.552845924878009340e-09 7.295649804955873419e-10 1.335166102129287852e-09 5.157247158402481712e-10 8.136996950749379917e-10 7.700468395326849633e-10 5.415937800370548724e-10 3.756466915229544651e-10 5.788803193593422559e-10 1.362250627729062316e-09 -1.683211538654047334e-09 6.964481330032947746e-11 9.952339918317423529e-11 2.178766743277258898e-10 2.665230827700619653e-10 5.165985982183695135e-10 5.742458026726630166e-10 5.783649640616356085e-10 5.692723354989903969e-10 2.805624481344611840e-10 2.693748491186331808e-10
3.431238288375979869e-07 4.936145093778105185e-08 -2.426030969767789025e-09 1.237652844023918439e-08 -3.307029536261598914e-09 1.629676392258145447e-08 9.909880269857962615e-09 1.559076053905156253e-08 1.207190953907880116e-08 1.639815543849191896e-08 1.614882555283275382e-08 1.284715488175599284e-08 9.593779857706133583e-09 -1.949466508327732066e-08 -2.162105073777892523e-09 2.817012861555959713e-09 -1.383020062832855117e-10 1.345194288193146134e-10 8.788604902100029739e-10 1.980427665095541423e-10 5.731067634014194530e-10 -3.677921089826818622e-10 -4.818829629303570587e-10 -5.617274021209712045e-10 -5.950282863926445601e-10 -4.996752644131843995e-10 -3.737641365124890738e-09 2.693806220752559761e-10 -1.305154222004724500e-09 -1.422870385523513953e-09 -3.274122733502659311e-10 -6.982533036144265468e-10 -6.560905945629049629e-10 -4.932402624865015763e-10 -4.672699424459843643e-10 -4.612055832291258170e-10 -5.834694773170112613e-10 -5.781249778913374518e-10 -5.422999024999705408e-10
2.509412191795643381e-07 3.671355624133882215e-08 -1.663551957125487808e-08 8.439645455182533147e-09 -4.803045765440002523e-09 1.103741873031325046e-08 4.647602780880224329e-09 1.207190953907880116e-08 1.336112443122030229e-08 1.584296468844148963e-08 1.572137040683283073e-08 1.198496521490944410e-08 8.540832407591558954e-09 -4.287353794584020110e-09 6.716896889747666526e-10 7.665933037584620528e-10 2.512822034103225768e-10 1.727655597503770125e-10 -3.529290314762077810e-10 2.341045814539124396e-10 3.859759466254875033e-11 -8.630322729573469274e-10 -8.439646415659829115e-10 -9.566737635524286410e-10 -8.988690029998621127e-10 -7.962700166737550394e-10 -3.132307341463928585e-09 5.966133649337893286e-10 -1.352354007812409888e-09 -1.733733376363052211e-09 -5.394325893362283239e-10 -7.306070283286152193e-10 -6.991287889423951284e-10 -6.751998111644144828e-10 -7.618211155614872689e-10 -7.520942195769431454e-10 -9.339209312073654610e-10 -9.594303307643848722e-10 -8.306303828916844469e-10
3.007568607559713926e-07 1.895694685768061952e-08 -1.722102217382405111e-08 1.369079284666469415e-09 -2.487866931227980665e-08 9.331642895372854990e-09 5.620174401157622928e-09 1.639815543849191896e-08 1.584296468844148632e-08 2.370070510983881897e-08 2.056986623295693554e-08 1.601209047088222214e-08 1.165010691112847546e-08 -1.177395053077443497e-08 6.096286940448995563e-09 2.177257000303910150e-09 1.276177222608695684e-09 1.658546538272624079e-09 3.990852613340259095e-10 1.637978105205025296e-10 3.907627395868322359e-10 -4.434114109387982932e-10 -4.357892292839979255e-10 -7.606241210891949891e-10 -8.954619466122172073e-10 -1.006388969011355633e-09 -2.833625981263911447e-09 6.222931286840346036e-11 -1.240776604782832212e-09 -2.100306638192023976e-09 -5.782004419067480141e-10 -7.849636243542340172e-10 -8.181732701799267414e-10 -7.622265296760712264e-10 -7.979381348058529576e-10 -6.870396537610408663e-10 -8.855116018042736169e-10 -1.064847639684245237e-09 -1.100565898445363454e-09
3.436784522740452419e-07 5.376783468339940562e-08 -1.697278834373162900e-08 7.499517282021438804e-09 -1.018592595130947959e-08 1.342859945897339545e-08 8.189440397318938398e-09 1.614882555283275382e-08 1.572137040683283073e-08 2.056986623295693554e-08 2.005389286089401684e-08 1.589726745632048051e-08 1.146982463772379995e-08 -1.313824051941486914e-08 2.399344266179671620e-09 2.363550957098306564e-09 7.303010351318898232e-10 3.937465748281260901e-10 2.840164518069034351e-10 1.829571081851958568e-10 1.999588037234259144e-10 -7.058273255120572732e-10 -6.736394024599445419e-10 -9.209559594201607491e-10 -9.528206134344163202e-10 -9.520133068786343349e-10 -3.009181906158092822e-09 3.614196247158797068e-10 -1.705388772724858196e-09 -2.040578802053567304e-09 -6.212245012993526135e-10 -8.281671403032466081e-10 -8.217464560249344827e-10 -7.744784030076005874e-10 -8.028219896403079535e-10 -7.658089223232591859e-10 -9.867140176312627646e-10 -1.089866576229343445e-09 -1.020724568127122944e-09
2.949770750714840641e-07 3.857120196252887703e-08 -1.135495204297329446e-08 6.093920619526032804e-09 -3.527288064571539975e-09 1.028067138172742213e-08 7.656013956973575448e-09 1.284715488175599284e-08 1.198496521490944576e-08 1.601209047088222214e-08 1.589726745632048051e-08 1.331278021808883452e-08 9.568961276793514514e-09 -1.172150326811112644e-08 2.661753755149507222e-09 3.572500267219927833e-09 3.934745095396295461e-10 -1.704637379168696648e-11 3.864659915470440367e-10 3.747749133146230843e-10 2.504405844858084384e-10 -2.461619796643618363e-10 -2.476685175269482486e-10 -4.972110554512794753e-10 -5.575645433744489246e-10 -6.488706610165921488e-10 -2.355058283722175985e-09 3.251944076948687387e-10 -1.261519219999674135e-09 -1.479253909190665065e-09 -4.208942908808386442e-10 -5.145298485084287821e-10 -4.993873066999390405e-10 -4.649827621665533960e-10 -4.486227955607426761e-10 -4.455557718338391892e-10 -5.944283608846880886e-10 -7.160917049746126907e-10 -6.997361601435165199e-10
2.781467858508435070e-07 6.114178707211593590e-08 -1.313074664786212828e-08 5.891227936557248295e-09 2.309631104934091775e-09 7.933101110377804423e-09 6.476108662767879621e-09 9.593779857706135238e-09 8.540832407591558954e-09 1.165010691112847546e-08 1.146982463772379995e-08 9.568961276793514514e-09 7.614866819935838173e-09 -1.401761613628242658e-08 -3.410130939448495772e-10 3.230843452635247138e-09 2.445548910955786106e-10 3.558045143362459819e-10 2.853277459925548732e-10 2.001001221733210070e-10 2.246506072858535759e-10 -2.696865018702341139e-10 -3.112477239482531213e-10 -4.083855109803711314e-10 -3.791477335176273264e-10 -4.364571427833490638e-10 -1.102452836077903778e-09 2.986293461950495028e-10 -9.991108145719395001e-10 -1.046397885104331891e-09 -4.615618951068260548e-10 -3.633795063457181229e-10 -3.870324598923484970e-10 -3.949398970362803167e-10 -3.582809400898050110e-10 -3.708110404719741255e-10 -4.837423874512356995e-10 -5.399222365816347424e-10 -5.191762161606982361e-10
4.128736102183937704e-07 -3.732072753132597364e-07 -2.352616272111319911e-07 -1.067349751422222957e-07 -1.768858614555145579e-08 -3.237424657313593825e-08 -4.659752012661280143e-08 -1.949466508327732397e-08 -4.287353794584020110e-09 -1.177395053077443663e-08 -1.313824051941487079e-08 -1.172150326811112810e-08 -1.401761613628242658e-08 2.225468277872394046e-07 1.772185258786959233e-08 -9.758835818787664419e-09 2.355359571668397621e-09 -4.855875273082470570e-09 -4.711567117645823388e-09 2.846558091470289667e-09 1.583696995940146781e-09 1.383956506321274089e-09 1.305376802398296147e-09 2.594828537947223338e-10 6.653253945969283057e-10 4.673369327765572866e-10 -2.453513972204841075e-09 2.274126831435287017e-09 8.294099418528844010e-09 2.202691502290043356e-09 3.713823730039706916e-09 2.021310667947067803e-09 2.903634784292159161e-09 2.052147462429829451e-09 1.968184673392780586e-09 1.435918940964580248e-09 1.086939521345029698e-09 1.678843890804018236e-09 1.175216682807173167e-09
-2.636236363216924015e-07 -1.509772373110975482e-07 2.598720006532773097e-08 -1.838847292952797467e-08 -5.784761324428398631e-08 -1.725007081811752025e-08 -7.084589396462391764e-09 -2.162105073777892523e-09 6.716896889747666526e-10 6.096286940448995563e-09 2.399344266179671620e-09 2.661753755149506809e-09 -3.410130939448492154e-10 1.772185258786959233e-08 2.483081237384865736e-08 4.436983011843408891e-09 2.977027622747890844e-09 1.596027327760578286e-09 1.087635984673876580e-09 1.254246160687561771e-09 9.405684706346439832e-10 1.654331760853112308e-09 2.104232147825066868e-09 1.165024894599358756e-09 8.166504515096837236e-10 4.175988830823215760e-10 2.786795847469849156e-09 1.825375850177893905e-10 2.488088861041304716e-09 6.047781016707071085e-10 1.310869456916303264e-09 1.150171458873348635e-09 9.401139810545468379e-10 1.027088326406276215e-09 8.942816736318559369e-10 1.044968772897155078e-09 8.923315859784881671e-10 5.301516149411027059e-10 3.755855306104884342e-10
1.650759941027550426e-07 -1.950857438374339909e-08 2.417492227972695773e-08 1.297550395178612089e-08 2.437647839629121318e-10 -1.951424240210568892e-09 2.625243568395334033e-09 2.817012861555959713e-09 7.665933037584616392e-10 2.177257000303910150e-09 2.363550957098306564e-09 3.572500267219927833e-09 3.230843452635247552e-09 -9.758835818787662764e-09 4.436983011843409718e-09 1.157227642408843391e-08 -5.458284949518087492e-10 9.478369260602365875e-11 1.015640285663283612e-09 1.874787251216648520e-09 1.478142051734239014e-09 1.397220313197719563e-09 1.279810929904526354e-09 1.039958755314496479e-09 1.215754152714397258e-09 1.215311044967265792e-09 -1.117590810909137956e-10 1.357956011014176311e-09 2.091728295462558703e-09 1.058449671780242582e-09 9.819467943150284825e-10 1.146051567142183578e-09 9.754904627389859741e-10 1.136628588835818311e-09 1.137089416453853709e-09 9.902712298326161080e-10 9.479882935315268401e-10 1.041402048679713423e-09 1.105738372893739923e-09
1.441254288840780946e-08 1.166786294683749907e-08 -6.888806556465223042e-09 -7.033410220093950100e-09 -9.823902626454919676e-09 -1.998403411993544709e-09 -4.327672100103287722e-10 -1.383020062832856410e-10 2.512822034103227836e-10 1.276177222608695478e-09 7.303010351318898232e-10 3.934745095396294944e-10 2.445548910955786106e-10 2.355359571668397621e-09 2.977027622747890844e-09 -5.458284949518088526e-10 1.069938952016449824e-09 5.340041207914565087e-10 3.064955077385132607e-10 -7.562015924948005189e-11 1.477291327340389961e-10 6.827117273285239137e-11 2.161866539031020979e-10 5.215327882762658018e-11 1.520551510603513965e-11 -6.325322842064689717e-11 1.642539973380539788e-09 -2.394281747356418784e-11 1.854887519444461889e-10 4.015238157875094167e-11 1.193481410712975790e-10 1.383063176396781533e-10 9.742798671897616712e-11 5.238397385970610095e-11 5.340210625516148140e-11 8.952382870358239795e-11 8.956974206718269203e-12 -5.321858626531284624e-11 -9.425746227909911516e-11
-2.293141218187989503e-08 8.039107038911172659e-09 6.475282178969201632e-09 -3.250875671489205405e-10 -7.469422294272794533e-09 -1.337653447802275092e-09 3.601118769413601086e-11 1.345194288193145617e-10 1.727655597503769608e-10 1.658546538272624493e-09 3.937465748281261418e-10 -1.704637379168706019e-11 3.558045143362459302e-10 -4.855875273082470570e-09 1.596027327760578286e-09 9.478369260602360705e-11 5.340041207914565087e-10 1.076763019610750231e-09 2.887817823477496422e-10 5.944885741936880089e-11 2.678060804397340630e-10 1.191602395527863673e-10 1.944859961294962954e-10 1.495274900621819954e-10 1.208742526945497144e-10 7.474033612668079018e-11 1.011716122509171925e-09 1.130963867146908705e-10 2.305423005382966460e-10 7.829740345057217871e-11 5.008319999428551532e-11 1.464120048421238194e-10 7.869835813820017249e-11 9.524905078387508533e-11 6.866743861237727968e-11 1.178958071448834673e-10 9.806846300529367325e-11 3.864559713657437722e-11 1.698792646616812826e-11
1.296959641173388130e-08 6.979528539900758901e-09 1.331351349642386800e-08 1.415016170962182940e-09 -2.410560311605653453e-09 1.764182681712598202e-09 2.552845924878009340e-09 8.788604902100027671e-10 -3.529290314762078327e-10 3.990852613340257544e-10 2.840164518069033834e-10 3.864659915470439850e-10 2.853277459925550800e-10 -4.711567117645823388e-09 1.087635984673876580e-09 1.015640285663283406e-09 3.064955077385132607e-10 2.887817823477496422e-10 7.928700888895717154e-10 3.514731035033545151e-10 5.920153780495427377e-10 4.404349405769616630e-10 5.380567949261103267e-10 4.247733593921020709e-10 3.594761730747082290e-10 3.085792498619391636e-10 6.752193808396540824e-10 3.408724880256548740e-10 3.964082938154083795e-10 3.835243630293318268e-10 3.868999069936660270e-10 3.268610080487347511e-10 3.125924332893497998e-10 3.860306145587995002e-10 3.885344051169554075e-10 3.960021104038919424e-10 3.775664459709008700e-10 3.246783322028744757e-10 2.868970751427604757e-10
2.885926610013370315e-08 -9.981826206417864913e-09 9.055000217756213452e-09 2.670566833523174767e-09 2.054764782165825030e-09 7.720048573803710711e-10 7.295649804955873419e-10 1.980427665095540906e-10 2.341045814539125430e-10 1.637978105205026072e-10 1.829571081851960119e-10 3.747749133146232394e-10 2.001001221733211104e-10 2.846558091470289667e-09 1.254246160687562185e-09 1.874787251216648520e-09 -7.562015924948007774e-11 5.944885741936877504e-11 3.514731035033544634e-10 7.736705994979052581e-10 7.055367187108199844e-10 5.021789848825326436e-10 5.568783199162325632e-10 4.528601280260309055e-10 4.628804301362464807e-10 4.375809039362219525e-10 -9.780773466230428774e-12 7.821851083774518281e-10 8.065393991659347667e-10 4.721800604762696851e-10 5.149988217246795349e-10 4.756359653164629030e-10 4.850828399843573730e-10 5.403542030446316964e-10 5.057122143362625702e-10 4.638642589478548939e-10 4.482456051127714385e-10 4.369915166663836590e-10 4.324870242490628531e-10
4.711737414501091337e-08 -9.160904685661875763e-10 8.466792081713849616e-09 1.326852752024626780e-09 3.316550541112375649e-10 1.477953594452049338e-09 1.335166102129288059e-09 5.731067634014194530e-10 3.859759466254873741e-11 3.907627395868322359e-10 1.999588037234258885e-10 2.504405844858084384e-10 2.246506072858536535e-10 1.583696995940146781e-09 9.405684706346439832e-10 1.478142051734238601e-09 1.477291327340390220e-10 2.678060804397340113e-10 5.920153780495427377e-10 7.055367187108198810e-10 8.367852343219261719e-10 5.348366953320236255e-10 6.135754995138991213e-10 4.964101515781308359e-10 4.894111681023973297e-10 4.566580770647294141e-10 3.538348376114069066e-10 7.543339895837401852e-10 8.399236956679947185e-10 5.328262403251973831e-10 5.692524299471323466e-10 4.974725464979459251e-10 5.060838396542751250e-10 5.677401285257294421e-10 5.453787100147931687e-10 5.149727296631633617e-10 4.870158022554747666e-10 4.717662256791334308e-10 4.434630642577910422e-10
2.245057970614817246e-09 -1.364061429603563831e-08 8.375665594976969855e-09 -1.991780653235445541e-10 -5.297621289803734557e-10 -4.868138037402814652e-10 5.157247158402480678e-10 -3.677921089826821207e-10 -8.630322729573471342e-10 -4.434114109387984483e-10 -7.058273255120574800e-10 -2.461619796643619397e-10 -2.696865018702341656e-10 1.383956506321274295e-09 1.654331760853112308e-09 1.397220313197719563e-09 6.827117273285241722e-11 1.191602395527863673e-10 4.404349405769616630e-10 5.021789848825326436e-10 5.348366953320236255e-10 5.212944240235927275e-10 5.626986940453470380e-10 4.582497828475889526e-10 4.166167506731925173e-10 3.478975664727703349e-10 3.248612358266957542e-10 3.875030233598246520e-10 6.718097564968022648e-10 4.531944242341816901e-10 4.218979482858103821e-10 3.932763593946204534e-10 3.966393572166733410e-10 4.400183729220788696e-10 4.380961324367310276e-10 4.215637947851279866e-10 4.278710464789786116e-10 3.921140980577785439e-10 3.459572612484846446e-10
-4.548878682262668633e-09 -1.047310850953569382e-08 1.032758340903019454e-08 -3.447275964124995038e-10 -1.215931738802447463e-09 -3.785648214261747157e-10 8.136996950749378883e-10 -4.818829629303572655e-10 -8.439646415659827047e-10 -4.357892292839979255e-10 -6.736394024599444385e-10 -2.476685175269481969e-10 -3.112477239482530696e-10 1.305376802398296147e-09 2.104232147825066868e-09 1.279810929904526147e-09 2.161866539031020979e-10 1.944859961294962437e-10 5.380567949261103267e-10 5.568783199162325632e-10 6.135754995138991213e-10 5.626986940453470380e-10 6.502261021390198239e-10 5.147833879404438968e-10 4.609014192555545077e-10 3.782789920659427845e-10 6.267314685338729247e-10 4.840824496283307963e-10 7.124983072670763089e-10 5.062009003514730199e-10 4.824235927398291304e-10 4.567133362022765551e-10 4.563567969185055399e-10 5.028735214460349676e-10 4.922937102507651242e-10 4.811635924420391945e-10 4.753550484195564351e-10 4.188893289666900128e-10 3.713970369870915303e-10
-8.482123838885596028e-09 -7.745311069334302843e-09 9.866377850129396835e-09 6.313858089109063741e-10 5.046038760703340650e-10 -1.101030196755154100e-10 7.700468395326850667e-10 -5.617274021209712045e-10 -9.566737635524286410e-10 -7.606241210891950925e-10 -9.209559594201609559e-10 -4.972110554512795787e-10 -4.083855109803711314e-10 2.594828537947221270e-10 1.165024894599358756e-09 1.039958755314496479e-09 5.215327882762658665e-11 1.495274900621819954e-10 4.247733593921020709e-10 4.528601280260309055e-10 4.964101515781308359e-10 4.582497828475889526e-10 5.147833879404438968e-10 4.324629884069122878e-10 3.930937944489999849e-10 3.336430825053646572e-10 4.291138042273526889e-10 4.016913048350100978e-10 5.697196235167336996e-10 4.423862049123071293e-10 3.809905732603086033e-10 3.703312083713679334e-10 3.723623403589949650e-10 4.157213348226054713e-10 4.079196838613601062e-10 3.960848235204311670e-10 4.040953598093880047e-10 3.645297720438687269e-10 3.285505600142993476e-10
3.967910329787425566e-09 -4.962131585021835123e-09 7.980836012642551849e-09 9.677980324220404826e-10 1.111122850172413457e-09 -1.787664842510814012e-10 5.415937800370548724e-10 -5.950282863926445601e-10 -8.988690029998621127e-10 -8.954619466122172073e-10 -9.528206134344161134e-10 -5.575645433744489246e-10 -3.791477335176272230e-10 6.653253945969282023e-10 8.166504515096837236e-10 1.215754152714397051e-09 1.520551510603515258e-11 1.208742526945496886e-10 3.594761730747081773e-10 4.628804301362464807e-10 4.894111681023972263e-10 4.166167506731924139e-10 4.609014192555544560e-10 3.930937944489999849e-10 3.846019168979192273e-10 3.482928888992798525e-10 4.169788960170182330e-10 4.402300248768268061e-10 6.059306000534196138e-10 4.484744868492537413e-10 3.747121420438853952e-10 3.737265533129658839e-10 3.702462443019958522e-10 4.073261946064776491e-10 3.976018672952675746e-10 3.759205344585365516e-10 3.767742053934644323e-10 3.608956621052908434e-10 3.398414887158863229e-10
3.304792746916096315e-09 -5.113988712072731684e-09 8.308719698305360181e-09 2.001387700391554157e-09 9.149099214747095413e-10 6.265443189607456343e-11 3.756466915229544651e-10 -4.996752644131845029e-10 -7.962700166737550394e-10 -1.006388969011355633e-09 -9.520133068786343349e-10 -6.488706610165920454e-10 -4.364571427833490638e-10 4.673369327765572866e-10 4.175988830823216794e-10 1.215311044967265585e-09 -6.325322842064691009e-11 7.474033612668077725e-11 3.085792498619391636e-10 4.375809039362219525e-10 4.566580770647294141e-10 3.478975664727702832e-10 3.782789920659428362e-10 3.336430825053646055e-10 3.482928888992798525e-10 3.513229883181941262e-10 2.326617329883739633e-10 4.387694887800088181e-10 5.948251046993289601e-10 4.269275183859882405e-10 3.614682861833360518e-10 3.397966112948895206e-10 3.315298429176015255e-10 3.770481175515256960e-10 3.602120187386824242e-10 3.350282304434322473e-10 3.329649149399881823e-10 3.432294113148144102e-10 3.434896429965980665e-10
-1.347040902710198351e-09 5.652291814799665675e-08 -3.571635769726851168e-09 -9.036441834556493340e-09 -4.595819443053566125e-09 -4.790998639635038236e-09 5.788803193593422559e-10 -3.737641365124890738e-09 -3.132307341463928585e-09 -2.833625981263912275e-09 -3.009181906158092822e-09 -2.355058283722176398e-09 -1.102452836077903985e-09 -2.453513972204841488e-09 2.786795847469849156e-09 -1.117590810909137569e-10 1.642539973380539581e-09 1.011716122509171718e-09 6.752193808396540824e-10 -9.780773466230367382e-12 3.538348376114068032e-10 3.248612358266957542e-10 6.267314685338730281e-10 4.291138042273526889e-10 4.169788960170182330e-10 2.326617329883739892e-10 4.659117719027955777e-09 2.495460484969257288e-10 4.769165871842102469e-10 6.621508208784746680e-10 2.458526887565565363e-10 5.890427949496433189e-10 4.775452757043629170e-10 3.660645234839568362e-10 3.904132597528787003e-10 4.212602030806056443e-10 3.208912105669175162e-10 1.979591399699353211e-10 1.357132193701220614e-10
4.490718889461052329e-08 7.426719413760345519e-09 8.261630136912586766e-09 3.822990424004415734e-09 4.683140727982223762e-09 2.074131301341789682e-09 1.362250627729062316e-09 2.693806220752559761e-10 5.966133649337893286e-10 6.222931286840347329e-11 3.614196247158797068e-10 3.251944076948687904e-10 2.986293461950495028e-10 2.274126831435287431e-09 1.825375850177894939e-10 1.357956011014176311e-09 -2.394281747356417815e-11 1.130963867146908446e-10 3.408724880256548740e-10 7.821851083774518281e-10 7.543339895837400818e-10 3.875030233598246520e-10 4.840824496283307963e-10 4.016913048350100978e-10 4.402300248768268061e-10 4.387694887800088181e-10 2.495460484969256771e-10 9.742616928857473510e-10 7.085583329938663727e-10 4.711781659848270870e-10 5.008701679554003777e-10 4.839642558441057448e-10 4.970745984112345481e-10 5.433681226427094566e-10 4.947651295793626910e-10 4.479012603788540999e-10 4.118584749124782862e-10 4.060093469393531272e-10 4.246034408016646058e-10
2.016085307639891800e-08 -2.750182491388512900e-08 4.540144432145307482e-09 -1.843405895332759004e-09 -4.045342413959986349e-09 -2.382323922121873562e-09 -1.683211538654047334e-09 -1.305154222004724500e-09 -1.352354007812409888e-09 -1.240776604782832212e-09 -1.705388772724858196e-09 -1.261519219999673928e-09 -9.991108145719395001e-10 8.294099418528844010e-09 2.488088861041304716e-09 2.091728295462558290e-09 1.854887519444461889e-10 2.305423005382966460e-10 3.964082938154083795e-10 8.065393991659347667e-10 8.399236956679947185e-10 6.718097564968023682e-10 7.124983072670763089e-10 5.697196235167335962e-10 6.059306000534196138e-10 5.948251046993290635e-10 4.769165871842101435e-10 7.085583329938663727e-10 1.418934769599168469e-09 7.684343075866616558e-10 7.407476551812928110e-10 6.522563787691085992e-10 6.397531339222583096e-10 6.858930583616823355e-10 6.559458626154888051e-10 6.090313131442508811e-10 5.825292711536150423e-10 6.191836418253834103e-10 5.917595836998981494e-10
-3.480638818436915057e-09 -5.654510526437760580e-09 7.725466293580518713e-09 2.117237165074386964e-10 1.228097326644688903e-09 -7.091746584479744782e-10 6.964481330032939991e-11 -1.422870385523513953e-09 -1.733733376363052211e-09 -2.100306638192023976e-09 -2.040578802053567304e-09 -1.479253909190664858e-09 -1.046397885104331891e-09 2.202691502290042943e-09 6.047781016707067983e-10 1.058449671780242582e-09 4.015238157875094814e-11 7.829740345057213993e-11 3.835243630293318268e-10 4.721800604762696851e-10 5.328262403251973831e-10 4.531944242341816384e-10 5.062009003514730199e-10 4.423862049123071293e-10 4.484744868492537413e-10 4.269275183859881888e-10 6.621508208784746680e-10 4.711781659848270870e-10 7.684343075866616558e-10 5.990128502661523529e-10 4.601285853755516262e-10 4.464172960550529906e-10 4.429612847312259869e-10 4.778915050428303522e-10 4.681534698656593868e-10 4.393647962027666525e-10 4.390356109120395747e-10 4.425470669250979485e-10 4.223831761558509774e-10
9.988658672564243550e-09 -1.194931942141100360e-08 6.460388733661568530e-09 -5.217846950161436537e-11 -1.382603188781935919e-09 5.646796592020809851e-11 9.952339918317419652e-11 -3.274122733502660345e-10 -5.394325893362283239e-10 -5.782004419067481175e-10 -6.212245012993526135e-10 -4.208942908808385408e-10 -4.615618951068260548e-10 3.713823730039706916e-09 1.310869456916303264e-09 9.819467943150282757e-10 1.193481410712975790e-10 5.008319999428550886e-11 3.868999069936660270e-10 5.149988217246795349e-10 5.692524299471323466e-10 4.218979482858103821e-10 4.824235927398291304e-10 3.809905732603086033e-10 3.747121420438853952e-10 3.614682861833360518e-10 2.458526887565565363e-10 5.008701679554003777e-10 7.407476551812927076e-10 4.601285853755516262e-10 4.825322570693985832e-10 3.927428831247516796e-10 4.005338939187868882e-10 4.470860833319577626e-10 4.260792658574953080e-10 4.019855010716191911e-10 3.833284553244574619e-10 3.829859574925880188e-10 3.651403536491996584e-10
9.340703038726937306e-09 -3.487217930155280786e-09 5.778794639386528165e-09 1.319636061682549762e-10 1.802529909158597042e-10 -5.174895460308755739e-10 2.178766743277258381e-10 -6.982533036144265468e-10 -7.306070283286152193e-10 -7.849636243542341206e-10 -8.281671403032466081e-10 -5.145298485084287821e-10 -3.633795063457181229e-10 2.021310667947067389e-09 1.150171458873348635e-09 1.146051567142183371e-09 1.383063176396781792e-10 1.464120048421237935e-10 3.268610080487347511e-10 4.756359653164629030e-10 4.974725464979459251e-10 3.932763593946204534e-10 4.567133362022765551e-10 3.703312083713679334e-10 3.737265533129658839e-10 3.397966112948896240e-10 5.890427949496433189e-10 4.839642558441057448e-10 6.522563787691085992e-10 4.464172960550529906e-10 3.927428831247516796e-10 3.945387765714828838e-10 3.865994414344599392e-10 4.120663254165981643e-10 3.963669029642920341e-10 3.733530186856024267e-10 3.577394535624410032e-10 3.443359163107954000e-10 3.286811296891270845e-10
1.411807704774495345e-08 -4.284850023413733681e-09 4.824155404724635420e-09 -1.583986488408927454e-10 1.150693682579595557e-09 -1.933859113558851419e-10 2.665230827700619136e-10 -6.560905945629049629e-10 -6.991287889423951284e-10 -8.181732701799267414e-10 -8.217464560249344827e-10 -4.993873066999389371e-10 -3.870324598923484970e-10 2.903634784292159161e-09 9.401139810545472515e-10 9.754904627389859741e-10 9.742798671897618005e-11 7.869835813820014664e-11 3.125924332893497481e-10 4.850828399843573730e-10 5.060838396542751250e-10 3.966393572166733410e-10 4.563567969185055399e-10 3.723623403589949650e-10 3.702462443019958522e-10 3.315298429176015255e-10 4.775452757043628136e-10 4.970745984112345481e-10 6.397531339222583096e-10 4.429612847312259869e-10 4.005338939187868365e-10 3.865994414344599392e-10 3.930487637607503506e-10 4.162691896049660546e-10 4.030981017478491241e-10 3.766782004417894424e-10 3.647428147387481885e-10 3.503958667690123715e-10 3.280397773712526752e-10
6.564384475073809130e-09 -6.915140674153680057e-09 8.263518981305998684e-09 9.225877529692653341e-10 7.150454048926215446e-10 1.429690041664510653e-10 5.165985982183695135e-10 -4.932402624865016797e-10 -6.751998111644144828e-10 -7.622265296760713298e-10 -7.744784030076005874e-10 -4.649827621665532926e-10 -3.949398970362803167e-10 2.052147462429829037e-09 1.027088326406276421e-09 1.136628588835818311e-09 5.238397385970612680e-11 9.524905078387505948e-11 3.860306145587995002e-10 5.403542030446316964e-10 5.677401285257295455e-10 4.400183729220788696e-10 5.028735214460349676e-10 4.157213348226054713e-10 4.073261946064777008e-10 3.770481175515256960e-10 3.660645234839567845e-10 5.433681226427094566e-10 6.858930583616823355e-10 4.778915050428304556e-10 4.470860833319577626e-10 4.120663254165981643e-10 4.162691896049660546e-10 4.597970056077376104e-10 4.402849548296741039e-10 4.154059679115028048e-10 4.066862392652686284e-10 3.914679275794646199e-10 3.732807067317519482e-10
1.327390822547893217e-08 -5.579134387313773829e-09 6.912543549265157239e-09 4.357201672244310784e-10 1.090973264528587467e-09 1.203564616971288509e-10 5.742458026726630166e-10 -4.672699424459844677e-10 -7.618211155614872689e-10 -7.979381348058530610e-10 -8.028219896403080569e-10 -4.486227955607426761e-10 -3.582809400898050110e-10 1.968184673392780586e-09 8.942816736318561437e-10 1.137089416453853709e-09 5.340210625516148140e-11 6.866743861237725383e-11 3.885344051169554075e-10 5.057122143362625702e-10 5.453787100147932721e-10 4.380961324367310276e-10 4.922937102507651242e-10 4.079196838613601062e-10 3.976018672952676263e-10 3.602120187386824242e-10 3.904132597528787003e-10 4.947651295793626910e-10 6.559458626154888051e-10 4.681534698656593868e-10 4.260792658574953080e-10 3.963669029642920341e-10 4.030981017478491758e-10 4.402849548296741039e-10 4.297186639966656297e-10 4.037356839210638178e-10 3.971271746823333644e-10 3.824611577724961214e-10 3.572923908959345835e-10
4.290674004118775114e-09 -6.025051170909531854e-09 7.656129417475574235e-09 3.509109708060177240e-10 2.703072012316882244e-10 3.237504602487802438e-11 5.783649640616356085e-10 -4.612055832291258687e-10 -7.520942195769432488e-10 -6.870396537610409697e-10 -7.658089223232592893e-10 -4.455557718338392926e-10 -3.708110404719741772e-10 1.435918940964580248e-09 1.044968772897155285e-09 9.902712298326161080e-10 8.952382870358242380e-11 1.178958071448834673e-10 3.960021104038919424e-10 4.638642589478548939e-10 5.149727296631634651e-10 4.215637947851278832e-10 4.811635924420391945e-10 3.960848235204311670e-10 3.759205344585365516e-10 3.350282304434322990e-10 4.212602030806057477e-10 4.479012603788540999e-10 6.090313131442508811e-10 4.393647962027666525e-10 4.019855010716191911e-10 3.733530186856024784e-10 3.766782004417894941e-10 4.154059679115028048e-10 4.037356839210638695e-10 3.857052724046708334e-10 3.804172296040074768e-10 3.576139470754811651e-10 3.307849574251433885e-10
-4.327392181433753889e-09 -8.323041672768231088e-09 8.685952528868929853e-09 6.527307541939336191e-10 8.675565050839952209e-10 1.625223329011814174e-12 5.692723354989903969e-10 -5.834694773170112613e-10 -9.339209312073654610e-10 -8.855116018042736169e-10 -9.867140176312629714e-10 -5.944283608846880886e-10 -4.837423874512356995e-10 1.086939521345029698e-09 8.923315859784883739e-10 9.479882935315266333e-10 8.956974206718277280e-12 9.806846300529367325e-11 3.775664459709008700e-10 4.482456051127714385e-10 4.870158022554747666e-10 4.278710464789786116e-10 4.753550484195564351e-10 4.040953598093879530e-10 3.767742053934644323e-10 3.329649149399881823e-10 3.208912105669175679e-10 4.118584749124782862e-10 5.825292711536150423e-10 4.390356109120395747e-10 3.833284553244574102e-10 3.577394535624410032e-10 3.647428147387481885e-10 4.066862392652686284e-10 3.971271746823333644e-10 3.804172296040074251e-10 3.873378428035396470e-10 3.621835893495557806e-10 3.320166182312537015e-10
4.685734896630129485e-09 -8.680538593046238620e-09 7.064883663737965368e-09 8.278035946627704208e-10 1.058593640576016364e-09 -1.599964977794048678e-11 2.805624481344610807e-10 -5.781249778913373484e-10 -9.594303307643848722e-10 -1.064847639684245237e-09 -1.089866576229343445e-09 -7.160917049746125873e-10 -5.399222365816347424e-10 1.678843890804018650e-09 5.301516149411028093e-10 1.041402048679713423e-09 -5.321858626531280747e-11 3.864559713657436430e-11 3.246783322028745274e-10 4.369915166663836590e-10 4.717662256791334308e-10 3.921140980577785956e-10 4.188893289666900128e-10 3.645297720438687269e-10 3.608956621052908434e-10 3.432294113148144102e-10 1.979591399699353211e-10 4.060093469393532306e-10 6.191836418253834103e-10 4.425470669250979485e-10 3.829859574925880705e-10 3.443359163107954000e-10 3.503958667690123715e-10 3.914679275794645682e-10 3.824611577724961214e-10 3.576139470754812168e-10 3.621835893495557806e-10 3.635678958869155099e-10 3.440593254784579038e-10
1.709483972022901289e-09 -7.498480138451281882e-09 7.872374648682022124e-09 1.777449543836654260e-09 1.128388572579643088e-09 1.034665562359644963e-10 2.693748491186331291e-10 -5.422999024999705408e-10 -8.306303828916844469e-10 -1.100565898445363454e-09 -1.020724568127122944e-09 -6.997361601435165199e-10 -5.191762161606982361e-10 1.175216682807172960e-09 3.755855306104883308e-10 1.105738372893739509e-09 -9.425746227909911516e-11 1.698792646616813149e-11 2.868970751427604757e-10 4.324870242490628531e-10 4.434630642577910939e-10 3.459572612484845929e-10 3.713970369870915303e-10 3.285505600142992959e-10 3.398414887158862712e-10 3.434896429965980665e-10 1.357132193701220614e-10 4.246034408016645541e-10 5.917595836998981494e-10 4.223831761558509774e-10 3.651403536491996584e-10 3.286811296891269811e-10 3.280397773712527269e-10 3.732807067317517931e-10 3.572923908959345835e-10 3.307849574251433368e-10 3.320166182312537015e-10 3.440593254784578521e-10 3.418242130753853484e-10
