2.637574465057839954e-05 4.393072876693968793e-06 -2.744458433395170972e-06 -3.748678288976233435e-07 8.097163377035676162e-07 4.023436329842153672e-07 1.393027082980345375e-07 3.579100373215009193e-07 2.600091062048180159e-07 3.004666994611186813e-07 3.402858254879426278e-07 2.997900874367942554e-07 2.793033342699896247e-07 4.663545941568723338e-07 -2.731151651945316881e-07 1.652456840000180670e-07 2.217517475603550381e-08 -2.949429966376271673e-08 2.429970044610217988e-08 1.847931311010100863e-08 4.615736823008171592e-08 -1.636622962303923446e-09 -2.582835867600591565e-09 -7.942092777556851957e-09 3.986039678290435058e-09 3.170617081423052344e-09 -3.162145531374793230e-09 3.496583470909292729e-08 1.732840637626845150e-08 5.589588826471431853e-09 1.481881266729022800e-08 9.553585017149804065e-09 1.242074043782046527e-08 8.225577063222626365e-09 1.354067941005808677e-08 5.122261552751124268e-09 -4.634402992773139469e-09 4.979591860847952131e-09 7.989601246972510047e-10
4.393072876693968793e-06 3.143099301413857684e-06 -3.188072076752231272e-07 6.975048742752870222e-08 4.012080882401174591e-07 1.577730231846117805e-07 1.351992676041601538e-07 6.106698215058119059e-08 3.844507577486254912e-08 2.915140775247612965e-08 5.893599090632179521e-08 4.131294602365360358e-08 6.353604009618532278e-08 -3.685992129313077546e-07 -1.571963452730465045e-07 -3.395597390976643521e-08 7.373437156394606215e-09 8.984605953435348921e-09 6.290443826925692206e-09 -1.108182835890836490e-08 -2.272746028251307853e-09 -1.559355071036150713e-08 -1.188762472341758053e-08 -8.597631296092408936e-09 -6.040752295234044796e-09 -5.546762435781862462e-09 5.220525207085876375e-08 8.286908201079254518e-09 -3.102237378280552382e-08 -2.835535071678991016e-09 -1.401053884106811361e-08 -4.342215714908652752e-09 -5.216648206250448042e-09 -7.280409145252061273e-09 -6.323127549692976929e-09 -7.117103864444020387e-09 -9.509532169377424878e-09 -9.338182669208828017e-09 -8.215980519059813937e-09
-2.744458433395170972e-06 -3.188072076752231801e-07 8.135490663575116719e-07 1.959382834872413148e-07 -2.597126073321734677e-08 3.267828369732572769e-08 6.003339376116228413e-08 -2.347104531657546706e-09 -1.832400396989403083e-08 -1.818145247535044073e-08 -1.810596288138924674e-08 -1.351193794960274459e-08 -1.420659825293051851e-08 -2.433017163566252156e-07 2.621370385185405064e-08 2.605725014652981106e-08 -1.176109347516003447e-08 1.067178843380860533e-08 1.398571849994672782e-08 1.129325798506874818e-08 9.847630777645020106e-09 9.735007772717462499e-09 1.143634127364934457e-08 1.053834015495453380e-08 8.727310256425603315e-09 9.079342866600417099e-09 8.410953331129597163e-10 1.252759665870061594e-08 5.795301708471447985e-09 7.505334227745206770e-09 6.904561467892223984e-09 6.200222100031058736e-09 5.734940328432161940e-09 8.932989981416212718e-09 7.717115430937181193e-09 8.470003949540305469e-09 9.406006840305560368e-09 7.723311109907309926e-09 8.670191762341246839e-09
-3.748678288976232376e-07 6.975048742752870222e-08 1.959382834872413148e-07 1.080429241599105815e-07 6.149521578644136665e-08 3.297816378361100617e-08 2.475918945285205777e-08 1.341319445306517137e-08 1.054371662817334878e-08 3.055881328468055227e-09 9.591984337507235076e-09 7.751505529619337672e-09 6.849600972844131479e-09 -9.839175671000972457e-08 -1.666791019935962846e-08 1.223412585445419734e-08 -8.341751430802819344e-09 8.940847008847260447e-10 1.039276749290542648e-09 2.254302716832689948e-09 2.129712595824606230e-10 -2.303898417375323779e-10 -7.108848150146560629e-10 3.146150757019726892e-10 4.733170444614244032e-10 1.373820017429870845e-09 -8.791912920260471183e-09 3.704016835479645083e-09 -3.161805978129980530e-09 -8.758101483864430199e-10 -7.038499059764542411e-10 -5.798966469301814767e-10 -5.410859015205978233e-10 4.034375044075925862e-10 -1.188437212383082491e-10 -8.959310904686642736e-11 2.380536491713032639e-10 2.821176870768165088e-10 1.192562011418984216e-09
8.097163377035676162e-07 4.012080882401173532e-07 -2.597126073321734677e-08 6.149521578644135342e-08 2.378443822607161901e-07 5.151835951449236871e-08 2.771896641357385928e-08 1.845194421845603270e-09 -5.086731434418780046e-09 -2.273926872547502605e-08 -8.675201389404216314e-09 -3.694334668734805251e-09 3.239877204557297115e-09 -2.649037078834116063e-08 -5.994514076004870205e-08 1.086394701535346642e-10 -1.005915720794383043e-08 -5.492802709957621646e-09 -1.606044262080218125e-09 1.291254286549215633e-09 7.861557817261958864e-10 -8.210194394084713684e-10 -1.286382920044415502e-09 6.987750878283225908e-10 1.190750511386071651e-09 1.157898574248144381e-09 -3.831526834384812509e-09 4.370234900630392715e-09 -4.301951631799882189e-09 9.205221073508779176e-10 -7.390499002571984896e-10 1.490204830440392708e-10 1.061971636378359953e-09 1.024532482919918882e-09 1.194199173029398959e-09 3.742069591409127006e-10 8.374766974468911881e-10 1.170918478055605860e-09 1.288456278975887213e-09
4.023436329842153672e-07 1.577730231846117805e-07 3.267828369732572769e-08 3.297816378361099955e-08 5.151835951449236209e-08 3.962984210810539307e-08 2.298466707933201073e-08 1.784026658174842709e-08 1.180672231940675924e-08 1.008502886784431645e-08 1.461449922005646105e-08 1.164782942187128375e-08 8.870204069398317477e-09 -3.304468173422461956e-08 -1.438572673924777898e-08 -1.089689780512725256e-09 -3.674500705496533997e-09 -1.973228219912325628e-09 2.216430245999992417e-09 1.019612434126379553e-09 1.358582086928124672e-09 -3.925155273324672189e-10 -3.347532297444880166e-10 -4.016240453926836593e-11 -1.207707258132455259e-10 1.114845449841385718e-10 -4.996589952710607168e-09 2.918257626450076854e-09 -2.787069978969223652e-09 -1.044363854501228504e-09 1.653142572093667453e-10 -5.447977245738209551e-10 -2.438182576788073777e-10 2.838538202285314586e-10 1.672778960066104301e-10 8.206142391074807161e-11 7.141729328362837064e-12 4.534452873658398404e-11 1.431315770231039819e-10
1.393027082980345640e-07 1.351992676041601538e-07 6.003339376116229737e-08 2.475918945285205777e-08 2.771896641357385928e-08 2.298466707933201404e-08 2.015511139492758945e-08 1.031444816897002779e-08 4.125090907108622833e-09 5.526363658265676982e-09 7.727961707143166965e-09 7.156725077211883893e-09 5.931574385021942633e-09 -4.720132522438320463e-08 -6.566965152511064559e-09 2.543714504734655562e-09 -2.099059750688647620e-09 4.265247387354719503e-10 2.551419152053853068e-09 7.740397684083142044e-10 1.155349270671271958e-09 4.170131886382119204e-10 7.463712968958986439e-10 7.108396147867720072e-10 4.637386981873709917e-10 3.704564755414607906e-10 3.552037052662113669e-10 1.897099476717662289e-09 -1.971244298681933224e-09 -2.287456049347084058e-11 8.602497867548202950e-11 1.181990005765405773e-10 1.449373562222541163e-10 4.968410107783461068e-10 5.207568206662997410e-10 5.231974675318609829e-10 4.916567192793846571e-10 2.601887789766986402e-10 2.771162328574186308e-10
3.579100373215009722e-07 6.106698215058119059e-08 -2.347104531657548774e-09 1.341319445306517137e-08 1.845194421845600996e-09 1.784026658174842709e-08 1.031444816897002779e-08 1.601641195018303926e-08 1.248179001302080199e-08 1.606577367939970085e-08 1.606702550824567125e-08 1.304618460275626087e-08 9.836299010948022160e-09 -2.108465826119897427e-08 -2.726375497353552739e-09 3.682392176907543436e-09 -1.116430884252393700e-09 -6.184585073711202430e-11 1.407962525691895166e-09 3.392945906385981142e-10 4.439769690217829254e-10 -2.924883222866197271e-10 -4.363755735572732266e-10 -4.909923546293717210e-10 -5.293305297483815368e-10 -4.186417123791964152e-10 -3.903717402427372092e-09 7.056585291497209769e-10 -1.522534328210687121e-09 -1.414735352033286856e-09 -3.016870291189829306e-10 -7.035266115766312121e-10 -6.656717566881781251e-10 -4.278108836027299804e-10 -4.276976561161694757e-10 -4.085413156579817829e-10 -5.235384260937761139e-10 -5.025898405355136568e-10 -4.777872876698429531e-10
2.600091062048180159e-07 3.844507577486254250e-08 -1.832400396989403414e-08 1.054371662817334878e-08 -5.086731434418780046e-09 1.180672231940675924e-08 4.125090907108622006e-09 1.248179001302080199e-08 1.454762907515067866e-08 1.637539611014472328e-08 1.622837892593662346e-08 1.248583294741801920e-08 8.885700431652797116e-09 -3.249449769543664507e-09 1.410624294063496550e-09 1.557114143867246431e-09 -5.435933158939915393e-10 -1.790706363019910148e-10 7.197089533239009980e-11 3.525868395781102858e-10 -4.653773624570677614e-11 -8.163586676047317886e-10 -8.529658828432776928e-10 -9.482087921216164899e-10 -8.802174294338337626e-10 -7.361205829632815242e-10 -3.682101136140794274e-09 1.113704512388349417e-09 -1.342591340777496202e-09 -1.744457906682798108e-09 -5.752357812791597401e-10 -7.590466962156754388e-10 -7.348375944437153061e-10 -6.366551929967276339e-10 -7.694460237747469272e-10 -7.265889296430086591e-10 -9.154095802606465097e-10 -9.180729604508235331e-10 -7.976626584093967957e-10
3.004666994611186813e-07 2.915140775247610979e-08 -1.818145247535044073e-08 3.055881328468056055e-09 -2.273926872547502605e-08 1.008502886784431645e-08 5.526363658265676155e-09 1.606577367939969754e-08 1.637539611014472328e-08 2.321214499694626050e-08 2.033158688406579687e-08 1.617694936582329289e-08 1.161981295652807788e-08 -1.137692412346533606e-08 5.838258931851174841e-09 2.654334513755991316e-09 2.463878836308643524e-10 9.691052540395918515e-10 1.050911823540631514e-09 2.872944438425369717e-10 1.415881372325595832e-10 -3.930733237613575651e-10 -3.622554288497061578e-10 -7.248484608188261911e-10 -8.899326006785836626e-10 -9.959106403826873392e-10 -2.998751557572406190e-09 6.136653956758944192e-10 -1.404363405189328684e-09 -2.077767632378116903e-09 -6.690781427736614113e-10 -8.022951141665845802e-10 -8.441168991987540030e-10 -7.676410198936285465e-10 -7.840933518840418407e-10 -6.587201848093024775e-10 -8.474001892808207499e-10 -1.047597595676196286e-09 -1.107519492767683795e-09
3.402858254879426807e-07 5.893599090632179521e-08 -1.810596288138925005e-08 9.591984337507236730e-09 -8.675201389404216314e-09 1.461449922005646105e-08 7.727961707143168620e-09 1.606702550824567125e-08 1.622837892593662346e-08 2.033158688406579687e-08 1.973121456603081109e-08 1.583402001288562880e-08 1.141593851858385294e-08 -1.264004256336288990e-08 2.226975189555923925e-09 3.069563819761555215e-09 -5.007077022935711560e-10 1.383762054102500650e-10 7.168294262418441006e-10 2.626290458444123744e-10 1.790988494409513166e-11 -6.953436865551254794e-10 -6.811591171323446885e-10 -9.049414859446338257e-10 -9.425685488632684837e-10 -9.099665755215142731e-10 -3.428916256315616443e-09 9.430313429893111779e-10 -1.853640317034161905e-09 -1.988007775574651220e-09 -6.980350222022355620e-10 -8.639664148385066549e-10 -8.760695462234294856e-10 -7.575437885809993495e-10 -8.116895634501357180e-10 -7.474883916302869959e-10 -9.649329312046945941e-10 -1.051280550865208672e-09 -9.984583976166471792e-10
2.997900874367943084e-07 4.131294602365359696e-08 -1.351193794960274790e-08 7.751505529619336018e-09 -3.694334668734806078e-09 1.164782942187128375e-08 7.156725077211883893e-09 1.304618460275625921e-08 1.248583294741801920e-08 1.617694936582329289e-08 1.583402001288562880e-08 1.344816336919374906e-08 9.675134364658712075e-09 -1.078182180588424654e-08 2.253093123960200765e-09 4.658454828081800405e-09 -7.186422023677352169e-10 6.554360098776093721e-11 6.744946862497233899e-10 4.008548777174488568e-10 1.355460921691543050e-10 -2.653386594317619324e-10 -2.372075925943014628e-10 -4.949039514544265373e-10 -5.630975704612559482e-10 -6.373792200744347416e-10 -2.616109020143775316e-09 7.957216487379166974e-10 -1.382216094951840599e-09 -1.439579450702597841e-09 -4.521215416359527557e-10 -5.372431568935083327e-10 -5.483843837688051592e-10 -4.594512212652997777e-10 -4.525660870623478506e-10 -4.308553876663443948e-10 -5.946456298591239884e-10 -7.045709606751481390e-10 -7.007312120243473586e-10
2.793033342699896247e-07 6.353604009618530954e-08 -1.420659825293051851e-08 6.849600972844130651e-09 3.239877204557297115e-09 8.870204069398317477e-09 5.931574385021942633e-09 9.836299010948022160e-09 8.885700431652797116e-09 1.161981295652807788e-08 1.141593851858385294e-08 9.675134364658712075e-09 7.657359481565026829e-09 -1.296822799809230208e-08 -1.100924606844529116e-09 3.768808874499104491e-09 -4.393005948075739939e-10 3.665865405189557103e-10 5.398917695405604264e-10 1.867780656920539786e-10 9.970716020188310850e-11 -2.873920703704794574e-10 -2.947820566399371526e-10 -3.996773152492966147e-10 -3.919931960180701918e-10 -4.348373068610741347e-10 -1.312717658671385509e-09 5.272040801551131950e-10 -1.139550777881564209e-09 -9.697783396158351793e-10 -4.879968847040509584e-10 -3.931969444939539950e-10 -4.160753195244586341e-10 -3.938575390944707777e-10 -3.596570149825782492e-10 -3.662857021922367709e-10 -4.832968329121826303e-10 -5.369883427961543710e-10 -5.255615518809379586e-10
4.663545941568724397e-07 -3.685992129313077546e-07 -2.433017163566252156e-07 -9.839175671000971134e-08 -2.649037078834115401e-08 -3.304468173422461956e-08 -4.720132522438319802e-08 -2.108465826119897096e-08 -3.249449769543664920e-09 -1.137692412346533606e-08 -1.264004256336288825e-08 -1.078182180588424654e-08 -1.296822799809230042e-08 2.215794346247405201e-07 2.149198210057595997e-08 -8.225193154170502764e-09 4.878349957203652701e-09 -7.184894494468256721e-09 -5.225151939972093669e-09 2.005145914791503697e-09 1.975197836888218353e-09 9.657201723377554959e-10 1.039389316861146260e-09 1.439448643233291488e-11 6.534340127815502814e-10 3.664780347246565903e-10 -2.771379785768927836e-09 1.260789723974222278e-09 9.140896328258986777e-09 1.971572091023773786e-09 3.844864125764007970e-09 2.108734267530608011e-09 2.678641542309830310e-09 1.952230559434618331e-09 1.806661517866902818e-09 1.341402433334417378e-09 9.013332170397556119e-10 1.562660704366378200e-09 1.008413344762084189e-09
-2.731151651945316881e-07 -1.571963452730464780e-07 2.621370385185404733e-08 -1.666791019935963177e-08 -5.994514076004870205e-08 -1.438572673924777898e-08 -6.566965152511064559e-09 -2.726375497353551912e-09 1.410624294063497170e-09 5.838258931851174841e-09 2.226975189555923925e-09 2.253093123960200765e-09 -1.100924606844529116e-09 2.149198210057595997e-08 2.326839659528068744e-08 3.423595375871792345e-09 2.107278197051237220e-09 1.239238116769531373e-09 7.081848229302334445e-10 1.224099920223450639e-09 9.858220623279599254e-10 1.356049405607396266e-09 1.883899714842946268e-09 8.863540767733351307e-10 6.014069542957340586e-10 2.835590044963135580e-10 1.929620178344613254e-09 7.334330613181007286e-10 2.501886142844610952e-09 5.535077744231303397e-10 1.187363654924112558e-09 9.976048454800390917e-10 8.000910575570990172e-10 8.546973780299625282e-10 7.602603203378434105e-10 9.256155189673914124e-10 7.441141947634466119e-10 4.097960515964254987e-10 2.904748387717481837e-10
1.652456840000180670e-07 -3.395597390976643521e-08 2.605725014652981768e-08 1.223412585445419734e-08 1.086394701535343152e-10 -1.089689780512725049e-09 2.543714504734655562e-09 3.682392176907543436e-09 1.557114143867246638e-09 2.654334513755990903e-09 3.069563819761555215e-09 4.658454828081800405e-09 3.768808874499104491e-09 -8.225193154170502764e-09 3.423595375871793172e-09 1.422828513896289516e-08 -9.212202898319376811e-10 8.602973785744591929e-10 9.236517993598704271e-10 1.743404788433884920e-09 1.439374841466634463e-09 1.450944627995430049e-09 1.431209024041864043e-09 1.047444250250827181e-09 1.196342176438284585e-09 1.154768419040294018e-09 -2.360833169333896229e-10 1.149043274219598523e-09 1.999019283877739257e-09 1.185626069338201369e-09 1.039275098065960161e-09 1.086625516516384580e-09 9.602563474567527899e-10 1.099753172318365272e-09 1.136722170526756398e-09 1.007504948017322943e-09 9.367061682762286681e-10 9.879745937309528922e-10 1.064152949663940713e-09
2.217517475603550712e-08 7.373437156394606215e-09 -1.176109347516003447e-08 -8.341751430802820998e-09 -1.005915720794383043e-08 -3.674500705496533997e-09 -2.099059750688647620e-09 -1.116430884252393700e-09 -5.435933158939915393e-10 2.463878836308643524e-10 -5.007077022935711560e-10 -7.186422023677354237e-10 -4.393005948075742007e-10 4.878349957203653529e-09 2.107278197051236806e-09 -9.212202898319378879e-10 1.130586944432957618e-09 3.898850822058257767e-10 6.985750643771688978e-11 -1.586808233548136486e-10 9.155636625867341466e-11 -2.005043204411174731e-11 8.002509797291315136e-11 -3.967191035063050846e-11 -1.127063405723255984e-11 -3.954795254040385589e-11 1.483819277425633038e-09 -1.679830177553427434e-10 4.077126550578282689e-10 1.925651111269035573e-10 6.535206415294755804e-11 1.310172604367292867e-10 7.497162081462561875e-11 -1.667174243904123862e-12 1.394184576907040020e-11 3.132604913398448330e-11 -3.662279147009986782e-11 -3.502476971260149830e-11 -7.063942030817050810e-11
-2.949429966376272003e-08 8.984605953435347267e-09 1.067178843380860533e-08 8.940847008847261481e-10 -5.492802709957621646e-09 -1.973228219912325628e-09 4.265247387354720020e-10 -6.184585073711201138e-11 -1.790706363019909114e-10 9.691052540395918515e-10 1.383762054102500133e-10 6.554360098776113108e-11 3.665865405189557620e-10 -7.184894494468256721e-09 1.239238116769531373e-09 8.602973785744593997e-10 3.898850822058256733e-10 8.609616312044695963e-10 3.622173041928066099e-10 1.125788802391873652e-10 1.812851992636755325e-10 1.821686217856781451e-10 2.553154375720352270e-10 1.848516473333721021e-10 1.581211462696629427e-10 1.164879339133436409e-10 1.084603485983892742e-09 8.418820618659509936e-11 1.979601637829730605e-10 1.742885442463927151e-10 -4.067501199366740403e-12 1.645892707189528722e-10 9.949443942420002907e-11 9.282642637835663454e-11 9.828313488382273089e-11 1.288324935294179976e-10 1.228261728017462218e-10 5.652748077874903600e-11 5.388697524184481135e-11
2.429970044610217988e-08 6.290443826925693860e-09 1.398571849994672451e-08 1.039276749290542648e-09 -1.606044262080218332e-09 2.216430245999992417e-09 2.551419152053853482e-09 1.407962525691895166e-09 7.197089533239030659e-11 1.050911823540631721e-09 7.168294262418441006e-10 6.744946862497234933e-10 5.398917695405604264e-10 -5.225151939972093669e-09 7.081848229302336513e-10 9.236517993598704271e-10 6.985750643771690271e-11 3.622173041928066099e-10 8.182761412272242451e-10 4.222278947345627354e-10 6.523774465178460949e-10 4.278840369072264702e-10 5.282503776546119339e-10 4.076104554205095811e-10 3.503245151060362186e-10 3.080253383272705507e-10 4.834358706385563884e-10 4.831176500971141658e-10 4.024608481099750555e-10 3.414888048530785351e-10 3.856549622134288984e-10 3.062786277379286680e-10 2.969793288297236935e-10 3.793592583560719346e-10 3.837323335232262709e-10 3.880349862724119524e-10 3.687023600280124158e-10 3.234440306989588125e-10 2.848634966906531480e-10
1.847931311010101194e-08 -1.108182835890836324e-08 1.129325798506874653e-08 2.254302716832689948e-09 1.291254286549215013e-09 1.019612434126379553e-09 7.740397684083142044e-10 3.392945906385982176e-10 3.525868395781101824e-10 2.872944438425368166e-10 2.626290458444124261e-10 4.008548777174488568e-10 1.867780656920539786e-10 2.005145914791503283e-09 1.224099920223450432e-09 1.743404788433884506e-09 -1.586808233548136486e-10 1.125788802391873652e-10 4.222278947345627354e-10 7.081648656272637999e-10 7.233723191165807738e-10 4.806639560752596387e-10 5.678066433562681205e-10 4.424149439642232863e-10 4.446838566098942364e-10 4.188728240520914392e-10 4.938394989466882475e-11 8.068675651715999990e-10 7.850265329571449205e-10 4.423195146742805621e-10 5.157693106651739764e-10 4.406587739726214946e-10 4.537606783920353584e-10 5.219206082844939159e-10 4.872519170770831898e-10 4.603631751563681854e-10 4.362522183299291493e-10 4.171876602206859478e-10 4.111780189258375671e-10
4.615736823008171592e-08 -2.272746028251307440e-09 9.847630777645020106e-09 2.129712595824609849e-10 7.861557817261958864e-10 1.358582086928125086e-09 1.155349270671272165e-09 4.439769690217829254e-10 -4.653773624570665336e-11 1.415881372325596607e-10 1.790988494409532553e-11 1.355460921691542533e-10 9.970716020188309558e-11 1.975197836888218353e-09 9.858220623279597186e-10 1.439374841466634463e-09 9.155636625867338881e-11 1.812851992636755325e-10 6.523774465178460949e-10 7.233723191165807738e-10 9.086323114867203008e-10 5.528352872912084183e-10 6.733853535397588079e-10 5.204506977949983027e-10 5.231052142359950490e-10 4.884997562747802047e-10 4.908239535644360148e-10 8.469643707295359392e-10 9.330556769700496895e-10 5.912931904628843520e-10 6.288080852290688239e-10 5.282501765782093905e-10 5.386224347603551657e-10 6.084442791070214705e-10 5.871114114091577258e-10 5.560562522853502971e-10 5.157545920309126351e-10 5.040065516380232046e-10 4.738783894567882015e-10
-1.636622962303922619e-09 -1.559355071036150382e-08 9.735007772717462499e-09 -2.303898417375323779e-10 -8.210194394084721955e-10 -3.925155273324673223e-10 4.170131886382120238e-10 -2.924883222866197271e-10 -8.163586676047317886e-10 -3.930733237613574617e-10 -6.953436865551252726e-10 -2.653386594317619841e-10 -2.873920703704794574e-10 9.657201723377550823e-10 1.356049405607396266e-09 1.450944627995430049e-09 -2.005043204411174085e-11 1.821686217856781968e-10 4.278840369072264702e-10 4.806639560752596387e-10 5.528352872912084183e-10 4.936471998996524277e-10 5.577169783579103118e-10 4.387356882985365341e-10 4.031163568827835798e-10 3.408149080126886403e-10 3.196193861589564272e-10 3.976805146378309470e-10 6.891596704727913173e-10 4.308801061054532875e-10 4.321726631410731312e-10 3.768796569302683616e-10 3.787156165485603986e-10 4.226757131485713395e-10 4.273669506700108196e-10 4.118371370229779834e-10 4.132507234399547545e-10 3.798590256369826510e-10 3.401998164362543531e-10
-2.582835867600584947e-09 -1.188762472341757888e-08 1.143634127364934457e-08 -7.108848150146563731e-10 -1.286382920044416123e-09 -3.347532297444878098e-10 7.463712968958986439e-10 -4.363755735572732783e-10 -8.529658828432776928e-10 -3.622554288497061061e-10 -6.811591171323446885e-10 -2.372075925943016179e-10 -2.947820566399371526e-10 1.039389316861146674e-09 1.883899714842946268e-09 1.431209024041864043e-09 8.002509797291316429e-11 2.553154375720352270e-10 5.282503776546119339e-10 5.678066433562681205e-10 6.733853535397588079e-10 5.577169783579103118e-10 6.792644475617806730e-10 5.164522033436506566e-10 4.709032711890382011e-10 3.861788559505320305e-10 6.917671646542594592e-10 5.619938195320472782e-10 7.703212451471810189e-10 5.212668624805550857e-10 5.019779347830516814e-10 4.680239904526847160e-10 4.634855062344680644e-10 5.085601243562368532e-10 5.093182096135490172e-10 4.948520574866167519e-10 4.799945042387538743e-10 4.248430275136681737e-10 3.787366065143618892e-10
-7.942092777556845339e-09 -8.597631296092408936e-09 1.053834015495453215e-08 3.146150757019723790e-10 6.987750878283226942e-10 -4.016240453926841763e-11 7.108396147867720072e-10 -4.909923546293718244e-10 -9.482087921216166967e-10 -7.248484608188261911e-10 -9.049414859446338257e-10 -4.949039514544266407e-10 -3.996773152492966147e-10 1.439448643233315237e-11 8.863540767733350273e-10 1.047444250250827181e-09 -3.967191035063050846e-11 1.848516473333721021e-10 4.076104554205096328e-10 4.424149439642232863e-10 5.204506977949983027e-10 4.387356882985366375e-10 5.164522033436507600e-10 4.201320275474658062e-10 3.858838410067053364e-10 3.277071501464321338e-10 4.618143229026778845e-10 4.318559903413532638e-10 5.834514825810859548e-10 4.265854223511873138e-10 3.871102409145209116e-10 3.612626395574071650e-10 3.650173046454237427e-10 4.056971728770091467e-10 4.060899023902754437e-10 3.915521565321181391e-10 3.942085287462769767e-10 3.564627561980153973e-10 3.237077984978830041e-10
3.986039678290436712e-09 -6.040752295234043142e-09 8.727310256425603315e-09 4.733170444614241964e-10 1.190750511386071237e-09 -1.207707258132455259e-10 4.637386981873709917e-10 -5.293305297483816402e-10 -8.802174294338337626e-10 -8.899326006785834558e-10 -9.425685488632684837e-10 -5.630975704612560516e-10 -3.919931960180701401e-10 6.534340127815505916e-10 6.014069542957340586e-10 1.196342176438284792e-09 -1.127063405723257114e-11 1.581211462696629686e-10 3.503245151060362703e-10 4.446838566098943398e-10 5.231052142359949456e-10 4.031163568827835798e-10 4.709032711890382011e-10 3.858838410067053364e-10 3.819122388378355151e-10 3.469795961084165204e-10 4.595923220725424948e-10 4.495177214477229693e-10 6.313151939374751772e-10 4.546154920241678247e-10 3.922859011850590977e-10 3.686615533248122243e-10 3.696511941841330560e-10 4.057686039145733683e-10 4.007912151584178083e-10 3.785513356592412371e-10 3.725476342139536645e-10 3.581198227570167884e-10 3.395121137960011484e-10
3.170617081423056479e-09 -5.546762435781863289e-09 9.079342866600417099e-09 1.373820017429870845e-09 1.157898574248144174e-09 1.114845449841387527e-10 3.704564755414608939e-10 -4.186417123791964152e-10 -7.361205829632815242e-10 -9.959106403826873392e-10 -9.099665755215142731e-10 -6.373792200744346382e-10 -4.348373068610740830e-10 3.664780347246565903e-10 2.835590044963135580e-10 1.154768419040294225e-09 -3.954795254040386235e-11 1.164879339133436409e-10 3.080253383272705507e-10 4.188728240520914909e-10 4.884997562747802047e-10 3.408149080126886403e-10 3.861788559505320305e-10 3.277071501464321338e-10 3.469795961084165721e-10 3.511939630474768563e-10 2.814418753458369144e-10 4.346941073753025967e-10 6.110695419050631855e-10 4.329543964363537670e-10 3.774188188389308715e-10 3.313670618940009265e-10 3.311654419195580790e-10 3.771718604820275748e-10 3.602925151573796305e-10 3.380997249697580866e-10 3.301870873587274531e-10 3.408622644810268919e-10 3.434634837537677094e-10
-3.162145531374794471e-09 5.220525207085875052e-08 8.410953331129608537e-10 -8.791912920260471183e-09 -3.831526834384812509e-09 -4.996589952710607168e-09 3.552037052662114186e-10 -3.903717402427372919e-09 -3.682101136140794274e-09 -2.998751557572405776e-09 -3.428916256315615616e-09 -2.616109020143775316e-09 -1.312717658671385096e-09 -2.771379785768927423e-09 1.929620178344613254e-09 -2.360833169333896745e-10 1.483819277425633038e-09 1.084603485983892742e-09 4.834358706385563884e-10 4.938394989466883121e-11 4.908239535644359114e-10 3.196193861589564272e-10 6.917671646542594592e-10 4.618143229026777811e-10 4.595923220725424948e-10 2.814418753458368627e-10 4.570820020104380502e-09 3.345103517039555870e-10 5.954608896142232941e-10 9.421853242730469898e-10 2.124411867162298090e-10 6.544902622183776359e-10 5.350817159590527089e-10 4.049648420671769467e-10 4.606365381298071046e-10 4.577106345588481392e-10 3.604395388198950412e-10 2.450894510834278889e-10 1.845126000354856537e-10
3.496583470909292729e-08 8.286908201079254518e-09 1.252759665870061760e-08 3.704016835479645083e-09 4.370234900630392715e-09 2.918257626450076854e-09 1.897099476717661875e-09 7.056585291497209769e-10 1.113704512388349417e-09 6.136653956758944192e-10 9.430313429893109711e-10 7.957216487379169042e-10 5.272040801551134018e-10 1.260789723974221865e-09 7.334330613181006252e-10 1.149043274219598523e-09 -1.679830177553427434e-10 8.418820618659513813e-11 4.831176500971141658e-10 8.068675651715999990e-10 8.469643707295359392e-10 3.976805146378309470e-10 5.619938195320472782e-10 4.318559903413533672e-10 4.495177214477229693e-10 4.346941073753025967e-10 3.345103517039555353e-10 1.196873858108448305e-09 6.615466740992671393e-10 4.532677931215712917e-10 5.239771901387503223e-10 4.830227588321168698e-10 5.029934007235745713e-10 5.802596227265595417e-10 5.173793253149895687e-10 4.867319964156691898e-10 4.298745868721479944e-10 3.990688976681014001e-10 4.138195910621621080e-10
1.732840637626844819e-08 -3.102237378280552382e-08 5.795301708471448812e-09 -3.161805978129980530e-09 -4.301951631799883016e-09 -2.787069978969224065e-09 -1.971244298681933224e-09 -1.522534328210687328e-09 -1.342591340777496202e-09 -1.404363405189328684e-09 -1.853640317034161905e-09 -1.382216094951840599e-09 -1.139550777881564415e-09 9.140896328258986777e-09 2.501886142844610952e-09 1.999019283877739257e-09 4.077126550578282689e-10 1.979601637829730863e-10 4.024608481099750555e-10 7.850265329571448171e-10 9.330556769700496895e-10 6.891596704727913173e-10 7.703212451471810189e-10 5.834514825810859548e-10 6.313151939374750738e-10 6.110695419050631855e-10 5.954608896142233975e-10 6.615466740992670359e-10 1.573137015245701229e-09 8.313925532827052899e-10 8.052658482127590049e-10 6.766519623889343973e-10 6.721580015341559243e-10 7.099844709244516975e-10 6.844496172811629078e-10 6.437744943579963891e-10 6.083838346090331295e-10 6.396742686488309935e-10 6.085148305990762630e-10
5.589588826471435161e-09 -2.835535071678991016e-09 7.505334227745206770e-09 -8.758101483864432267e-10 9.205221073508779176e-10 -1.044363854501228504e-09 -2.287456049347081150e-11 -1.414735352033286856e-09 -1.744457906682798108e-09 -2.077767632378116490e-09 -1.988007775574651220e-09 -1.439579450702597634e-09 -9.697783396158349725e-10 1.971572091023774200e-09 5.535077744231303397e-10 1.185626069338201369e-09 1.925651111269035573e-10 1.742885442463927151e-10 3.414888048530785868e-10 4.423195146742805621e-10 5.912931904628843520e-10 4.308801061054533909e-10 5.212668624805550857e-10 4.265854223511874172e-10 4.546154920241678247e-10 4.329543964363537670e-10 9.421853242730469898e-10 4.532677931215712917e-10 8.313925532827052899e-10 6.511506397297625006e-10 4.773951759319752331e-10 4.687569099636483380e-10 4.573040679580564204e-10 4.807003481782064717e-10 4.765862448083003012e-10 4.443375525365018710e-10 4.245093277328915826e-10 4.339637579094627341e-10 4.210693714275518792e-10
1.481881266729022800e-08 -1.401053884106811361e-08 6.904561467892223984e-09 -7.038499059764542411e-10 -7.390499002571980761e-10 1.653142572093669521e-10 8.602497867548206827e-11 -3.016870291189828789e-10 -5.752357812791596368e-10 -6.690781427736612045e-10 -6.980350222022354586e-10 -4.521215416359527557e-10 -4.879968847040508550e-10 3.844864125764007970e-09 1.187363654924112558e-09 1.039275098065960368e-09 6.535206415294755804e-11 -4.067501199366739595e-12 3.856549622134288467e-10 5.157693106651739764e-10 6.288080852290688239e-10 4.321726631410730278e-10 5.019779347830517848e-10 3.871102409145208599e-10 3.922859011850590977e-10 3.774188188389308198e-10 2.124411867162297573e-10 5.239771901387503223e-10 8.052658482127589015e-10 4.773951759319752331e-10 5.194356695406447499e-10 3.974373799284966332e-10 4.083592793614099209e-10 4.624670626197972603e-10 4.444886664490299034e-10 4.201984771116340467e-10 3.975981400388023587e-10 4.052698250974353968e-10 3.838813556430573009e-10
9.553585017149804065e-09 -4.342215714908652752e-09 6.200222100031058736e-09 -5.798966469301814767e-10 1.490204830440392966e-10 -5.447977245738210585e-10 1.181990005765406290e-10 -7.035266115766312121e-10 -7.590466962156755422e-10 -8.022951141665845802e-10 -8.639664148385066549e-10 -5.372431568935084361e-10 -3.931969444939538916e-10 2.108734267530608011e-09 9.976048454800390917e-10 1.086625516516384373e-09 1.310172604367292608e-10 1.645892707189528464e-10 3.062786277379286163e-10 4.406587739726214946e-10 5.282501765782093905e-10 3.768796569302684133e-10 4.680239904526847160e-10 3.612626395574071650e-10 3.686615533248122760e-10 3.313670618940009265e-10 6.544902622183775325e-10 4.830227588321168698e-10 6.766519623889343973e-10 4.687569099636483380e-10 3.974373799284966332e-10 3.891769064835337049e-10 3.835709155214861345e-10 4.057692434851417337e-10 3.969523478372148313e-10 3.744083939055880796e-10 3.513942503396798819e-10 3.377174399755378589e-10 3.204755705317875687e-10
1.242074043782047189e-08 -5.216648206250450524e-09 5.734940328432161940e-09 -5.410859015205979267e-10 1.061971636378360159e-09 -2.438182576788074294e-10 1.449373562222541939e-10 -6.656717566881780217e-10 -7.348375944437153061e-10 -8.441168991987540030e-10 -8.760695462234294856e-10 -5.483843837688052626e-10 -4.160753195244586341e-10 2.678641542309829897e-09 8.000910575570988104e-10 9.602563474567527899e-10 7.497162081462560582e-11 9.949443942420005492e-11 2.969793288297236418e-10 4.537606783920353584e-10 5.386224347603551657e-10 3.787156165485603986e-10 4.634855062344680644e-10 3.650173046454237427e-10 3.696511941841330560e-10 3.311654419195580790e-10 5.350817159590527089e-10 5.029934007235745713e-10 6.721580015341558209e-10 4.573040679580563170e-10 4.083592793614099726e-10 3.835709155214861345e-10 3.881041265402007420e-10 4.129304835557315140e-10 4.035556659702065757e-10 3.780164920080937245e-10 3.593438742920255917e-10 3.472381813578123652e-10 3.259260884006382051e-10
8.225577063222631329e-09 -7.280409145252061273e-09 8.932989981416212718e-09 4.034375044075922760e-10 1.024532482919918675e-09 2.838538202285314069e-10 4.968410107783460034e-10 -4.278108836027300838e-10 -6.366551929967276339e-10 -7.676410198936286499e-10 -7.575437885809994529e-10 -4.594512212652998811e-10 -3.938575390944708294e-10 1.952230559434619158e-09 8.546973780299625282e-10 1.099753172318365272e-09 -1.667174243904110937e-12 9.282642637835663454e-11 3.793592583560719863e-10 5.219206082844940193e-10 6.084442791070214705e-10 4.226757131485713395e-10 5.085601243562368532e-10 4.056971728770092501e-10 4.057686039145734200e-10 3.771718604820276265e-10 4.049648420671769467e-10 5.802596227265595417e-10 7.099844709244516975e-10 4.807003481782065751e-10 4.624670626197972603e-10 4.057692434851417337e-10 4.129304835557315657e-10 4.599124202195276270e-10 4.428773344413803685e-10 4.186096879837947985e-10 4.012230122102033364e-10 3.899153157461273033e-10 3.734497689716145761e-10
1.354067941005809174e-08 -6.323127549692976929e-09 7.717115430937181193e-09 -1.188437212383082749e-10 1.194199173029398959e-09 1.672778960066104042e-10 5.207568206662997410e-10 -4.276976561161693723e-10 -7.694460237747469272e-10 -7.840933518840417373e-10 -8.116895634501356146e-10 -4.525660870623479540e-10 -3.596570149825781459e-10 1.806661517866903232e-09 7.602603203378433071e-10 1.136722170526756398e-09 1.394184576907038889e-11 9.828313488382273089e-11 3.837323335232262709e-10 4.872519170770831898e-10 5.871114114091577258e-10 4.273669506700108196e-10 5.093182096135490172e-10 4.060899023902754954e-10 4.007912151584178083e-10 3.602925151573795789e-10 4.606365381298071046e-10 5.173793253149895687e-10 6.844496172811629078e-10 4.765862448083003012e-10 4.444886664490299034e-10 3.969523478372148313e-10 4.035556659702065757e-10 4.428773344413802651e-10 4.366330340656721458e-10 4.110036990868127332e-10 3.965151922732495071e-10 3.824074469009645157e-10 3.569256991138875264e-10
5.122261552751126750e-09 -7.117103864444020387e-09 8.470003949540305469e-09 -8.959310904686650491e-11 3.742069591409125972e-10 8.206142391074803283e-11 5.231974675318609829e-10 -4.085413156579818863e-10 -7.265889296430087625e-10 -6.587201848093024775e-10 -7.474883916302870993e-10 -4.308553876663444981e-10 -3.662857021922367192e-10 1.341402433334417378e-09 9.256155189673914124e-10 1.007504948017322943e-09 3.132604913398447684e-11 1.288324935294179976e-10 3.880349862724119524e-10 4.603631751563681854e-10 5.560562522853502971e-10 4.118371370229779834e-10 4.948520574866167519e-10 3.915521565321181908e-10 3.785513356592412371e-10 3.380997249697580866e-10 4.577106345588481392e-10 4.867319964156691898e-10 6.437744943579963891e-10 4.443375525365018710e-10 4.201984771116341501e-10 3.744083939055880796e-10 3.780164920080937245e-10 4.186096879837947985e-10 4.110036990868127332e-10 3.919945045153665286e-10 3.792104060916450107e-10 3.590023978190869170e-10 3.339939989520298218e-10
-4.634402992773135333e-09 -9.509532169377424878e-09 9.406006840305560368e-09 2.380536491713035224e-10 8.374766974468909813e-10 7.141729328362851604e-12 4.916567192793846571e-10 -5.235384260937760105e-10 -9.154095802606463029e-10 -8.474001892808206465e-10 -9.649329312046945941e-10 -5.946456298591239884e-10 -4.832968329121825269e-10 9.013332170397558187e-10 7.441141947634466119e-10 9.367061682762286681e-10 -3.662279147009987428e-11 1.228261728017461959e-10 3.687023600280123641e-10 4.362522183299291493e-10 5.157545920309126351e-10 4.132507234399548062e-10 4.799945042387538743e-10 3.942085287462769767e-10 3.725476342139536645e-10 3.301870873587274014e-10 3.604395388198949895e-10 4.298745868721479944e-10 6.083838346090331295e-10 4.245093277328915826e-10 3.975981400388023587e-10 3.513942503396798819e-10 3.593438742920255400e-10 4.012230122102033364e-10 3.965151922732495071e-10 3.792104060916450107e-10 3.800842131806464907e-10 3.571527558143818760e-10 3.297736737964942116e-10
4.979591860847954612e-09 -9.338182669208826363e-09 7.723311109907311580e-09 2.821176870768164054e-10 1.170918478055605860e-09 4.534452873658395172e-11 2.601887789766986402e-10 -5.025898405355137602e-10 -9.180729604508235331e-10 -1.047597595676196286e-09 -1.051280550865208672e-09 -7.045709606751482424e-10 -5.369883427961542676e-10 1.562660704366377993e-09 4.097960515964254987e-10 9.879745937309528922e-10 -3.502476971260147891e-11 5.652748077874903600e-11 3.234440306989588125e-10 4.171876602206859478e-10 5.040065516380233080e-10 3.798590256369825993e-10 4.248430275136681737e-10 3.564627561980153973e-10 3.581198227570167884e-10 3.408622644810268919e-10 2.450894510834278889e-10 3.990688976681014001e-10 6.396742686488309935e-10 4.339637579094628375e-10 4.052698250974353968e-10 3.377174399755378589e-10 3.472381813578123652e-10 3.899153157461272516e-10 3.824074469009645674e-10 3.590023978190869170e-10 3.571527558143819277e-10 3.600659590886994339e-10 3.425446341773324921e-10
7.989601246972529693e-10 -8.215980519059812283e-09 8.670191762341245185e-09 1.192562011418984216e-09 1.288456278975887213e-09 1.431315770231040077e-10 2.771162328574187859e-10 -4.777872876698429531e-10 -7.976626584093970025e-10 -1.107519492767683795e-09 -9.984583976166471792e-10 -7.007312120243473586e-10 -5.255615518809378552e-10 1.008413344762084189e-09 2.904748387717482354e-10 1.064152949663940506e-09 -7.063942030817049517e-11 5.388697524184481135e-11 2.848634966906531480e-10 4.111780189258375154e-10 4.738783894567882015e-10 3.401998164362543014e-10 3.787366065143618892e-10 3.237077984978830041e-10 3.395121137960011484e-10 3.434634837537676577e-10 1.845126000354856795e-10 4.138195910621620046e-10 6.085148305990760562e-10 4.210693714275519826e-10 3.838813556430573526e-10 3.204755705317876721e-10 3.259260884006383085e-10 3.734497689716146278e-10 3.569256991138875781e-10 3.339939989520298218e-10 3.297736737964942116e-10 3.425446341773324921e-10 3.423101268863778578e-10
