1.004274026775794242e-04 -9.284735697825376451e-06 9.437936036596158464e-07 -2.514799702418843840e-06 -3.245911148406031928e-06 1.139096113498890135e-06 -2.452848596937165763e-07 2.132494556565709340e-07 4.223785971533120573e-07 2.710970352476916807e-07 3.556661552443426775e-07 4.304368099203965887e-07 4.859418805442023230e-07 -6.955988221575469868e-07 -8.373645030631898272e-07 -7.338276046995945191e-07 5.406392622920351215e-08 -4.320746301171450708e-07 -2.825201584309625769e-08 -1.548542228075335008e-07 -2.382751962655272042e-07 -1.747668044200594637e-07 -1.976713324681399000e-07 -1.499793510297063705e-07 -1.273183810096904354e-07 -1.597659452073098200e-07 -3.682537548010335964e-07 -4.683098309777802463e-08 -1.257647201535513817e-07 -2.948684144212099070e-07 -1.963559905042801171e-07 -1.849987793899413516e-07 -1.915882229216477017e-07 -1.480224923826160699e-07 -1.395359130431500437e-07 -1.202535966649775118e-07 -1.020902174930874612e-07 -1.010932700402661901e-07 -1.326091538343361275e-07
-9.284735697825376451e-06 7.381119229556642654e-06 1.084934441819202916e-06 1.453703604567085115e-07 8.067856575429661273e-07 -1.738079960426284972e-07 8.448737853398382607e-08 -4.503799707579286387e-08 -2.719470204994924566e-08 -5.859734502869473597e-08 -6.037203478860556463e-08 -5.194490903428601472e-08 -4.353738934142073305e-08 7.076851428366193780e-08 2.834445404454317639e-07 3.208443395082608194e-07 -5.226608341745618743e-08 1.673765332936815203e-07 8.671012122170826906e-08 8.791031581007954893e-08 6.503631111248750141e-08 8.291266003682534651e-08 8.359423178623062422e-08 8.377029915948607444e-08 8.883955707726466578e-08 8.208298414783421149e-08 6.104136049909392081e-08 1.242168208848698184e-07 8.126081064712711129e-08 1.037304684304793691e-07 7.137489017488881190e-08 7.601959540972644808e-08 7.661850101111318722e-08 8.157642336406729537e-08 8.091542570102331372e-08 7.767312791611230324e-08 8.077404700673170597e-08 8.064593101753617024e-08 7.971375721844104910e-08
9.437936036596159522e-07 1.084934441819202704e-06 1.717567367932937306e-06 -5.480182064911687539e-08 2.706824048431322790e-07 7.219625737276810854e-09 3.932411431466608132e-08 5.877110893657044297e-09 -4.251897780780641576e-08 -4.715984064772733426e-08 -2.946034371127269080e-08 -1.726971661499179242e-08 -8.464482056256088927e-09 1.795792209976418111e-07 4.567001048242211059e-08 1.747099549248876490e-08 -3.593344316043428094e-08 4.345723626632185505e-08 5.646847077981483859e-08 4.321553907961798348e-08 3.454446843275091131e-08 3.712839659020742963e-08 3.902466845245355475e-08 3.511298321887366697e-08 4.080703916699992259e-08 3.967198806189776870e-08 1.178366404030858431e-07 6.066773834499986806e-08 5.045236374605096370e-08 4.227059561696547297e-08 3.107733877048457753e-08 3.530637142918573904e-08 3.743675755042723312e-08 3.759073174055574999e-08 3.819264920072963678e-08 3.469619319070737740e-08 3.576680609918235313e-08 3.570613969172141308e-08 3.578071911074344434e-08
-2.514799702418843840e-06 1.453703604567084586e-07 -5.480182064911689524e-08 3.687780983240413809e-07 1.863264620793068002e-07 -3.260457744662732484e-08 3.072085674013426061e-08 -1.836378860008479955e-08 -1.577073091168180657e-08 1.196401593194453006e-09 -1.609330204317128177e-10 1.011358692787936595e-08 1.851604715687123332e-08 -3.685009219503259715e-08 2.751744223040811505e-08 -2.312296793772455057e-08 1.771713668367016562e-08 1.117834473965221285e-08 -4.160314015148756311e-09 -3.179310065969140972e-09 -6.178644334370435786e-09 -2.224380083672007840e-09 -1.841419137289899816e-09 -4.154806744138669570e-09 -2.498034592050155858e-09 -1.802794378646787739e-09 -2.081899041682770537e-08 -3.463762163491811998e-09 -1.334468268981938973e-09 4.170415971153316623e-09 3.732871448879598544e-09 -1.119783905150063961e-09 -2.746714397446167619e-09 -3.553989724090234050e-09 -3.565553942995353897e-09 -4.238584052858067532e-09 -4.572406820855553561e-09 -3.507311730824599822e-09 -2.211634233468785380e-09
-3.245911148406031505e-06 8.067856575429660214e-07 2.706824048431323319e-07 1.863264620793067737e-07 2.366017450916589884e-07 -4.990593941407766860e-08 3.947249849413708884e-08 -8.951019115655200105e-09 -2.102635304165954452e-08 -1.645593075430920618e-08 -1.621858958867769344e-08 -1.358307076184342327e-08 -9.500371701793051358e-09 3.145698337520221021e-08 2.442134780812466307e-08 2.026195365019976974e-08 4.202855009944532994e-09 2.291402558828847328e-08 1.233534974867536696e-08 1.330798799373168845e-08 1.101043408833642255e-08 1.357517095213676951e-08 1.387119886375771456e-08 1.143006891189406567e-08 1.233879196707089476e-08 1.289907441855169820e-08 2.351942760834399684e-08 1.964416229066879474e-08 1.549658596525729935e-08 1.960886641277396245e-08 1.430761356264120560e-08 1.260585718294591109e-08 1.210767626450616233e-08 1.196647720398587499e-08 1.160264043569374928e-08 1.030225869507209296e-08 1.033508558847774668e-08 1.038041204063211418e-08 1.133479386161212841e-08
1.139096113498890135e-06 -1.738079960426284707e-07 7.219625737276807545e-09 -3.260457744662731822e-08 -4.990593941407767522e-08 7.959640874626383754e-08 -1.588539687854191790e-09 9.268862369741449596e-09 1.416744848416421970e-09 4.763762090096647062e-09 8.916231992713129149e-09 4.762732295790988297e-09 9.371024798310402172e-09 -1.972894672404745601e-08 -4.385685751673809182e-08 -1.706715422422634940e-09 1.027478979679009439e-08 -8.597169183266869247e-09 -6.374474667074329311e-09 -4.925955771226819062e-09 -6.076236935344174750e-09 -5.783513277444500511e-09 -6.328570016787649759e-09 -6.173698979835717688e-09 -5.342277894038706230e-09 -6.235708520070538438e-09 3.118555176296158669e-09 -6.713358567543721195e-09 -9.424609186203837900e-09 -7.432571452657789371e-09 -5.776907993821752274e-09 -4.609638550448436292e-09 -5.283020478954148702e-09 -5.713091128003258829e-09 -5.349642081217481966e-09 -5.459111858965789516e-09 -5.424597513862470586e-09 -4.932171835660611609e-09 -5.625085677503171295e-09
-2.452848596937166292e-07 8.448737853398382607e-08 3.932411431466608794e-08 3.072085674013426061e-08 3.947249849413708222e-08 -1.588539687854192411e-09 1.665617123738008876e-08 4.812204479821268283e-09 -1.055332118144027819e-09 2.826019537406746538e-10 -5.347944052334044796e-11 -1.038417514117867724e-09 -6.024485330347915761e-11 1.272648876757991775e-08 -1.749389953534996755e-08 -2.028173626118503652e-09 5.102981726203339159e-09 -1.963421066778094124e-09 8.857579489213303400e-10 8.770529702753085396e-10 -7.111788857398687160e-10 5.224587203626271488e-10 -1.345746652722680545e-10 -1.029011583430774091e-10 -8.326132201528132417e-12 1.508844145986147139e-10 5.808879458956653702e-10 2.784888434010046418e-09 1.320766886989222610e-09 3.185597645038473716e-10 3.317503454277400613e-10 2.276601168417045951e-12 -4.781270613536397297e-10 -1.070000637255938794e-11 -1.361341503801142591e-10 -3.469974899587521500e-10 -7.185691076449402010e-11 -8.850176547706376095e-11 -1.837230696210963251e-11
2.132494556565709869e-07 -4.503799707579286387e-08 5.877110893657042643e-09 -1.836378860008480286e-08 -8.951019115655203413e-09 9.268862369741449596e-09 4.812204479821268283e-09 7.227485414794823407e-09 3.253669771497292038e-09 4.631756160022723060e-09 4.997129871832258544e-09 2.222602704180723627e-09 1.580472642276482519e-09 9.322770380607172172e-09 -1.449560485023264637e-08 -1.858077543924808287e-09 6.097220623020154325e-10 -2.960918622315637326e-09 -1.050984130963191871e-09 -4.246127434781462033e-10 -8.389540964927321244e-10 -8.589900105086492728e-10 -1.038343775563253664e-09 -7.542659108523687802e-10 -7.721947672615184402e-10 -5.849077972087028264e-10 1.576237994176745072e-10 -5.849833411109201787e-10 -4.097830960777826715e-10 -1.678882687163636233e-09 -1.346481006413250398e-09 -8.005269722475744955e-10 -8.576779648423696833e-10 -7.516393620999638806e-10 -6.743071616065051927e-10 -7.142306461918085500e-10 -5.371317994636305930e-10 -5.086366535216300343e-10 -5.583341406460312747e-10
4.223785971533120573e-07 -2.719470204994923905e-08 -4.251897780780641576e-08 -1.577073091168180657e-08 -2.102635304165954783e-08 1.416744848416420109e-09 -1.055332118144027612e-09 3.253669771497291625e-09 7.287983565114507391e-09 6.593239286571877558e-09 4.904634945805326763e-09 3.276421478966497092e-09 3.186209481996380206e-09 -3.819587187385338057e-09 -1.880737939480408758e-09 -1.523851718408626589e-09 8.197043766298460952e-10 -1.685176777405708992e-09 -2.367343681102294339e-09 -1.120929556023405595e-09 -1.457473628993691123e-09 -1.187726300821204906e-09 -1.159889946231986960e-09 -6.256722496374834075e-10 -7.274728833708799854e-10 -8.010639982226152587e-10 -7.238846077446279613e-09 -3.485070577552376849e-10 -6.385191349624471963e-10 -1.902036295696756065e-09 -1.356648194717317217e-09 -1.060230031346404258e-09 -1.009480663679427119e-09 -7.190371772313826298e-10 -6.182105627188080405e-10 -4.704628858725694357e-10 -3.547674934904929003e-10 -3.851442255835093117e-10 -5.238245701087892902e-10
2.710970352476916278e-07 -5.859734502869474921e-08 -4.715984064772733426e-08 1.196401593194455487e-09 -1.645593075430920287e-08 4.763762090096646234e-09 2.826019537406752224e-10 4.631756160022722233e-09 6.593239286571877558e-09 8.705595972450161338e-09 7.954360296196345936e-09 5.953891031254888658e-09 5.629390845243011681e-09 -3.271786125744181243e-09 -2.862483816964246616e-09 -3.734909119472212124e-09 4.282798243152484011e-10 -1.310123069174618140e-09 -3.084766206771246642e-09 -1.659444176611958600e-09 -1.973952726275638063e-09 -1.849961366000126367e-09 -1.670120767100741192e-09 -1.304073207118038283e-09 -1.246506344274666231e-09 -1.100752470147682955e-09 -7.459050370275693505e-09 -2.118083184889315181e-09 -1.252325359078869006e-09 -2.228001685176009268e-09 -1.697087877855721665e-09 -1.405369608130611931e-09 -1.392976195222657157e-09 -1.364894326595951688e-09 -1.179248369670812530e-09 -1.094905456321595372e-09 -9.909350576364987067e-10 -8.587876021870565946e-10 -8.735448977937065181e-10
3.556661552443426246e-07 -6.037203478860556463e-08 -2.946034371127269080e-08 -1.609330204317124300e-10 -1.621858958867769675e-08 8.916231992713129149e-09 -5.347944052334028640e-11 4.997129871832258544e-09 4.904634945805326763e-09 7.954360296196345936e-09 9.839920002949590482e-09 7.878779458425979968e-09 7.095007300944510242e-09 -7.478606407328979642e-09 -5.965740309861770730e-09 -5.786114410530386129e-09 -8.664627129948389437e-10 -1.014720925580857468e-09 -1.888056667091274431e-09 -1.362904224513732179e-09 -1.461895433161485541e-09 -1.360197265194748337e-09 -1.020886751506364940e-09 -9.507524004016191309e-10 -7.034892874377481426e-10 -4.521613658985066894e-10 -2.988198699001989302e-09 -1.838461269249979570e-09 -7.949296184831666786e-10 -1.439474243704864892e-09 -1.172285083520397240e-09 -8.953390710714871916e-10 -8.659242983777818448e-10 -9.483985155841616226e-10 -7.161167548661482429e-10 -6.291812673995011781e-10 -5.119204501591892184e-10 -3.055350165559732453e-10 -3.456621935976072749e-10
4.304368099203965887e-07 -5.194490903428601472e-08 -1.726971661499179242e-08 1.011358692787936429e-08 -1.358307076184342327e-08 4.762732295790988297e-09 -1.038417514117867724e-09 2.222602704180723627e-09 3.276421478966497092e-09 5.953891031254888658e-09 7.878779458425979968e-09 8.138476818720139113e-09 7.585298872988907530e-09 -8.328703612691640075e-09 3.071112127353703903e-12 -7.010861990298360632e-09 -1.851675121031523935e-09 -4.797243050140510287e-10 -6.969613500970567786e-10 -1.340951980553436084e-09 -1.801952040143714107e-09 -1.436189804436432585e-09 -1.181386578679857438e-09 -1.075565821567502742e-09 -7.075449114542745819e-10 -5.717128188084594933e-10 -4.558079804958812093e-09 -1.954381551870385754e-09 -7.091801158782829219e-10 -1.437841771453250349e-09 -1.072581278835314960e-09 -1.096734077047534287e-09 -1.099646658217886140e-09 -1.103300660110202738e-09 -9.081156931287552400e-10 -7.915652522878836805e-10 -6.638256704898941165e-10 -4.325611199134814870e-10 -4.537891452393017567e-10
4.859418805442023230e-07 -4.353738934142072643e-08 -8.464482056256085618e-09 1.851604715687123001e-08 -9.500371701793051358e-09 9.371024798310402172e-09 -6.024485330347924808e-11 1.580472642276482519e-09 3.186209481996380206e-09 5.629390845243011681e-09 7.095007300944509415e-09 7.585298872988907530e-09 8.296295074536260694e-09 -1.130825581046311996e-08 -1.658893688236186592e-09 -7.133393921490961209e-09 4.740778436720675052e-10 -6.208872996411384249e-10 -1.233566146216818666e-09 -1.531788344426697569e-09 -2.332822984576998214e-09 -1.648509944304025526e-09 -1.471446322887512018e-09 -1.392412261804845323e-09 -9.105026981796166379e-10 -9.575779046893938765e-10 -5.156584726041539349e-09 -1.543290521838713720e-09 -1.151770432315890128e-09 -1.616375491350581136e-09 -1.139607421841898002e-09 -1.254756380827351344e-09 -1.371107099219765961e-09 -1.334095446166699635e-09 -1.132771744656755848e-09 -1.062144267140268716e-09 -9.481288986128888091e-10 -6.979575353099423184e-10 -7.782270844591100625e-10
-6.955988221575469868e-07 7.076851428366189809e-08 1.795792209976417582e-07 -3.685009219503260377e-08 3.145698337520221021e-08 -1.972894672404745601e-08 1.272648876757991444e-08 9.322770380607172172e-09 -3.819587187385338884e-09 -3.271786125744180002e-09 -7.478606407328979642e-09 -8.328703612691640075e-09 -1.130825581046311996e-08 7.792353258548893270e-08 4.889520077363111814e-09 1.071872202851548224e-08 -9.249771694171953538e-09 1.849940945492172769e-09 6.035538544786842645e-09 5.384376520552001796e-09 3.978943873530311301e-09 2.801324696733430104e-09 2.119284784239867609e-09 2.901188822001089389e-09 2.569411127451950349e-09 3.074688775069162929e-09 6.413323273229484571e-09 2.679119664693107933e-09 5.412508919966761922e-09 1.453702823736755335e-09 7.613007179004283000e-10 2.202048551056697397e-09 2.588967515005150645e-09 2.673014049706997432e-09 2.506550378340001364e-09 1.949652020397399162e-09 2.269630289284148384e-09 2.052166508350902457e-09 2.558801390747464062e-09
-8.373645030631898272e-07 2.834445404454317110e-07 4.567001048242210397e-08 2.751744223040811505e-08 2.442134780812466637e-08 -4.385685751673809182e-08 -1.749389953534996755e-08 -1.449560485023264637e-08 -1.880737939480409172e-09 -2.862483816964246202e-09 -5.965740309861770730e-09 3.071112127354369525e-12 -1.658893688236186592e-09 4.889520077363109332e-09 7.354147151700908297e-08 1.595596662273189601e-08 -1.579795240450388756e-08 1.824353290063414919e-08 5.501326598654530161e-09 5.291555576560936667e-09 6.010233368316258307e-09 5.060654680071189703e-09 6.549391542906452626e-09 6.367543854901355842e-09 6.623856784223277782e-09 6.525140676726893671e-09 -4.299213900873606628e-09 3.266581573811959147e-09 6.472141693388124166e-09 7.819616306015235897e-09 5.528712920301483561e-09 5.592652730275066173e-09 6.635709323210586054e-09 6.021904570070645306e-09 6.168991968166673391e-09 6.102986352005494338e-09 5.799380483217439299e-09 5.882126014602926387e-09 6.358421087441184755e-09
-7.338276046995943073e-07 3.208443395082607665e-07 1.747099549248876821e-08 -2.312296793772455719e-08 2.026195365019976974e-08 -1.706715422422634526e-09 -2.028173626118503652e-09 -1.858077543924807873e-09 -1.523851718408625969e-09 -3.734909119472210470e-09 -5.786114410530386956e-09 -7.010861990298360632e-09 -7.133393921490961209e-09 1.071872202851548224e-08 1.595596662273189601e-08 2.419531446389146383e-08 -3.385799412445280815e-09 7.870406508859778553e-09 2.132151200888472105e-09 3.681870775379152361e-09 3.498987657146081768e-09 3.121175790339035517e-09 3.112061683790662011e-09 3.357979088310413597e-09 3.201013243013072643e-09 2.777703840034111871e-09 3.036470552202694010e-09 2.981175769784798845e-09 1.631934718440099393e-09 3.669771079646693880e-09 2.208025565357794769e-09 3.097873948399848669e-09 3.291275675630319173e-09 3.143060544782378654e-09 3.090971148949146113e-09 2.915920580305183837e-09 2.883870523489560396e-09 2.821529161125410922e-09 2.791801110494475747e-09
5.406392622920351215e-08 -5.226608341745618081e-08 -3.593344316043428094e-08 1.771713668367016562e-08 4.202855009944532166e-09 1.027478979679009439e-08 5.102981726203339159e-09 6.097220623020155359e-10 8.197043766298461986e-10 4.282798243152483494e-10 -8.664627129948385301e-10 -1.851675121031523522e-09 4.740778436720678154e-10 -9.249771694171953538e-09 -1.579795240450388756e-08 -3.385799412445280815e-09 8.340428497404862950e-09 -4.127595238051608314e-09 -3.243958199941275842e-09 -1.989146305415651105e-09 -2.342250130502071141e-09 -1.685974811613584574e-09 -2.112981327593899730e-09 -2.124943438212824097e-09 -2.207525239124860716e-09 -2.409494180687469940e-09 -2.825119084175993506e-09 -5.824152409297300533e-10 -2.505955604152541534e-09 -2.046066855313884745e-09 -1.308031686662154755e-09 -1.725222379856871923e-09 -2.154559676347477168e-09 -1.962483001215985025e-09 -2.037824026050384487e-09 -2.047546762042873553e-09 -2.075306777251908794e-09 -2.112724997011336953e-09 -2.241729789658893016e-09
-4.320746301171450708e-07 1.673765332936814938e-07 4.345723626632185505e-08 1.117834473965221451e-08 2.291402558828847328e-08 -8.597169183266869247e-09 -1.963421066778094124e-09 -2.960918622315637326e-09 -1.685176777405708992e-09 -1.310123069174618140e-09 -1.014720925580857468e-09 -4.797243050140509253e-10 -6.208872996411384249e-10 1.849940945492172769e-09 1.824353290063414919e-08 7.870406508859778553e-09 -4.127595238051609141e-09 7.314433236404563824e-09 2.511564824539462487e-09 2.914924032288126396e-09 3.052109836133518586e-09 2.909608523946705628e-09 3.463338662726801284e-09 3.124304186656031288e-09 3.353625166195564256e-09 3.351608535828159537e-09 3.755977676656246962e-09 3.061118891580954829e-09 3.166977827208788012e-09 4.212129134371538761e-09 2.908347163556337681e-09 3.101664801021052825e-09 3.383997380467415166e-09 3.121880385882236861e-09 3.200375380617437554e-09 3.049219642746139122e-09 2.981062435412610751e-09 3.040906835015267336e-09 3.165645128021880429e-09
-2.825201584309625769e-08 8.671012122170826906e-08 5.646847077981483859e-08 -4.160314015148756311e-09 1.233534974867536861e-08 -6.374474667074330138e-09 8.857579489213303400e-10 -1.050984130963192284e-09 -2.367343681102294339e-09 -3.084766206771246642e-09 -1.888056667091274431e-09 -6.969613500970568820e-10 -1.233566146216818873e-09 6.035538544786842645e-09 5.501326598654530161e-09 2.132151200888472105e-09 -3.243958199941276255e-09 2.511564824539462487e-09 3.425620823226948965e-09 2.111653975110700204e-09 1.852278849507975377e-09 1.995717366008041956e-09 2.048217757407749689e-09 1.924396242247282938e-09 2.073905775542237389e-09 2.072993061857022416e-09 4.583573454824222784e-09 2.725566702794846742e-09 2.555410443706405933e-09 2.302711080178669829e-09 1.673857808050741455e-09 1.707935298971035862e-09 1.824205008218539116e-09 1.914517014071679354e-09 1.884090253243319276e-09 1.822091729778211697e-09 1.894141110494391395e-09 1.861509317466833186e-09 1.881684307629603969e-09
-1.548542228075335008e-07 8.791031581007956217e-08 4.321553907961799009e-08 -3.179310065969142626e-09 1.330798799373168845e-08 -4.925955771226819890e-09 8.770529702753085396e-10 -4.246127434781464101e-10 -1.120929556023405595e-09 -1.659444176611959013e-09 -1.362904224513732386e-09 -1.340951980553436084e-09 -1.531788344426697776e-09 5.384376520552000968e-09 5.291555576560937494e-09 3.681870775379152361e-09 -1.989146305415651519e-09 2.914924032288126810e-09 2.111653975110700204e-09 2.018403626026299423e-09 1.981274143271820228e-09 1.971983871122354349e-09 2.129779277110020942e-09 1.979095868036474569e-09 2.052645277000147209e-09 2.064079486698299665e-09 4.056479483755934542e-09 2.720752869679443838e-09 2.350809479840698488e-09 2.392865993806433254e-09 1.698676217757339326e-09 1.861849343301549443e-09 2.001359199297778623e-09 1.998574946071271748e-09 1.997393546964701854e-09 1.897299889441055221e-09 1.914847233097129366e-09 1.872405703270735446e-09 1.904975032270299927e-09
-2.382751962655272042e-07 6.503631111248750141e-08 3.454446843275091131e-08 -6.178644334370435786e-09 1.101043408833642255e-08 -6.076236935344174750e-09 -7.111788857398684058e-10 -8.389540964927322278e-10 -1.457473628993691123e-09 -1.973952726275637649e-09 -1.461895433161485954e-09 -1.801952040143714521e-09 -2.332822984576998627e-09 3.978943873530312128e-09 6.010233368316259134e-09 3.498987657146081768e-09 -2.342250130502071141e-09 3.052109836133518586e-09 1.852278849507975377e-09 1.981274143271820228e-09 2.472593534472700658e-09 2.144436423887212314e-09 2.443102902032520557e-09 2.153386095900239501e-09 2.138887087961992724e-09 2.243547526686788989e-09 5.493903967872104267e-09 2.497865125560552049e-09 2.409088650753003589e-09 2.724455080014947073e-09 1.923692573582417981e-09 2.094337450424056252e-09 2.311445376781555640e-09 2.185042169908011398e-09 2.183904600851458048e-09 2.094733976063346352e-09 2.041581965376902635e-09 1.975221977297746377e-09 2.038021351112482625e-09
-1.747668044200594637e-07 8.291266003682534651e-08 3.712839659020743625e-08 -2.224380083672007012e-09 1.357517095213676951e-08 -5.783513277444500511e-09 5.224587203626273556e-10 -8.589900105086492728e-10 -1.187726300821204906e-09 -1.849961366000126574e-09 -1.360197265194748337e-09 -1.436189804436432791e-09 -1.648509944304025732e-09 2.801324696733430104e-09 5.060654680071189703e-09 3.121175790339035930e-09 -1.685974811613584574e-09 2.909608523946705628e-09 1.995717366008041956e-09 1.971983871122353936e-09 2.144436423887212314e-09 2.110128481975994983e-09 2.326663250364173409e-09 2.086447826790432949e-09 2.130613805525831933e-09 2.171724180015917883e-09 4.627111376035204319e-09 2.908688354829413464e-09 2.447649514422453326e-09 2.647540919405040525e-09 1.904771941941642487e-09 1.991719697045481801e-09 2.139881645607914103e-09 2.122407173491192209e-09 2.114900363682427098e-09 2.031225419361629662e-09 2.021664785897426797e-09 1.962430167665046920e-09 1.993232429052530805e-09
-1.976713324681398736e-07 8.359423178623062422e-08 3.902466845245356137e-08 -1.841419137289897955e-09 1.387119886375771456e-08 -6.328570016787650586e-09 -1.345746652722680287e-10 -1.038343775563253871e-09 -1.159889946231987167e-09 -1.670120767100741606e-09 -1.020886751506364940e-09 -1.181386578679857438e-09 -1.471446322887512018e-09 2.119284784239867196e-09 6.549391542906452626e-09 3.112061683790661597e-09 -2.112981327593899730e-09 3.463338662726801284e-09 2.048217757407749689e-09 2.129779277110020942e-09 2.443102902032520557e-09 2.326663250364173409e-09 2.650129981010309034e-09 2.341742102836183602e-09 2.403560675579928189e-09 2.475898872577262178e-09 5.192826029617309896e-09 3.064288199648826073e-09 2.719174387481059407e-09 3.009492203717699151e-09 2.157037048723522712e-09 2.266346680061132610e-09 2.462868388075247349e-09 2.389543503848885742e-09 2.402228410815402011e-09 2.311637362437011312e-09 2.281204918832315387e-09 2.229455363444245531e-09 2.274657053058187198e-09
-1.499793510297063440e-07 8.377029915948606121e-08 3.511298321887366697e-08 -4.154806744138670397e-09 1.143006891189406567e-08 -6.173698979835717688e-09 -1.029011583430775125e-10 -7.542659108523687802e-10 -6.256722496374834075e-10 -1.304073207118038283e-09 -9.507524004016191309e-10 -1.075565821567502742e-09 -1.392412261804845323e-09 2.901188822001089389e-09 6.367543854901355842e-09 3.357979088310413597e-09 -2.124943438212824097e-09 3.124304186656031288e-09 1.924396242247282938e-09 1.979095868036474569e-09 2.153386095900239501e-09 2.086447826790432535e-09 2.341742102836183188e-09 2.147083826137638425e-09 2.190685249067083109e-09 2.229000477979217330e-09 4.047954209161412777e-09 2.841385902101753216e-09 2.492033719052818386e-09 2.603450705881861674e-09 1.861094160134499934e-09 2.002320794877545933e-09 2.184754868190897591e-09 2.165686365125353053e-09 2.174481152943274962e-09 2.101725692517929896e-09 2.096078219458387772e-09 2.040569576344901775e-09 2.069840418143998372e-09
-1.273183810096904354e-07 8.883955707726466578e-08 4.080703916699992921e-08 -2.498034592050154204e-09 1.233879196707089476e-08 -5.342277894038706230e-09 -8.326132201528205118e-12 -7.721947672615184402e-10 -7.274728833708800888e-10 -1.246506344274666231e-09 -7.034892874377481426e-10 -7.075449114542745819e-10 -9.105026981796168447e-10 2.569411127451950349e-09 6.623856784223279436e-09 3.201013243013072643e-09 -2.207525239124860716e-09 3.353625166195564256e-09 2.073905775542237389e-09 2.052645277000147209e-09 2.138887087961992724e-09 2.130613805525831933e-09 2.403560675579928602e-09 2.190685249067083109e-09 2.293469932743722357e-09 2.315246436923638069e-09 4.202265770065225861e-09 2.948644936055951913e-09 2.567961906123110266e-09 2.695455053699574585e-09 1.926684107829414914e-09 2.069888865717874468e-09 2.247442972969901043e-09 2.222644292433481374e-09 2.245880710988825107e-09 2.162393687603135931e-09 2.164517546063628133e-09 2.129628750678522020e-09 2.153784818422066900e-09
-1.597659452073098200e-07 8.208298414783421149e-08 3.967198806189776870e-08 -1.802794378646786291e-09 1.289907441855169820e-08 -6.235708520070539265e-09 1.508844145986146881e-10 -5.849077972087030332e-10 -8.010639982226152587e-10 -1.100752470147682955e-09 -4.521613658985066894e-10 -5.717128188084594933e-10 -9.575779046893940833e-10 3.074688775069162929e-09 6.525140676726893671e-09 2.777703840034111457e-09 -2.409494180687469940e-09 3.351608535828159537e-09 2.072993061857022002e-09 2.064079486698299665e-09 2.243547526686788989e-09 2.171724180015917469e-09 2.475898872577262178e-09 2.229000477979217330e-09 2.315246436923638069e-09 2.396195484732036604e-09 4.491828107759224222e-09 2.879422773433932059e-09 2.680457182490980296e-09 2.779149752530858952e-09 1.982236128019306406e-09 2.118289052493033278e-09 2.310698057930057791e-09 2.260495363203341098e-09 2.284865413147999825e-09 2.198926443577340914e-09 2.196294472476747426e-09 2.161500376032786432e-09 2.209505157328755147e-09
-3.682537548010335964e-07 6.104136049909392081e-08 1.178366404030858431e-07 -2.081899041682770537e-08 2.351942760834399684e-08 3.118555176296159083e-09 5.808879458956642328e-10 1.576237994176745589e-10 -7.238846077446279613e-09 -7.459050370275691851e-09 -2.988198699001989302e-09 -4.558079804958812093e-09 -5.156584726041539349e-09 6.413323273229482916e-09 -4.299213900873605801e-09 3.036470552202694424e-09 -2.825119084175993506e-09 3.755977676656246962e-09 4.583573454824222784e-09 4.056479483755934542e-09 5.493903967872104267e-09 4.627111376035204319e-09 5.192826029617309896e-09 4.047954209161412777e-09 4.202265770065225861e-09 4.491828107759224222e-09 2.149440404577721421e-08 5.435363995084230816e-09 4.579014005597172543e-09 5.835249726528350600e-09 4.114831938428381139e-09 4.510037066047636162e-09 4.833059756976754146e-09 4.371350621073417058e-09 4.371261820524968832e-09 4.079555730679432224e-09 3.927442095241282547e-09 3.822846501705746934e-09 3.860916396682887903e-09
-4.683098309777802463e-08 1.242168208848698184e-07 6.066773834499985483e-08 -3.463762163491811998e-09 1.964416229066879474e-08 -6.713358567543722849e-09 2.784888434010046418e-09 -5.849833411109207991e-10 -3.485070577552381502e-10 -2.118083184889315181e-09 -1.838461269249979984e-09 -1.954381551870386168e-09 -1.543290521838713927e-09 2.679119664693107933e-09 3.266581573811959974e-09 2.981175769784798845e-09 -5.824152409297298465e-10 3.061118891580954829e-09 2.725566702794846742e-09 2.720752869679443838e-09 2.497865125560552049e-09 2.908688354829413464e-09 3.064288199648826073e-09 2.841385902101753216e-09 2.948644936055951913e-09 2.879422773433932473e-09 5.435363995084229989e-09 5.210689771061063794e-09 3.616362621582960440e-09 3.400783734550141658e-09 2.548367566776921856e-09 2.604478727824350395e-09 2.719942582837641368e-09 2.931584787716909917e-09 2.909228601613980192e-09 2.800917567691403443e-09 2.858373217937740916e-09 2.734667799249411917e-09 2.685986124522202437e-09
-1.257647201535513552e-07 8.126081064712711129e-08 5.045236374605097032e-08 -1.334468268981940834e-09 1.549658596525729935e-08 -9.424609186203839554e-09 1.320766886989222817e-09 -4.097830960777824647e-10 -6.385191349624471963e-10 -1.252325359078868799e-09 -7.949296184831666786e-10 -7.091801158782829219e-10 -1.151770432315890335e-09 5.412508919966760268e-09 6.472141693388124166e-09 1.631934718440099186e-09 -2.505955604152541534e-09 3.166977827208788012e-09 2.555410443706405933e-09 2.350809479840698488e-09 2.409088650753003589e-09 2.447649514422453326e-09 2.719174387481058993e-09 2.492033719052818386e-09 2.567961906123110266e-09 2.680457182490980296e-09 4.579014005597174197e-09 3.616362621582960440e-09 3.339293044538842852e-09 2.995314943499576336e-09 2.199082141616061356e-09 2.278554148682371424e-09 2.479975060096651783e-09 2.527717546896766253e-09 2.532229151498372115e-09 2.439933715012925913e-09 2.469644154735892154e-09 2.396872090247362800e-09 2.457496448715726772e-09
-2.948684144212099070e-07 1.037304684304793691e-07 4.227059561696547297e-08 4.170415971153317451e-09 1.960886641277396245e-08 -7.432571452657789371e-09 3.185597645038474750e-10 -1.678882687163636233e-09 -1.902036295696756478e-09 -2.228001685176009268e-09 -1.439474243704865099e-09 -1.437841771453250349e-09 -1.616375491350581549e-09 1.453702823736755541e-09 7.819616306015237551e-09 3.669771079646693880e-09 -2.046066855313884745e-09 4.212129134371538761e-09 2.302711080178669415e-09 2.392865993806433254e-09 2.724455080014947073e-09 2.647540919405040112e-09 3.009492203717699151e-09 2.603450705881861674e-09 2.695455053699574585e-09 2.779149752530858952e-09 5.835249726528351428e-09 3.400783734550141658e-09 2.995314943499576336e-09 3.559429206358375381e-09 2.553406081587880395e-09 2.589391593508793183e-09 2.775560654907099346e-09 2.666092596593110489e-09 2.672596964396371233e-09 2.556738220523842661e-09 2.509579852289534902e-09 2.469122508494461041e-09 2.540173639392292334e-09
-1.963559905042800907e-07 7.137489017488879866e-08 3.107733877048457753e-08 3.732871448879597717e-09 1.430761356264120560e-08 -5.776907993821752274e-09 3.317503454277400096e-10 -1.346481006413250398e-09 -1.356648194717317217e-09 -1.697087877855721252e-09 -1.172285083520397447e-09 -1.072581278835314960e-09 -1.139607421841898002e-09 7.613007179004283000e-10 5.528712920301484388e-09 2.208025565357794769e-09 -1.308031686662154755e-09 2.908347163556337267e-09 1.673857808050741455e-09 1.698676217757338913e-09 1.923692573582417981e-09 1.904771941941642487e-09 2.157037048723522712e-09 1.861094160134499727e-09 1.926684107829414500e-09 1.982236128019306406e-09 4.114831938428381139e-09 2.548367566776921856e-09 2.199082141616061356e-09 2.553406081587880395e-09 1.853258270170700109e-09 1.842405698523832426e-09 1.970303622272253671e-09 1.912138768248866994e-09 1.911436239567377477e-09 1.831589138524360426e-09 1.798138068180836936e-09 1.761292328672203128e-09 1.809732808160342068e-09
-1.849987793899413781e-07 7.601959540972644808e-08 3.530637142918574565e-08 -1.119783905150064789e-09 1.260585718294591275e-08 -4.609638550448437120e-09 2.276601168416798766e-12 -8.005269722475745989e-10 -1.060230031346404258e-09 -1.405369608130612138e-09 -8.953390710714873984e-10 -1.096734077047534287e-09 -1.254756380827351551e-09 2.202048551056698224e-09 5.592652730275067000e-09 3.097873948399849083e-09 -1.725222379856872337e-09 3.101664801021052825e-09 1.707935298971035862e-09 1.861849343301549443e-09 2.094337450424056252e-09 1.991719697045481801e-09 2.266346680061132610e-09 2.002320794877545933e-09 2.069888865717874468e-09 2.118289052493033278e-09 4.510037066047636162e-09 2.604478727824350395e-09 2.278554148682371424e-09 2.589391593508793183e-09 1.842405698523832426e-09 1.965514342209334138e-09 2.128360884408075336e-09 2.048661808777387592e-09 2.064868410927440563e-09 1.973011522258090723e-09 1.945400264797928218e-09 1.910110950146841957e-09 1.949144181508721769e-09
-1.915882229216477017e-07 7.661850101111318722e-08 3.743675755042723974e-08 -2.746714397446167619e-09 1.210767626450616399e-08 -5.283020478954148702e-09 -4.781270613536396263e-10 -8.576779648423697867e-10 -1.009480663679427325e-09 -1.392976195222657157e-09 -8.659242983777820516e-10 -1.099646658217886347e-09 -1.371107099219766168e-09 2.588967515005150645e-09 6.635709323210586054e-09 3.291275675630319173e-09 -2.154559676347477168e-09 3.383997380467415166e-09 1.824205008218539116e-09 2.001359199297778210e-09 2.311445376781555640e-09 2.139881645607914103e-09 2.462868388075247349e-09 2.184754868190897591e-09 2.247442972969901456e-09 2.310698057930058205e-09 4.833059756976754146e-09 2.719942582837641782e-09 2.479975060096651783e-09 2.775560654907099759e-09 1.970303622272253671e-09 2.128360884408075336e-09 2.329492906429050464e-09 2.228781864617156582e-09 2.251877880661665029e-09 2.158401120506391220e-09 2.122856201486316875e-09 2.082696899667928859e-09 2.128970222344863981e-09
-1.480224923826160699e-07 8.157642336406729537e-08 3.759073174055574999e-08 -3.553989724090235705e-09 1.196647720398587334e-08 -5.713091128003258002e-09 -1.070000637255945418e-11 -7.516393620999638806e-10 -7.190371772313827331e-10 -1.364894326595951481e-09 -9.483985155841616226e-10 -1.103300660110202738e-09 -1.334095446166699842e-09 2.673014049706997432e-09 6.021904570070645306e-09 3.143060544782378654e-09 -1.962483001215984612e-09 3.121880385882236861e-09 1.914517014071679354e-09 1.998574946071271334e-09 2.185042169908011398e-09 2.122407173491191795e-09 2.389543503848885329e-09 2.165686365125352639e-09 2.222644292433480960e-09 2.260495363203341098e-09 4.371350621073416230e-09 2.931584787716909917e-09 2.527717546896766253e-09 2.666092596593110903e-09 1.912138768248866994e-09 2.048661808777387592e-09 2.228781864617156168e-09 2.200327219317049094e-09 2.212318492498805264e-09 2.131162595816162557e-09 2.120361743972673654e-09 2.066202257406251418e-09 2.093710494483232595e-09
-1.395359130431500437e-07 8.091542570102331372e-08 3.819264920072963678e-08 -3.565553942995354724e-09 1.160264043569374928e-08 -5.349642081217482793e-09 -1.361341503801142333e-10 -6.743071616065052961e-10 -6.182105627188081439e-10 -1.179248369670812736e-09 -7.161167548661483463e-10 -9.081156931287552400e-10 -1.132771744656755848e-09 2.506550378340001364e-09 6.168991968166674218e-09 3.090971148949146113e-09 -2.037824026050384900e-09 3.200375380617437554e-09 1.884090253243319276e-09 1.997393546964701854e-09 2.183904600851458048e-09 2.114900363682427098e-09 2.402228410815402011e-09 2.174481152943274962e-09 2.245880710988825107e-09 2.284865413147999825e-09 4.371261820524968832e-09 2.909228601613980606e-09 2.532229151498371702e-09 2.672596964396371233e-09 1.911436239567377477e-09 2.064868410927440563e-09 2.251877880661665029e-09 2.212318492498805264e-09 2.233872011356181970e-09 2.150992751892083711e-09 2.139987489735630549e-09 2.093509506217065482e-09 2.120156394520665809e-09
-1.202535966649775383e-07 7.767312791611230324e-08 3.469619319070737740e-08 -4.238584052858067532e-09 1.030225869507209296e-08 -5.459111858965789516e-09 -3.469974899587521500e-10 -7.142306461918085500e-10 -4.704628858725694357e-10 -1.094905456321595372e-09 -6.291812673995011781e-10 -7.915652522878835771e-10 -1.062144267140268923e-09 1.949652020397398749e-09 6.102986352005494338e-09 2.915920580305183837e-09 -2.047546762042873967e-09 3.049219642746139122e-09 1.822091729778211697e-09 1.897299889441054807e-09 2.094733976063345939e-09 2.031225419361629249e-09 2.311637362437010898e-09 2.101725692517929896e-09 2.162393687603135931e-09 2.198926443577340914e-09 4.079555730679432224e-09 2.800917567691403030e-09 2.439933715012925913e-09 2.556738220523843074e-09 1.831589138524360426e-09 1.973011522258090723e-09 2.158401120506391220e-09 2.131162595816162557e-09 2.150992751892083711e-09 2.082999485931094375e-09 2.073897829344786612e-09 2.025084758855456148e-09 2.045462702928954442e-09
-1.020902174930874612e-07 8.077404700673170597e-08 3.576680609918235313e-08 -4.572406820855553561e-09 1.033508558847774668e-08 -5.424597513862471414e-09 -7.185691076449391670e-11 -5.371317994636306964e-10 -3.547674934904930037e-10 -9.909350576364984999e-10 -5.119204501591894252e-10 -6.638256704898941165e-10 -9.481288986128890159e-10 2.269630289284148384e-09 5.799380483217439299e-09 2.883870523489560810e-09 -2.075306777251908794e-09 2.981062435412610751e-09 1.894141110494391395e-09 1.914847233097129366e-09 2.041581965376902635e-09 2.021664785897426797e-09 2.281204918832315387e-09 2.096078219458387772e-09 2.164517546063628133e-09 2.196294472476747426e-09 3.927442095241282547e-09 2.858373217937740916e-09 2.469644154735892154e-09 2.509579852289535316e-09 1.798138068180836936e-09 1.945400264797928218e-09 2.122856201486316875e-09 2.120361743972673654e-09 2.139987489735630136e-09 2.073897829344786612e-09 2.079878178065571360e-09 2.032004471773070609e-09 2.046865061493287138e-09
-1.010932700402661901e-07 8.064593101753617024e-08 3.570613969172141970e-08 -3.507311730824600649e-09 1.038041204063211584e-08 -4.932171835660612436e-09 -8.850176547706364463e-11 -5.086366535216302411e-10 -3.851442255835093634e-10 -8.587876021870568014e-10 -3.055350165559734004e-10 -4.325611199134814870e-10 -6.979575353099424218e-10 2.052166508350902457e-09 5.882126014602926387e-09 2.821529161125411335e-09 -2.112724997011336953e-09 3.040906835015267336e-09 1.861509317466833186e-09 1.872405703270735446e-09 1.975221977297746377e-09 1.962430167665046507e-09 2.229455363444245531e-09 2.040569576344901775e-09 2.129628750678522020e-09 2.161500376032786432e-09 3.822846501705746934e-09 2.734667799249411917e-09 2.396872090247363213e-09 2.469122508494461041e-09 1.761292328672203542e-09 1.910110950146841957e-09 2.082696899667928859e-09 2.066202257406251418e-09 2.093509506217065482e-09 2.025084758855456148e-09 2.032004471773070609e-09 1.998453461386044480e-09 2.015624994312246609e-09
-1.326091538343361010e-07 7.971375721844103587e-08 3.578071911074344434e-08 -2.211634233468783726e-09 1.133479386161212841e-08 -5.625085677503171295e-09 -1.837230696210949357e-11 -5.583341406460314815e-10 -5.238245701087893936e-10 -8.735448977937065181e-10 -3.456621935976073783e-10 -4.537891452393016533e-10 -7.782270844591101659e-10 2.558801390747463648e-09 6.358421087441185582e-09 2.791801110494476161e-09 -2.241729789658893429e-09 3.165645128021880843e-09 1.881684307629603969e-09 1.904975032270299927e-09 2.038021351112482212e-09 1.993232429052530805e-09 2.274657053058187198e-09 2.069840418143997959e-09 2.153784818422066900e-09 2.209505157328755561e-09 3.860916396682888730e-09 2.685986124522202437e-09 2.457496448715727185e-09 2.540173639392292334e-09 1.809732808160342068e-09 1.949144181508721769e-09 2.128970222344863981e-09 2.093710494483233009e-09 2.120156394520665809e-09 2.045462702928954855e-09 2.046865061493287138e-09 2.015624994312246609e-09 2.051143949326044700e-09
