3.749987735005750770e-05 2.827601746234515493e-06 -4.505875290821495188e-06 -4.718925622235381798e-06 -1.742687077698756529e-06 -6.860793729453808954e-07 2.966465021667938793e-07 8.596330716649897893e-07 3.934938707464402884e-07 3.963093548019386261e-07 4.056357133020284285e-07 2.793974721640388510e-07 2.701824076570764362e-07 2.834330734116448831e-06 4.230092949125438061e-07 3.967230024796592523e-07 1.131885864043689785e-07 -1.428978349113921453e-07 6.501195800984217205e-08 1.252003147095396578e-07 2.767004133666678628e-08 2.346875983416592703e-08 1.212813667138242944e-08 1.548412390132024942e-08 2.650634246991749343e-08 1.615579667464755836e-08 4.981173402218295135e-07 -4.074324576843399891e-08 1.585285792025913132e-08 -2.240439015993934047e-08 2.552477419343804510e-08 4.388957348223296708e-08 -2.207704022594732174e-08 1.498297194860071420e-08 8.585039528936972964e-09 2.366854714519665280e-09 1.288070911145358406e-08 7.233149399910938087e-09 8.460740911339520160e-09
2.827601746234515916e-06 9.926943120672058300e-06 6.288121677673634666e-07 -1.381273982175906163e-06 -4.972799478274358702e-07 -1.921620824822981813e-07 4.131499311551459211e-07 2.807312196455836056e-07 3.215328590893550832e-07 2.317389801369938298e-07 1.329493124019728276e-07 7.627681014438746066e-08 5.911848615095165045e-08 -1.853956033683484142e-07 7.826981049593704192e-07 -5.114299800648360323e-07 -2.912838862099369171e-07 -1.148122209621783811e-07 -2.811309555667828390e-08 9.486248186943472506e-10 -2.513687705278990489e-08 3.459951766266401248e-09 2.883161421926812099e-09 -3.267192934978838352e-09 -1.867935204427956160e-08 -1.555847737530702030e-08 -1.138889862697539843e-07 2.202778359041548566e-08 4.447992053094104954e-08 -2.848688068022954189e-08 2.017791462720379288e-08 6.729619119213599784e-09 -6.766670248772647025e-09 8.187898433112146762e-09 4.940197911818972604e-09 4.886895351470822995e-09 4.144942419689766309e-09 -4.373738665792255375e-09 -7.025872534092159846e-09
-4.505875290821496035e-06 6.288121677673633607e-07 2.067089041594024661e-06 2.418337741090664712e-07 3.197868131869305497e-07 1.060401490498659014e-07 1.059409698755261187e-07 -9.607824751427235257e-08 -1.090769530595427232e-08 -1.306347958241112048e-10 -5.798635093383683038e-08 -8.227829856294409182e-08 -7.513848298782886381e-08 1.659766508692209278e-07 3.276532934159304796e-07 6.545954028822325349e-08 -7.383939108547562255e-08 3.693004691643616203e-08 -4.493364518642132726e-09 -3.155450082231603261e-09 1.261170519325563188e-08 1.700320208779805697e-08 1.385303103011752036e-08 1.047284007675061239e-08 1.056114501298105385e-08 1.252937980530235630e-08 2.026327591547973999e-08 3.484860344743577656e-08 2.883294841833790358e-08 1.808316781887129295e-08 1.248647740186473484e-08 8.733217940753313884e-09 2.170985369247448469e-08 1.443869065951812671e-08 1.654887635753113631e-08 1.746457671704864269e-08 1.553318798751514255e-08 1.545141158382795996e-08 1.391816191625832224e-08
-4.718925622235381798e-06 -1.381273982175905951e-06 2.418337741090664712e-07 1.233780614244969265e-06 1.630664056753702848e-07 1.211814541833122342e-07 -9.496046719278391590e-08 -1.167884582030935864e-07 -4.928812577579571070e-08 -5.930466779750245451e-08 -2.831151190525355700e-08 -2.958216999047806776e-09 -1.845417003237591429e-08 -1.562661361286731140e-07 -2.809210581570892778e-07 -1.382317496431962744e-07 -4.103710707612426031e-09 3.012537391744247816e-08 -1.440673068644886888e-08 -2.981733435201753797e-08 -2.577586816472196167e-09 -5.455431667910391065e-09 -3.189848283454041428e-09 -5.160422042249765251e-09 -5.832539389758303382e-09 -6.887018432344966358e-09 -3.969177138740223672e-08 -1.296912506950801864e-08 -2.554714206995582510e-08 -3.312033322680277037e-09 -1.211632544836167891e-08 -1.329516858832362112e-08 -4.396763004101462725e-09 -7.626071371784642186e-09 -7.140743447031821353e-09 -5.499817292412978762e-09 -5.505251295693448946e-09 -4.954159544344335000e-09 -5.724918015601351273e-09
-1.742687077698756529e-06 -4.972799478274358702e-07 3.197868131869304968e-07 1.630664056753702848e-07 2.540230327552581793e-07 8.663924830518984748e-08 1.671255647432983920e-10 -5.361712283676333663e-08 -2.785018582953275090e-08 -2.709401953882253642e-08 -3.706717848531660707e-08 -2.766721354944467388e-08 -1.688948964877953601e-08 -1.612638924661898208e-07 4.811090878304833346e-08 1.186736222958657850e-09 1.812922027999603862e-08 2.804958911656793078e-08 1.791841947247283717e-08 4.546338338951524882e-09 4.129259140271584242e-09 8.007290394841943328e-09 6.957516206622661730e-09 6.402360964555097457e-09 6.360690660959029405e-09 6.471155606667182918e-09 -1.466122148542377813e-08 2.008903355507752448e-08 1.037353176640266025e-08 4.788310959516508090e-09 9.103881438935732470e-10 2.211140679062298966e-09 5.934643609166179862e-09 4.229844109078649272e-09 4.426311183730240118e-09 4.717878694980038400e-09 4.295047531881851950e-09 4.638527648806145300e-09 4.312770147164874674e-09
-6.860793729453810013e-07 -1.921620824822982078e-07 1.060401490498659014e-07 1.211814541833122342e-07 8.663924830518983425e-08 1.345568715503085315e-07 3.122167799544353500e-08 -2.214237310554948408e-08 3.012607585262576219e-08 1.244221508862675685e-08 8.931169323505803146e-10 5.558773678444169718e-10 -7.283231846424827842e-09 -2.760328467576246539e-08 -1.187500860495750340e-08 1.889931673227163044e-08 4.462268953107891656e-08 3.451925477354405724e-09 -1.886324475394934836e-09 -3.990381252218830529e-09 -7.216757226277271246e-09 -2.120930757192542911e-09 -3.697040136477182619e-09 -5.758729843062529240e-09 -4.780321465240109131e-09 -4.730429109712410948e-09 -4.019360285329334922e-09 -5.492897994678482120e-09 -4.228011988907323916e-09 -6.415280923093908362e-09 -5.590104044403495335e-09 -5.683129021826730544e-09 -4.525653408762780655e-09 -4.139106635101775674e-09 -4.030918031667273190e-09 -4.065977262139897891e-09 -4.202880858521928719e-09 -4.407877485554582980e-09 -4.422397997142708199e-09
2.966465021667937735e-07 4.131499311551459741e-07 1.059409698755261187e-07 -9.496046719278390267e-08 1.671255647433023987e-10 3.122167799544353500e-08 6.882854838357977208e-08 1.501753348455257186e-08 3.241396127978818999e-08 2.122557469867680818e-08 6.691993503006636138e-09 4.177097178471085399e-10 3.140274366084099973e-10 7.507515865387640728e-08 3.567970108522240004e-08 9.837317192752748920e-09 -8.292375697739053721e-09 -1.379110639929997033e-08 -9.497066727439713747e-09 -9.339029783490272062e-09 -8.791162129658894543e-09 -7.652688745931393026e-09 -7.266229818133760252e-09 -8.260787145264009962e-09 -7.495149217421902561e-09 -7.456223059281593335e-09 -3.042871868939833747e-09 -1.370989429439113004e-09 -9.873002000113165694e-09 -9.879277043530458426e-09 -5.973577652669574507e-09 -7.101983002156139779e-09 -7.732261067153645398e-09 -6.535212052953594012e-09 -6.288222174016071862e-09 -6.155184828625301143e-09 -5.961332252824995937e-09 -6.256484969554981278e-09 -6.570490080529498646e-09
8.596330716649897893e-07 2.807312196455836056e-07 -9.607824751427235257e-08 -1.167884582030935600e-07 -5.361712283676333663e-08 -2.214237310554948408e-08 1.501753348455257186e-08 2.711903557557504820e-08 1.614568327967634217e-08 1.570836476542004661e-08 1.344383267688432107e-08 9.248629293208747832e-09 8.446603717456904548e-09 6.065875253094273851e-08 9.786396921187875579e-09 -9.211453257727898759e-09 -3.095964680480259297e-09 -4.997356995577452047e-09 -3.276681462063115824e-10 1.234512764482399096e-09 -4.467834704741763041e-10 -6.394062097809550662e-10 -8.967092249353847443e-10 -9.510885346076157704e-10 -9.024988561855925983e-10 -1.215190857999663581e-09 7.920950524971619219e-09 -2.016620265044006683e-09 -9.888346400544063335e-10 -1.609166458883215271e-09 1.969825981637757788e-10 1.273440767482423762e-10 -1.620240037966366903e-09 -4.465934719623346347e-10 -6.713184527563244502e-10 -8.554833726009003252e-10 -6.095124328832714767e-10 -8.965188977088475143e-10 -1.051102246431713561e-09
3.934938707464402884e-07 3.215328590893550832e-07 -1.090769530595426074e-08 -4.928812577579569746e-08 -2.785018582953274428e-08 3.012607585262576219e-08 3.241396127978818999e-08 1.614568327967633886e-08 3.100684212606714640e-08 2.070404234918941667e-08 1.337560927484372663e-08 8.677193605055227674e-09 3.125047403591723351e-09 5.670234400831332820e-08 6.218099304542398690e-09 -3.451545623762471204e-09 6.117807743445659568e-09 -7.067857053662928554e-09 -3.893460609563544708e-09 -2.215667758234653482e-09 -4.452060491417842516e-09 -2.233340260722320563e-09 -2.698562436458243760e-09 -3.707749840302998174e-09 -3.494094504422670105e-09 -3.689464712627392276e-09 1.982879918025844688e-09 -3.495740074198345964e-09 -2.809426950549655464e-09 -4.402690747109946388e-09 -2.052326626826229757e-09 -2.626343111513197735e-09 -3.596816525750108599e-09 -2.446337155699713626e-09 -2.436262659477919044e-09 -2.529448858575404812e-09 -2.361845437830981495e-09 -2.773346968214900489e-09 -2.972596361230438782e-09
3.963093548019385731e-07 2.317389801369938827e-07 -1.306347958241058023e-10 -5.930466779750245451e-08 -2.709401953882253642e-08 1.244221508862675685e-08 2.122557469867680818e-08 1.570836476542004661e-08 2.070404234918941667e-08 1.740790170414509093e-08 1.117449558140922872e-08 6.409126616237118183e-09 3.392749563737690042e-09 4.676052492847857785e-08 6.342136544437138744e-09 -2.542281311683709466e-09 5.870644101992146187e-09 -3.226670494247193903e-09 -2.522343940912254042e-09 -8.453939640291045067e-10 -2.153068885230059801e-09 -1.458719237865542351e-09 -2.111951847187589331e-09 -2.689064137136528249e-09 -2.379396445908875097e-09 -2.556573665959111870e-09 5.458188064570313701e-09 -3.834068507134628115e-09 -2.052495402751390774e-09 -2.448816951631014142e-09 -1.002129249257984560e-09 -1.408470251993451173e-09 -2.226662704091314589e-09 -1.432083759204152452e-09 -1.528878896566153722e-09 -1.714328392586112850e-09 -1.629739708332017953e-09 -1.901787769970416814e-09 -2.083273207621754423e-09
4.056357133020284285e-07 1.329493124019728276e-07 -5.798635093383683038e-08 -2.831151190525356362e-08 -3.706717848531660045e-08 8.931169323505786602e-10 6.691993503006636138e-09 1.344383267688432107e-08 1.337560927484372828e-08 1.117449558140922872e-08 1.040648618113367797e-08 7.798098389830551896e-09 4.832383944400152516e-09 3.474540709046287903e-08 -5.300208147159724480e-09 -8.173326705712510680e-09 3.561384183146947397e-09 -2.867875385146013346e-09 -1.778861006817673382e-09 -1.925402942361092353e-10 -9.551447814544071304e-10 -7.749992822129863915e-10 -1.141317869416650278e-09 -1.441376196189265016e-09 -1.366099335824889842e-09 -1.544841464571778548e-09 5.079863772444115963e-09 -4.303275725291963669e-09 -1.773729778377640829e-09 -1.664429319486487393e-09 -5.124265270356057567e-10 -6.528461092739834888e-10 -1.534852941422209259e-09 -7.959050708722606686e-10 -9.723878699153480037e-10 -1.086562370397256002e-09 -9.658727254904452445e-10 -1.186950273589006277e-09 -1.241360063279522975e-09
2.793974721640388510e-07 7.627681014438746066e-08 -8.227829856294409182e-08 -2.958216999047806363e-09 -2.766721354944466727e-08 5.558773678444164548e-10 4.177097178471089018e-10 9.248629293208749486e-09 8.677193605055229328e-09 6.409126616237118183e-09 7.798098389830551896e-09 7.259047993666088062e-09 4.961868192850017250e-09 8.892227078140997012e-09 -1.173922924057878130e-08 -1.316465178318632215e-08 3.228611703139576220e-09 -2.085235447365183999e-09 -8.873286226772735846e-10 -2.607249543731282585e-10 -8.312552741164822098e-10 -6.529406011013813762e-10 -8.153867376345683352e-10 -9.903035789137474601e-10 -1.071758967742900584e-09 -1.229425559248557941e-09 1.438822894030982700e-09 -3.616951626372623618e-09 -1.749638653044316600e-09 -1.585720129463006279e-09 -6.495090958805135631e-10 -6.609688372311760049e-10 -1.417582427398212001e-09 -7.492140143344777126e-10 -9.531801228556978877e-10 -1.011439574685433184e-09 -8.981278287466729246e-10 -1.073746254556495228e-09 -1.080896316693234872e-09
2.701824076570764362e-07 5.911848615095165045e-08 -7.513848298782886381e-08 -1.845417003237591098e-08 -1.688948964877953270e-08 -7.283231846424829497e-09 3.140274366084101007e-10 8.446603717456904548e-09 3.125047403591723351e-09 3.392749563737690870e-09 4.832383944400152516e-09 4.961868192850017250e-09 5.563381867378201139e-09 -1.157121315756025789e-08 1.921282470078789624e-10 -1.560421580268034107e-08 1.114887862858129169e-10 -1.249145056255849769e-09 2.806922356452056662e-11 -1.575757996540959889e-10 -2.810762233021093376e-10 -6.855706092993302199e-10 -7.768931652198855222e-10 -7.036752879493218628e-10 -8.332331413823750934e-10 -8.869241061787866147e-10 4.830884297348231315e-10 -2.726844429492079827e-09 -1.839394388308871535e-09 -1.816589315091582934e-09 -6.731641720486537648e-10 -5.513207250460874413e-10 -1.292661056370409152e-09 -6.407058041237573200e-10 -9.527399323226481539e-10 -9.857900979036832000e-10 -9.136226263853307646e-10 -1.044360684490367770e-09 -1.007836598514725305e-09
2.834330734116448831e-06 -1.853956033683484142e-07 1.659766508692208219e-07 -1.562661361286730875e-07 -1.612638924661898208e-07 -2.760328467576246539e-08 7.507515865387642051e-08 6.065875253094272527e-08 5.670234400831332820e-08 4.676052492847857785e-08 3.474540709046287241e-08 8.892227078140997012e-09 -1.157121315756025954e-08 8.643934224417410215e-07 -9.693547227747709363e-08 1.644469565401073453e-07 -1.158453975762429795e-08 -1.226028182496745824e-08 -9.958011738497489616e-09 -2.840855860190216193e-09 3.268457506538295122e-10 -5.619264033496614100e-10 2.630838300962291117e-10 -1.828157642990625446e-09 2.737513134428682891e-09 -4.655345509488927403e-10 8.462656400832550074e-08 1.196607826398214198e-08 -6.085909377945402737e-09 6.567916092894900901e-09 5.467554542509901274e-10 8.264299707017283636e-11 -1.298802488713111311e-09 -1.574371971629784138e-09 1.463942649619325929e-09 1.465218483001029961e-09 3.447211448860032803e-09 3.746702962064293583e-09 1.937590844600808495e-09
4.230092949125438061e-07 7.826981049593704192e-07 3.276532934159304796e-07 -2.809210581570893308e-07 4.811090878304834007e-08 -1.187500860495749844e-08 3.567970108522240666e-08 9.786396921187875579e-09 6.218099304542401998e-09 6.342136544437140398e-09 -5.300208147159723653e-09 -1.173922924057878130e-08 1.921282470078785488e-10 -9.693547227747709363e-08 2.778650307711069354e-07 -2.739052285971855941e-08 -3.248382544458379971e-08 3.543179656520499387e-09 1.390999910057272814e-08 1.646721598941196625e-08 9.700609413737757587e-09 1.472982055826620289e-08 1.255379168855828314e-08 1.236581466488710962e-08 9.900289599242764766e-09 1.162850900343211804e-08 1.054086124636823821e-08 1.257825918717585180e-08 2.464261178168562207e-08 3.112158954715924394e-09 1.036828977168575354e-08 1.136785039373708131e-08 1.082242673190268326e-08 1.195089170828781455e-08 1.065536674696305310e-08 1.084689548499308176e-08 1.016268761673744326e-08 9.109696118626988306e-09 9.774528988032217149e-09
3.967230024796592523e-07 -5.114299800648360323e-07 6.545954028822324025e-08 -1.382317496431962744e-07 1.186736222958655575e-09 1.889931673227162051e-08 9.837317192752745611e-09 -9.211453257727898759e-09 -3.451545623762467068e-09 -2.542281311683710294e-09 -8.173326705712509026e-09 -1.316465178318632050e-08 -1.560421580268034107e-08 1.644469565401073453e-07 -2.739052285971856272e-08 1.324277317420148411e-07 2.440272683650736071e-08 -5.414407693796179952e-09 -2.893798141213896712e-09 1.625256634292223356e-09 -2.061099587047707484e-09 -2.303811109705187361e-09 -1.964591337333012860e-09 -1.728520431467075743e-09 5.978409499718725176e-10 5.578937368929595240e-10 1.740469669521685154e-08 4.144864348817593949e-09 6.418953873711677613e-10 3.844367811315392533e-09 -1.606160275494990771e-10 7.471806015440585604e-11 5.647467077919100775e-10 -1.246046216387632335e-09 1.499873731241009438e-10 -1.233648036907952425e-10 -3.873973827618208481e-11 8.192671371707823461e-10 1.008182741263824992e-09
1.131885864043689785e-07 -2.912838862099369171e-07 -7.383939108547563579e-08 -4.103710707612421895e-09 1.812922027999603531e-08 4.462268953107891656e-08 -8.292375697739053721e-09 -3.095964680480259297e-09 6.117807743445659568e-09 5.870644101992145360e-09 3.561384183146946983e-09 3.228611703139575807e-09 1.114887862858122190e-10 -1.158453975762429629e-08 -3.248382544458380633e-08 2.440272683650735740e-08 3.729108667418690160e-08 5.796110782102102837e-09 2.750551745137061343e-09 2.857522704960883690e-09 -7.297207256095995024e-10 1.887879462087310838e-10 -1.120280964788952560e-09 -1.473526431179593258e-09 -5.747088600951674005e-10 -7.599761222130737314e-10 6.491212274505735870e-09 -5.195878192514624981e-09 -2.900890003171422048e-10 2.791287032207567510e-10 -1.008756030505878677e-09 -4.688468340066153863e-10 -6.898854329372808157e-10 -6.614286611727845171e-10 -7.460998056105178131e-10 -1.132077567580366235e-09 -1.190901473154069067e-09 -1.063619052781979421e-09 -9.581785244121604159e-10
-1.428978349113921453e-07 -1.148122209621783811e-07 3.693004691643616203e-08 3.012537391744247816e-08 2.804958911656793078e-08 3.451925477354406551e-09 -1.379110639929997033e-08 -4.997356995577452047e-09 -7.067857053662928554e-09 -3.226670494247193903e-09 -2.867875385146013346e-09 -2.085235447365183585e-09 -1.249145056255849355e-09 -1.226028182496746155e-08 3.543179656520498560e-09 -5.414407693796181606e-09 5.796110782102102837e-09 9.181373212367272768e-09 5.676345503896650128e-09 4.097593091464878988e-09 3.760886016747197730e-09 4.059674728994053747e-09 3.371384802608387373e-09 3.361054045341213881e-09 3.248756344780415819e-09 3.100873059829926546e-09 4.531730605301694825e-09 2.764582006599846010e-09 4.774003163236588444e-09 3.766692228374909134e-09 2.298679677349386983e-09 2.769773887705212590e-09 3.258167005275427907e-09 2.909215203407880033e-09 2.804855994968394065e-09 2.732840008065235805e-09 2.664842525622066756e-09 2.682526065717987381e-09 2.591734676906785671e-09
6.501195800984218528e-08 -2.811309555667829382e-08 -4.493364518642132726e-09 -1.440673068644887219e-08 1.791841947247283717e-08 -1.886324475394934836e-09 -9.497066727439713747e-09 -3.276681462063114790e-10 -3.893460609563544708e-09 -2.522343940912254042e-09 -1.778861006817673796e-09 -8.873286226772734812e-10 2.806922356452069910e-11 -9.958011738497492925e-09 1.390999910057272814e-08 -2.893798141213895885e-09 2.750551745137062170e-09 5.676345503896650128e-09 6.225683363135803267e-09 5.071179485625805083e-09 3.248894617014874163e-09 4.214192056155072997e-09 3.765964200742959342e-09 3.819478985288182338e-09 3.517722898218691182e-09 3.423544740460240780e-09 3.051047404944815933e-09 4.294734503743368125e-09 5.959041581721492864e-09 3.358146420078730436e-09 2.647055440865118953e-09 3.189962258904753468e-09 3.157852606086757470e-09 3.094600270785582742e-09 3.005528553058638055e-09 2.953507904397467728e-09 2.944084640968141724e-09 2.896810987878226839e-09 2.878934124602361640e-09
1.252003147095396313e-07 9.486248186943455962e-10 -3.155450082231605743e-09 -2.981733435201753797e-08 4.546338338951524054e-09 -3.990381252218829702e-09 -9.339029783490272062e-09 1.234512764482399096e-09 -2.215667758234653895e-09 -8.453939640291049203e-10 -1.925402942361092870e-10 -2.607249543731282585e-10 -1.575757996540959113e-10 -2.840855860190216607e-09 1.646721598941196294e-08 1.625256634292222943e-09 2.857522704960883277e-09 4.097593091464879815e-09 5.071179485625805083e-09 5.238307109841319903e-09 3.115832110101156407e-09 4.024664349916208442e-09 3.532358643614510165e-09 3.596148127659413852e-09 3.309630095859968382e-09 3.297415288314812526e-09 4.300928620784525400e-09 3.046946338747338298e-09 6.143982644539615063e-09 3.431606150265714313e-09 2.909960491056800223e-09 3.350907606950457911e-09 3.217434701223356671e-09 3.134048019017610751e-09 3.053381252931021900e-09 2.964780020208120564e-09 2.924174236300557663e-09 2.865157131868290702e-09 2.909150571297621269e-09
2.767004133666679289e-08 -2.513687705278991812e-08 1.261170519325563188e-08 -2.577586816472196581e-09 4.129259140271583415e-09 -7.216757226277271246e-09 -8.791162129658896197e-09 -4.467834704741762524e-10 -4.452060491417842516e-09 -2.153068885230060214e-09 -9.551447814544073372e-10 -8.312552741164822098e-10 -2.810762233021093376e-10 3.268457506538296673e-10 9.700609413737757587e-09 -2.061099587047707484e-09 -7.297207256095993990e-10 3.760886016747197730e-09 3.248894617014874577e-09 3.115832110101156407e-09 2.662087934173409022e-09 2.808456943806520213e-09 2.531489477113190608e-09 2.632784402314607523e-09 2.425534111628971232e-09 2.400282161680728448e-09 3.576584856267548705e-09 2.040366639837824604e-09 3.779298211758444592e-09 2.584665092893468451e-09 2.020237806846118739e-09 2.313280886011523821e-09 2.403257391321701843e-09 2.241850122220799810e-09 2.175396117010160472e-09 2.152198506498505851e-09 2.123521429499311799e-09 2.107231201338170548e-09 2.112625831015814403e-09
2.346875983416594026e-08 3.459951766266394631e-09 1.700320208779805036e-08 -5.455431667910393546e-09 8.007290394841943328e-09 -2.120930757192542084e-09 -7.652688745931393026e-09 -6.394062097809549628e-10 -2.233340260722320563e-09 -1.458719237865542558e-09 -7.749992822129862881e-10 -6.529406011013811694e-10 -6.855706092993300131e-10 -5.619264033496591353e-10 1.472982055826620289e-08 -2.303811109705187361e-09 1.887879462087309028e-10 4.059674728994053747e-09 4.214192056155072997e-09 4.024664349916208442e-09 2.808456943806520213e-09 3.644310964800549238e-09 3.267133754684388767e-09 3.249143730069317405e-09 2.939900976023052899e-09 2.915217158148497186e-09 3.332394610928137974e-09 3.039554425612869777e-09 5.215454757153020443e-09 2.953803288798010875e-09 2.470306191898690638e-09 2.807783782536450792e-09 2.886831052508555873e-09 2.772828537312453730e-09 2.717593122587021596e-09 2.695532830949467778e-09 2.664828506348461613e-09 2.595376094039856579e-09 2.596371539300232121e-09
1.212813667138243440e-08 2.883161421926807549e-09 1.385303103011751540e-08 -3.189848283454041428e-09 6.957516206622661730e-09 -3.697040136477180964e-09 -7.266229818133760252e-09 -8.967092249353847443e-10 -2.698562436458243760e-09 -2.111951847187589331e-09 -1.141317869416650278e-09 -8.153867376345683352e-10 -7.768931652198854188e-10 2.630838300962313347e-10 1.255379168855828314e-08 -1.964591337333012860e-09 -1.120280964788951732e-09 3.371384802608388200e-09 3.765964200742958515e-09 3.532358643614510165e-09 2.531489477113190195e-09 3.267133754684388767e-09 3.023548590420847257e-09 3.036190967139419620e-09 2.729666892356123210e-09 2.705009990384172564e-09 2.499505763375269046e-09 3.150541209053514273e-09 4.737414513377149427e-09 2.739606399124435426e-09 2.258630329843460730e-09 2.557655144285073400e-09 2.646085711586059709e-09 2.515081988577240597e-09 2.491915279462261752e-09 2.491413077669202577e-09 2.473515601657900109e-09 2.421462350054798602e-09 2.421185479963133922e-09
1.548412390132025934e-08 -3.267192934978846624e-09 1.047284007675060908e-08 -5.160422042249766079e-09 6.402360964555095803e-09 -5.758729843062528412e-09 -8.260787145264009962e-09 -9.510885346076157704e-10 -3.707749840302999001e-09 -2.689064137136528249e-09 -1.441376196189265016e-09 -9.903035789137474601e-10 -7.036752879493216560e-10 -1.828157642990625032e-09 1.236581466488710962e-08 -1.728520431467075743e-09 -1.473526431179592845e-09 3.361054045341213881e-09 3.819478985288181510e-09 3.596148127659413852e-09 2.632784402314607110e-09 3.249143730069317405e-09 3.036190967139419620e-09 3.102949550890421655e-09 2.789833186077939271e-09 2.775460443505054331e-09 2.373748258844409763e-09 3.184542339943415808e-09 4.756092333076434936e-09 2.833303583140541692e-09 2.312506211318701860e-09 2.625662143381247401e-09 2.704756598554562498e-09 2.550361125363991954e-09 2.522994052877278112e-09 2.520763830221072487e-09 2.498759385344931641e-09 2.461590444082723902e-09 2.472783061049385933e-09
2.650634246991748681e-08 -1.867935204427957152e-08 1.056114501298105385e-08 -5.832539389758303382e-09 6.360690660959029405e-09 -4.780321465240109131e-09 -7.495149217421904215e-09 -9.024988561855925983e-10 -3.494094504422670932e-09 -2.379396445908875511e-09 -1.366099335824889842e-09 -1.071758967742900791e-09 -8.332331413823750934e-10 2.737513134428682891e-09 9.900289599242764766e-09 5.978409499718729312e-10 -5.747088600951676073e-10 3.248756344780415819e-09 3.517722898218691182e-09 3.309630095859968382e-09 2.425534111628970818e-09 2.939900976023053727e-09 2.729666892356123210e-09 2.789833186077939271e-09 2.567750245235019491e-09 2.534627119776539594e-09 2.829134630342167684e-09 2.936197184097215520e-09 4.262338767687341651e-09 2.674006538280919591e-09 2.080160145653098080e-09 2.382713512455569667e-09 2.465594147492385473e-09 2.296103795457114081e-09 2.292439861343542105e-09 2.281780793525717109e-09 2.268909137744317420e-09 2.252544491720829430e-09 2.255500520830228936e-09
1.615579667464756497e-08 -1.555847737530702692e-08 1.252937980530235630e-08 -6.887018432344966358e-09 6.471155606667181264e-09 -4.730429109712410948e-09 -7.456223059281591681e-09 -1.215190857999663787e-09 -3.689464712627392276e-09 -2.556573665959112283e-09 -1.544841464571778548e-09 -1.229425559248557941e-09 -8.869241061787864079e-10 -4.655345509488926886e-10 1.162850900343211804e-08 5.578937368929598342e-10 -7.599761222130730076e-10 3.100873059829926546e-09 3.423544740460240780e-09 3.297415288314812939e-09 2.400282161680728448e-09 2.915217158148497186e-09 2.705009990384172564e-09 2.775460443505054331e-09 2.534627119776539180e-09 2.533483229767046437e-09 2.565297909843656059e-09 2.827289187964483435e-09 4.296793428126690047e-09 2.604875221722816636e-09 2.084837017096606773e-09 2.381381968859948028e-09 2.473769961629622793e-09 2.300133915590238618e-09 2.284505329607215854e-09 2.276486892434057809e-09 2.249906473076330121e-09 2.231696258506351638e-09 2.252470361641370487e-09
4.981173402218295135e-07 -1.138889862697539975e-07 2.026327591547974330e-08 -3.969177138740223672e-08 -1.466122148542378144e-08 -4.019360285329334922e-09 -3.042871868939832093e-09 7.920950524971619219e-09 1.982879918025845101e-09 5.458188064570314529e-09 5.079863772444115963e-09 1.438822894030982907e-09 4.830884297348232349e-10 8.462656400832550074e-08 1.054086124636823821e-08 1.740469669521685154e-08 6.491212274505734216e-09 4.531730605301694825e-09 3.051047404944815519e-09 4.300928620784525400e-09 3.576584856267547878e-09 3.332394610928137974e-09 2.499505763375269046e-09 2.373748258844409763e-09 2.829134630342168097e-09 2.565297909843656059e-09 1.847058118852957505e-08 4.003763610673312781e-11 3.136496403973761358e-09 2.843078645325353431e-09 2.131188701956710172e-09 2.677946645786279103e-09 2.369572646282940393e-09 2.398844515310591754e-09 2.370143509113700343e-09 2.239413083983814216e-09 2.354304928205464611e-09 2.330580245981720891e-09 2.285623660902375446e-09
-4.074324576843401214e-08 2.202778359041547573e-08 3.484860344743577656e-08 -1.296912506950801533e-08 2.008903355507752448e-08 -5.492897994678479639e-09 -1.370989429439113417e-09 -2.016620265044006683e-09 -3.495740074198346791e-09 -3.834068507134628115e-09 -4.303275725291963669e-09 -3.616951626372623618e-09 -2.726844429492079827e-09 1.196607826398214363e-08 1.257825918717585346e-08 4.144864348817593121e-09 -5.195878192514624981e-09 2.764582006599846424e-09 4.294734503743368125e-09 3.046946338747338298e-09 2.040366639837824190e-09 3.039554425612869777e-09 3.150541209053514273e-09 3.184542339943414981e-09 2.936197184097215520e-09 2.827289187964483849e-09 4.003763610673330229e-11 6.841325551482824044e-09 5.084015469590401533e-09 3.073093608618645121e-09 2.167852633534835213e-09 2.396612613910301859e-09 2.642764671373390306e-09 2.343317248387883387e-09 2.550404640875109311e-09 2.604847719963155651e-09 2.643632840221725903e-09 2.660387570231906581e-09 2.542447659701679755e-09
1.585285792025913132e-08 4.447992053094103630e-08 2.883294841833790358e-08 -2.554714206995582510e-08 1.037353176640266025e-08 -4.228011988907323916e-09 -9.873002000113165694e-09 -9.888346400544063335e-10 -2.809426950549655878e-09 -2.052495402751391187e-09 -1.773729778377640829e-09 -1.749638653044316393e-09 -1.839394388308871535e-09 -6.085909377945402737e-09 2.464261178168561876e-08 6.418953873711662103e-10 -2.900890003171413776e-10 4.774003163236588444e-09 5.959041581721492864e-09 6.143982644539615063e-09 3.779298211758444592e-09 5.215454757153020443e-09 4.737414513377149427e-09 4.756092333076434936e-09 4.262338767687341651e-09 4.296793428126690047e-09 3.136496403973761358e-09 5.084015469590401533e-09 8.356687333761376272e-09 4.581804561149990828e-09 3.877413079873229011e-09 4.275201247478224787e-09 4.375855954472902416e-09 4.124410111054582595e-09 4.108365567538466694e-09 4.052930184492911277e-09 3.972858316469336959e-09 3.886016909932140868e-09 3.908980743163650136e-09
-2.240439015993933716e-08 -2.848688068022954189e-08 1.808316781887129295e-08 -3.312033322680276210e-09 4.788310959516508090e-09 -6.415280923093908362e-09 -9.879277043530460080e-09 -1.609166458883214858e-09 -4.402690747109947215e-09 -2.448816951631014556e-09 -1.664429319486487393e-09 -1.585720129463006279e-09 -1.816589315091582934e-09 6.567916092894900901e-09 3.112158954715925635e-09 3.844367811315391705e-09 2.791287032207563891e-10 3.766692228374909134e-09 3.358146420078730023e-09 3.431606150265714313e-09 2.584665092893468038e-09 2.953803288798010875e-09 2.739606399124435426e-09 2.833303583140542106e-09 2.674006538280919591e-09 2.604875221722816636e-09 2.843078645325353431e-09 3.073093608618645535e-09 4.581804561149991655e-09 3.493881213141313655e-09 2.365421913417522669e-09 2.582930262442154198e-09 2.790951212695475122e-09 2.425539040126805697e-09 2.505453111110191635e-09 2.453944184511323445e-09 2.423263415124640586e-09 2.456863877132104483e-09 2.423146936230427384e-09
2.552477419343805834e-08 2.017791462720379619e-08 1.248647740186473484e-08 -1.211632544836167891e-08 9.103881438935710756e-10 -5.590104044403495335e-09 -5.973577652669575334e-09 1.969825981637763216e-10 -2.052326626826230170e-09 -1.002129249257984767e-09 -5.124265270356058601e-10 -6.495090958805133563e-10 -6.731641720486537648e-10 5.467554542509901274e-10 1.036828977168575520e-08 -1.606160275494995165e-10 -1.008756030505879090e-09 2.298679677349386569e-09 2.647055440865119367e-09 2.909960491056800636e-09 2.020237806846118739e-09 2.470306191898690638e-09 2.258630329843460730e-09 2.312506211318701860e-09 2.080160145653098494e-09 2.084837017096606773e-09 2.131188701956710585e-09 2.167852633534835213e-09 3.877413079873229011e-09 2.365421913417522669e-09 1.958451195817419925e-09 2.133296823819271936e-09 2.168101940929203774e-09 2.025176016109439000e-09 2.013023876199154777e-09 1.981438586583989598e-09 1.946737423654828389e-09 1.913372074995147987e-09 1.919927887914864532e-09
4.388957348223296708e-08 6.729619119213601438e-09 8.733217940753313884e-09 -1.329516858832362112e-08 2.211140679062296898e-09 -5.683129021826731372e-09 -7.101983002156139779e-09 1.273440767482425571e-10 -2.626343111513198148e-09 -1.408470251993451173e-09 -6.528461092739836956e-10 -6.609688372311760049e-10 -5.513207250460874413e-10 8.264299707017354722e-11 1.136785039373708131e-08 7.471806015440535198e-11 -4.688468340066157999e-10 2.769773887705212590e-09 3.189962258904753468e-09 3.350907606950457911e-09 2.313280886011523821e-09 2.807783782536450792e-09 2.557655144285073400e-09 2.625662143381247401e-09 2.382713512455569667e-09 2.381381968859948028e-09 2.677946645786278689e-09 2.396612613910302272e-09 4.275201247478225614e-09 2.582930262442154198e-09 2.133296823819271936e-09 2.383185064315251779e-09 2.397680406201103039e-09 2.260438595939555321e-09 2.232089960716172271e-09 2.198194136901237570e-09 2.166634519046833025e-09 2.133771701912383559e-09 2.151034406456959786e-09
-2.207704022594731181e-08 -6.766670248772656951e-09 2.170985369247448469e-08 -4.396763004101461897e-09 5.934643609166180689e-09 -4.525653408762779828e-09 -7.732261067153643744e-09 -1.620240037966366903e-09 -3.596816525750108599e-09 -2.226662704091314589e-09 -1.534852941422209259e-09 -1.417582427398212001e-09 -1.292661056370409359e-09 -1.298802488713111311e-09 1.082242673190268326e-08 5.647467077919102843e-10 -6.898854329372806089e-10 3.258167005275427907e-09 3.157852606086757470e-09 3.217434701223356257e-09 2.403257391321701843e-09 2.886831052508555873e-09 2.646085711586059709e-09 2.704756598554562498e-09 2.465594147492385473e-09 2.473769961629622793e-09 2.369572646282939979e-09 2.642764671373389893e-09 4.375855954472902416e-09 2.790951212695475122e-09 2.168101940929203360e-09 2.397680406201102626e-09 2.564441133162453504e-09 2.326749642248971843e-09 2.325559670981342221e-09 2.304094091587903335e-09 2.256265697509041517e-09 2.241560219587007755e-09 2.250524645445299977e-09
1.498297194860072412e-08 8.187898433112145108e-09 1.443869065951812340e-08 -7.626071371784643841e-09 4.229844109078649272e-09 -4.139106635101776501e-09 -6.535212052953594839e-09 -4.465934719623344279e-10 -2.446337155699714039e-09 -1.432083759204152659e-09 -7.959050708722606686e-10 -7.492140143344775058e-10 -6.407058041237571132e-10 -1.574371971629783104e-09 1.195089170828781290e-08 -1.246046216387632542e-09 -6.614286611727850341e-10 2.909215203407880033e-09 3.094600270785583569e-09 3.134048019017610751e-09 2.241850122220800224e-09 2.772828537312454144e-09 2.515081988577241010e-09 2.550361125363992368e-09 2.296103795457114081e-09 2.300133915590239032e-09 2.398844515310591754e-09 2.343317248387883387e-09 4.124410111054582595e-09 2.425539040126805697e-09 2.025176016109439000e-09 2.260438595939555321e-09 2.326749642248971843e-09 2.196323441153651576e-09 2.159648263560456864e-09 2.138565379276568189e-09 2.102794622798680650e-09 2.060563854858271778e-09 2.071701411447102505e-09
8.585039528936974618e-09 4.940197911818974258e-09 1.654887635753113300e-08 -7.140743447031821353e-09 4.426311183730237637e-09 -4.030918031667274017e-09 -6.288222174016071862e-09 -6.713184527563243468e-10 -2.436262659477919044e-09 -1.528878896566153928e-09 -9.723878699153482105e-10 -9.531801228556978877e-10 -9.527399323226481539e-10 1.463942649619326343e-09 1.065536674696305310e-08 1.499873731241005302e-10 -7.460998056105181233e-10 2.804855994968394065e-09 3.005528553058638055e-09 3.053381252931021900e-09 2.175396117010160472e-09 2.717593122587022010e-09 2.491915279462261752e-09 2.522994052877278112e-09 2.292439861343542105e-09 2.284505329607216268e-09 2.370143509113700343e-09 2.550404640875109311e-09 4.108365567538466694e-09 2.505453111110191635e-09 2.013023876199154777e-09 2.232089960716172271e-09 2.325559670981342635e-09 2.159648263560457277e-09 2.156665393814076965e-09 2.137580733958612325e-09 2.107648983205503815e-09 2.077404680163700330e-09 2.078460911936144020e-09
2.366854714519663626e-09 4.886895351470822167e-09 1.746457671704864269e-08 -5.499817292412979590e-09 4.717878694980035918e-09 -4.065977262139897891e-09 -6.155184828625300316e-09 -8.554833726008998082e-10 -2.529448858575404812e-09 -1.714328392586112850e-09 -1.086562370397256002e-09 -1.011439574685433184e-09 -9.857900979036829932e-10 1.465218483001030167e-09 1.084689548499308176e-08 -1.233648036907953976e-10 -1.132077567580366442e-09 2.732840008065235805e-09 2.953507904397467728e-09 2.964780020208120564e-09 2.152198506498505851e-09 2.695532830949467778e-09 2.491413077669202990e-09 2.520763830221072487e-09 2.281780793525717109e-09 2.276486892434057809e-09 2.239413083983814216e-09 2.604847719963155651e-09 4.052930184492912104e-09 2.453944184511323445e-09 1.981438586583989598e-09 2.198194136901237570e-09 2.304094091587903335e-09 2.138565379276568189e-09 2.137580733958612325e-09 2.127671691679517272e-09 2.099756989353524258e-09 2.068713206280121237e-09 2.070225786397930205e-09
1.288070911145358075e-08 4.144942419689767964e-09 1.553318798751514255e-08 -5.505251295693448946e-09 4.295047531881851123e-09 -4.202880858521927892e-09 -5.961332252824995110e-09 -6.095124328832711665e-10 -2.361845437830981082e-09 -1.629739708332017953e-09 -9.658727254904454513e-10 -8.981278287466727178e-10 -9.136226263853307646e-10 3.447211448860033630e-09 1.016268761673744326e-08 -3.873973827618193618e-11 -1.190901473154069067e-09 2.664842525622066343e-09 2.944084640968141311e-09 2.924174236300557663e-09 2.123521429499311799e-09 2.664828506348461199e-09 2.473515601657900109e-09 2.498759385344931641e-09 2.268909137744317420e-09 2.249906473076330121e-09 2.354304928205464611e-09 2.643632840221725490e-09 3.972858316469336959e-09 2.423263415124640586e-09 1.946737423654827976e-09 2.166634519046833025e-09 2.256265697509041517e-09 2.102794622798680650e-09 2.107648983205503815e-09 2.099756989353523845e-09 2.081456469245076673e-09 2.050304328938846282e-09 2.045827765155257280e-09
7.233149399910941396e-09 -4.373738665792255375e-09 1.545141158382795334e-08 -4.954159544344336654e-09 4.638527648806145300e-09 -4.407877485554582980e-09 -6.256484969554981278e-09 -8.965188977088469973e-10 -2.773346968214900903e-09 -1.901787769970416814e-09 -1.186950273589006484e-09 -1.073746254556495022e-09 -1.044360684490367770e-09 3.746702962064294410e-09 9.109696118626988306e-09 8.192671371707820359e-10 -1.063619052781979214e-09 2.682526065717987381e-09 2.896810987878226839e-09 2.865157131868290702e-09 2.107231201338170134e-09 2.595376094039856579e-09 2.421462350054798602e-09 2.461590444082723902e-09 2.252544491720829430e-09 2.231696258506351638e-09 2.330580245981720891e-09 2.660387570231906581e-09 3.886016909932141696e-09 2.456863877132104483e-09 1.913372074995147987e-09 2.133771701912383559e-09 2.241560219587008169e-09 2.060563854858271778e-09 2.077404680163700330e-09 2.068713206280121237e-09 2.050304328938846282e-09 2.032983360509173735e-09 2.029118672237630045e-09
8.460740911339530086e-09 -7.025872534092152401e-09 1.391816191625832224e-08 -5.724918015601350445e-09 4.312770147164874674e-09 -4.422397997142708199e-09 -6.570490080529498646e-09 -1.051102246431712940e-09 -2.972596361230439609e-09 -2.083273207621754423e-09 -1.241360063279523182e-09 -1.080896316693234665e-09 -1.007836598514725305e-09 1.937590844600810977e-09 9.774528988032217149e-09 1.008182741263824372e-09 -9.581785244121608295e-10 2.591734676906785671e-09 2.878934124602362054e-09 2.909150571297620855e-09 2.112625831015814817e-09 2.596371539300232534e-09 2.421185479963133922e-09 2.472783061049386346e-09 2.255500520830228936e-09 2.252470361641370487e-09 2.285623660902375446e-09 2.542447659701679755e-09 3.908980743163650963e-09 2.423146936230427384e-09 1.919927887914864946e-09 2.151034406456960200e-09 2.250524645445299977e-09 2.071701411447102505e-09 2.078460911936144434e-09 2.070225786397930619e-09 2.045827765155257280e-09 2.029118672237630045e-09 2.041584221131620794e-09
