1.137183687689447676e-04 1.363745036351918791e-05 8.356555917875905579e-06 6.567236346056122618e-06 1.219292145345542545e-06 6.522857427609972660e-06 5.782468426202126345e-06 3.738469173280259229e-06 3.748134286774686403e-06 3.730074343067012879e-06 2.886856541475540870e-06 2.016887765445736367e-06 1.312414576067241777e-06 -2.704442941723503733e-05 -4.052268047153781676e-05 -4.612099250076700244e-05 -4.734923922581887933e-05 -4.749686656108583513e-05 -4.704666118858695734e-05 -4.722485318057394692e-05 -4.832976865493838223e-05 -4.868845508950861770e-05 -4.845719936191422521e-05 -4.844686055617174262e-05 -4.929517090097355019e-05 -5.031269348775975979e-05 -5.145348063342213067e-05 -5.127847984317761542e-05 -5.114593486725636101e-05 -5.157485260417190643e-05 -5.155003074485253186e-05 -5.183400254116103981e-05 -5.203610787072003444e-05 -5.221963405775290550e-05 -5.226582941199318287e-05 -5.207166132119653160e-05 -5.165107635096903533e-05 -5.154818275022490082e-05 -5.165600169171539986e-05
1.363745036351918791e-05 2.682861355025737806e-05 1.909720253532517539e-06 7.579419721439791025e-06 2.533679141731595930e-06 2.022077985450281188e-06 2.149769139469193691e-06 2.456605845181451651e-06 2.104946463605883137e-06 2.029728782625254979e-06 2.283793132034923721e-06 1.895341924735495776e-06 1.569276276316519137e-06 -9.508955882732016653e-06 -2.968149337245765911e-06 -9.796647847192943906e-06 -9.059856386481542721e-06 -6.495305320982407569e-06 -8.078897692045421665e-06 -8.232160354487690765e-06 -8.370958061923348284e-06 -8.635051208689972454e-06 -8.805632779582560064e-06 -8.978420217555503104e-06 -9.501990448425826237e-06 -1.057775707387449482e-05 -9.319320568427468665e-06 -9.001688997591672354e-06 -1.017506890023743397e-05 -9.999921564062695309e-06 -1.024515784844292216e-05 -1.022038784976940479e-05 -1.041048090119043478e-05 -1.057075711876269066e-05 -1.073584108794381604e-05 -1.086099438841537589e-05 -1.103647941913850017e-05 -1.137199044633547332e-05 -1.214207086448798706e-05
8.356555917875907273e-06 1.909720253532517539e-06 5.239817606609235987e-06 4.759056955065154110e-07 6.802279390828300667e-07 1.119436413041478656e-06 1.113767175654553679e-06 9.852283624406141273e-07 8.852098578069006132e-07 9.478650503324405469e-07 7.327259745422887878e-07 5.593643306308610182e-07 4.546984740022368405e-07 -7.055750288343653489e-06 -8.613362103310969348e-06 -1.018574268001913233e-05 -9.719883043504525330e-06 -9.452347726005421669e-06 -9.222203774314573544e-06 -9.539419031012543490e-06 -9.717692715180806893e-06 -9.867408962254681492e-06 -9.950424105480100962e-06 -1.002930017657135385e-05 -1.010621070214244635e-05 -1.007040137815820870e-05 -1.021634105405266171e-05 -1.006023940341699235e-05 -1.002063536524392653e-05 -1.016395759045985939e-05 -1.026463310594437405e-05 -1.035445247931105148e-05 -1.046039564736059699e-05 -1.055056361427790281e-05 -1.062758600014976531e-05 -1.069783199222684166e-05 -1.071406353861409055e-05 -1.070710294974076922e-05 -1.052216819969375320e-05
6.567236346056123466e-06 7.579419721439792719e-06 4.759056955065154110e-07 5.656212400277158743e-06 1.318582668289016730e-06 4.591659764304191197e-07 5.272291219900661910e-07 6.485613957190287559e-07 7.321500662618354361e-07 7.302025886754093334e-07 7.142849883615558575e-07 5.235876657457068349e-07 4.139084509158105080e-07 -6.674623524343681719e-06 -5.154575565583912263e-06 -6.918299833152064470e-06 -6.643564209509395756e-06 -6.149116868561980012e-06 -6.321875003599285597e-06 -6.460641694358815304e-06 -6.485671513439722659e-06 -6.518880435264002204e-06 -6.543104473399621362e-06 -6.563993043947585529e-06 -6.626931090116486452e-06 -6.792878299302755787e-06 -7.131724612637779142e-06 -6.790897526769479656e-06 -7.229830698626326634e-06 -7.007486651201243380e-06 -7.126732622522280363e-06 -7.074738964590463803e-06 -7.122542611791659525e-06 -7.157222199535897852e-06 -7.154248293300626178e-06 -7.153948087084839530e-06 -7.140315206159116360e-06 -7.171124933042401161e-06 -7.246250404176860117e-06
1.219292145345542545e-06 2.533679141731595930e-06 6.802279390828299608e-07 1.318582668289016730e-06 6.102570184834214450e-07 1.324246180356561036e-07 3.916889416446076424e-07 4.313035082416666764e-07 4.519461787668561698e-07 4.202712116810156968e-07 4.170734064386858102e-07 3.373333249549444728e-07 2.505629856037891362e-07 -1.272945228698922117e-06 -1.394720797806330808e-06 -1.896212116887069293e-06 -1.745490391116153665e-06 -1.418305704572903843e-06 -1.531032765158807233e-06 -1.650269303705153267e-06 -1.660214842762955242e-06 -1.713177865242426365e-06 -1.766192709379011505e-06 -1.848795724054002729e-06 -1.960666445005901982e-06 -2.102164903682682109e-06 -2.008643333030866819e-06 -1.793575657260085244e-06 -1.979686075519527093e-06 -1.967238027260679440e-06 -2.018698170481144966e-06 -2.050201526770126702e-06 -2.098146950454058925e-06 -2.128115711325007740e-06 -2.160368460837377659e-06 -2.201456598226065803e-06 -2.258908552497321615e-06 -2.332017319948414436e-06 -2.405138230368357305e-06
6.522857427609971813e-06 2.022077985450281611e-06 1.119436413041478656e-06 4.591659764304191197e-07 1.324246180356560772e-07 9.433970688860817970e-07 5.376394388030357944e-07 3.895744186976876441e-07 3.195148406338760618e-07 2.889406667020859950e-07 2.828042662644082509e-07 2.217926156683233810e-07 1.972389792390907593e-07 -1.240629621195126335e-06 -7.896647948158627877e-07 -1.915080771201097809e-06 -1.909539010966076592e-06 -1.687805957010834685e-06 -1.743013464879290511e-06 -1.741035629620294408e-06 -1.833226507087159260e-06 -1.889094069303416122e-06 -1.884314553592319620e-06 -1.895832357242186284e-06 -1.946714443821278397e-06 -2.040585621475075191e-06 -1.933600185638516027e-06 -2.083988301023219813e-06 -2.060101907277390386e-06 -2.117034029793367377e-06 -2.160662255295595335e-06 -2.150527547373480196e-06 -2.183540795617639698e-06 -2.210419419454950157e-06 -2.228654292952837679e-06 -2.220216664993332723e-06 -2.201208788097937655e-06 -2.197791481714246835e-06 -2.227381995700827928e-06
5.782468426202126345e-06 2.149769139469193691e-06 1.113767175654553468e-06 5.272291219900661910e-07 3.916889416446076424e-07 5.376394388030357944e-07 8.149396158768339453e-07 7.250924548798384253e-07 6.200496047710772162e-07 6.052781365711385857e-07 5.578902353842165075e-07 4.748873726015219649e-07 3.277544439980764747e-07 -7.463280446682822462e-07 -1.387712943524605315e-06 -2.385921541583981781e-06 -2.343741434954120632e-06 -2.193203932356232724e-06 -2.283011177265705118e-06 -2.314051675905242044e-06 -2.364114944812919065e-06 -2.448334711634775117e-06 -2.474086093366595446e-06 -2.560893817934471980e-06 -2.721297621540104889e-06 -2.922495064748338216e-06 -2.941051832014622611e-06 -2.861773937406071906e-06 -2.931540841658732478e-06 -2.959434977996274779e-06 -3.002544995754001101e-06 -3.037215324299385079e-06 -3.090854848285719913e-06 -3.119837631388981669e-06 -3.150611811315904456e-06 -3.168251560134598040e-06 -3.193726478886403602e-06 -3.244657731678722967e-06 -3.292832303085082364e-06
3.738469173280259229e-06 2.456605845181451651e-06 9.852283624406139155e-07 6.485613957190288618e-07 4.313035082416667823e-07 3.895744186976876441e-07 7.250924548798384253e-07 6.985563548883930753e-07 5.903656912506045951e-07 5.836268954884853352e-07 5.579684929291901091e-07 4.860676708603738511e-07 3.437491474898233977e-07 -7.166833432853856091e-07 -9.869928480224543474e-07 -1.985327499429693234e-06 -1.911020803805535715e-06 -1.720296352972597714e-06 -1.849418060318842369e-06 -1.879598932255395587e-06 -1.905606037656307385e-06 -1.983287191768066125e-06 -2.011404013199520699e-06 -2.092852361217751198e-06 -2.240905619624979194e-06 -2.440000222355504065e-06 -2.479575792885731137e-06 -2.369328164172363169e-06 -2.473568409276583772e-06 -2.474163266264086989e-06 -2.523966274551133156e-06 -2.550365053640879039e-06 -2.599638115816682852e-06 -2.625088362516189922e-06 -2.653042496038178998e-06 -2.674203855665941815e-06 -2.707198711525573546e-06 -2.765545931670730128e-06 -2.824918330926455465e-06
3.748134286774686403e-06 2.104946463605883137e-06 8.852098578069004014e-07 7.321500662618353302e-07 4.519461787668561698e-07 3.195148406338760618e-07 6.200496047710772162e-07 5.903656912506045951e-07 5.405848935966100936e-07 5.222852978189372746e-07 5.009806299868544580e-07 4.288942739642116572e-07 3.042162979455379767e-07 -9.193160059233499438e-07 -1.398494909228391520e-06 -2.111699435760476561e-06 -2.056397324302291181e-06 -1.843257432484702909e-06 -1.947833191468151325e-06 -2.008418028739344435e-06 -2.038080543953317219e-06 -2.104258875537612572e-06 -2.132536799120405831e-06 -2.209398389945106184e-06 -2.348964064765299730e-06 -2.530422479232614586e-06 -2.553112266679245869e-06 -2.401703712896376572e-06 -2.512460788046959228e-06 -2.519809270048160131e-06 -2.565374781440957233e-06 -2.598106232692862686e-06 -2.643873288391246092e-06 -2.668379541737742773e-06 -2.694181158461895980e-06 -2.717916586071097065e-06 -2.754680742258637155e-06 -2.818034661440633960e-06 -2.883352221722832934e-06
3.730074343067012879e-06 2.029728782625254979e-06 9.478650503324405469e-07 7.302025886754093334e-07 4.202712116810157497e-07 2.889406667020859950e-07 6.052781365711385857e-07 5.836268954884853352e-07 5.222852978189373805e-07 5.218922552507831598e-07 4.855880780647586453e-07 4.161153357710429366e-07 2.898251512335038834e-07 -1.335286068168647243e-06 -1.759142803781190712e-06 -2.525540216402785327e-06 -2.452859443206847351e-06 -2.289238569516497901e-06 -2.371329616051279721e-06 -2.429131706913543869e-06 -2.460142869928523376e-06 -2.520956374154790631e-06 -2.543631867537103767e-06 -2.608344345624236926e-06 -2.733349515243659075e-06 -2.892261602792297758e-06 -2.980659864279845915e-06 -2.835788681080500678e-06 -2.930958779628040255e-06 -2.930377345562042588e-06 -2.972167364539714450e-06 -3.000376975593664339e-06 -3.041838817345170085e-06 -3.064309535572577757e-06 -3.085821659268984275e-06 -3.104931044149683082e-06 -3.131052838740267614e-06 -3.181930859887213018e-06 -3.222911345878402873e-06
2.886856541475540446e-06 2.283793132034923721e-06 7.327259745422887878e-07 7.142849883615559633e-07 4.170734064386858102e-07 2.828042662644082509e-07 5.578902353842165075e-07 5.579684929291901091e-07 5.009806299868544580e-07 4.855880780647586453e-07 4.952427712173071227e-07 4.395040813643877162e-07 3.258515902600429994e-07 -7.620472581486926938e-07 -9.078383642088249117e-07 -1.640190402841138975e-06 -1.616669898126402923e-06 -1.374904475319859325e-06 -1.521824975748234653e-06 -1.555876420131723169e-06 -1.572367812705977921e-06 -1.630781409064123065e-06 -1.646599453143770358e-06 -1.705318778185840234e-06 -1.830927745972815510e-06 -2.020189929263055340e-06 -2.083593108535250955e-06 -1.938990246812743326e-06 -2.057358380914424365e-06 -2.044945980600766198e-06 -2.096177672139033516e-06 -2.115633940096704479e-06 -2.152197621619921882e-06 -2.169657423713895021e-06 -2.187033088667046647e-06 -2.204000265292954389e-06 -2.236801938356578379e-06 -2.302168783972589600e-06 -2.388789521457500178e-06
2.016887765445736790e-06 1.895341924735495776e-06 5.593643306308610182e-07 5.235876657457068349e-07 3.373333249549444728e-07 2.217926156683233280e-07 4.748873726015219649e-07 4.860676708603738511e-07 4.288942739642116572e-07 4.161153357710429366e-07 4.395040813643877162e-07 4.021920355981844615e-07 3.009909770388242260e-07 -4.038799998537804486e-07 -4.178613835729305957e-07 -1.046216036549091412e-06 -1.051216723832521139e-06 -8.388746653047383421e-07 -9.851649939917483893e-07 -9.991181374862292388e-07 -1.005630951507594547e-06 -1.053682425268812104e-06 -1.059625219738067758e-06 -1.105185002812312048e-06 -1.213673987767066365e-06 -1.388384993128732705e-06 -1.480922562747568600e-06 -1.355691877426436055e-06 -1.454137414468526917e-06 -1.436220519153910448e-06 -1.483948270679767731e-06 -1.495469791851046526e-06 -1.522926797226764452e-06 -1.533281331648025878e-06 -1.543327723858962760e-06 -1.554119922296293108e-06 -1.581990312939575175e-06 -1.642574864938579036e-06 -1.728242550964432992e-06
1.312414576067241777e-06 1.569276276316519349e-06 4.546984740022368405e-07 4.139084509158105080e-07 2.505629856037891362e-07 1.972389792390907328e-07 3.277544439980764747e-07 3.437491474898233977e-07 3.042162979455379767e-07 2.898251512335038834e-07 3.258515902600429994e-07 3.009909770388242260e-07 2.415324365325911448e-07 -2.694186000049522213e-07 -1.808681572618653070e-07 -6.473192713825968990e-07 -6.664252797907444247e-07 -4.699442674654950609e-07 -5.977277664126275892e-07 -6.008577256015401421e-07 -6.027135234797431524e-07 -6.392526198314104117e-07 -6.415043346164304166e-07 -6.684028429364776833e-07 -7.399904685630516532e-07 -8.706774312963560330e-07 -9.281336940849527390e-07 -8.404855096545681012e-07 -9.225500889057920073e-07 -9.045165302675800520e-07 -9.468010592413684022e-07 -9.513904510628667781e-07 -9.702236004067953000e-07 -9.775994057218883072e-07 -9.841746700723032128e-07 -9.917502770999771208e-07 -1.012585145584845606e-06 -1.058539426995241674e-06 -1.136043916715389275e-06
-2.704442941723503733e-05 -9.508955882732020041e-06 -7.055750288343653489e-06 -6.674623524343681719e-06 -1.272945228698922117e-06 -1.240629621195126335e-06 -7.463280446682822462e-07 -7.166833432853858208e-07 -9.193160059233501555e-07 -1.335286068168647243e-06 -7.620472581486929056e-07 -4.038799998537805544e-07 -2.694186000049522743e-07 3.122835370618070461e-05 3.005884610564911856e-05 3.390917161558550872e-05 3.289586416499959166e-05 3.255369169408996958e-05 3.199369605408533123e-05 3.273053871516136084e-05 3.323470260428357833e-05 3.317826217436646525e-05 3.309823899520023124e-05 3.276076306497920955e-05 3.255490643450712461e-05 3.216775554803353980e-05 3.372418340771936838e-05 3.322023588966770006e-05 3.325185725581581017e-05 3.320034937585242734e-05 3.325110784062856840e-05 3.323106192115831938e-05 3.324976792622758465e-05 3.334917321564730586e-05 3.331756927423641310e-05 3.327601902234767330e-05 3.300418519436263700e-05 3.279739712975599859e-05 3.229240117232257026e-05
-4.052268047153781676e-05 -2.968149337245768029e-06 -8.613362103310967654e-06 -5.154575565583912263e-06 -1.394720797806331019e-06 -7.896647948158627877e-07 -1.387712943524605315e-06 -9.869928480224547710e-07 -1.398494909228391520e-06 -1.759142803781190712e-06 -9.078383642088253352e-07 -4.178613835729303310e-07 -1.808681572618652541e-07 3.005884610564911856e-05 3.840454588697420762e-05 3.927074053913877420e-05 3.865140933178800816e-05 3.910910656993306193e-05 3.798329146385252282e-05 3.887979085785638099e-05 3.941764502057750326e-05 3.945759009089014444e-05 3.946345116254971390e-05 3.931870969468694114e-05 3.932294199631373034e-05 3.892582482616997508e-05 4.059324474413489347e-05 3.954124736992471468e-05 3.952461414487491877e-05 3.962890063833238012e-05 3.959139818967384795e-05 3.983102869546522597e-05 3.990985855347449642e-05 4.003876063881487194e-05 4.006116781653652038e-05 4.008763853278097552e-05 3.987335756710364806e-05 3.968863362454256081e-05 3.906754269848881976e-05
-4.612099250076700922e-05 -9.796647847192942212e-06 -1.018574268001913064e-05 -6.918299833152064470e-06 -1.896212116887069293e-06 -1.915080771201097809e-06 -2.385921541583981358e-06 -1.985327499429693234e-06 -2.111699435760476561e-06 -2.525540216402785750e-06 -1.640190402841138975e-06 -1.046216036549091412e-06 -6.473192713825971107e-07 3.390917161558550872e-05 3.927074053913877420e-05 4.330327838396379826e-05 4.233521665330729439e-05 4.233667256505781445e-05 4.150409941383741987e-05 4.239496683831202832e-05 4.303087981220807279e-05 4.315941526466766860e-05 4.317483034983881106e-05 4.305175977406675215e-05 4.316672408583164448e-05 4.299558970840753719e-05 4.466296785167769531e-05 4.378389885870493308e-05 4.387453639255004678e-05 4.395300753824362702e-05 4.399938352493324399e-05 4.418167419586106797e-05 4.431827771947624583e-05 4.449177476995154842e-05 4.454528850527578919e-05 4.456664166116511950e-05 4.433092548348794562e-05 4.415971875765983720e-05 4.357571693636720216e-05
-4.734923922581888610e-05 -9.059856386481544415e-06 -9.719883043504523636e-06 -6.643564209509395756e-06 -1.745490391116153665e-06 -1.909539010966077016e-06 -2.343741434954120632e-06 -1.911020803805535715e-06 -2.056397324302291181e-06 -2.452859443206847351e-06 -1.616669898126402923e-06 -1.051216723832520927e-06 -6.664252797907444247e-07 3.289586416499959166e-05 3.865140933178800816e-05 4.233521665330729439e-05 4.158426108758847962e-05 4.165027452269425245e-05 4.084188058036392061e-05 4.165509090408034485e-05 4.227675285021434561e-05 4.239178600983184816e-05 4.236799516366174560e-05 4.221676031274209702e-05 4.232932137991836532e-05 4.219360555422157447e-05 4.398906343799228108e-05 4.311280849682306898e-05 4.317909564502908187e-05 4.323885977504362199e-05 4.328321900732059866e-05 4.345621576886668025e-05 4.357204150597638573e-05 4.372566324129542012e-05 4.375603768537963701e-05 4.375303645371308081e-05 4.350034093676460596e-05 4.333104594238309929e-05 4.279665864770824084e-05
-4.749686656108583513e-05 -6.495305320982409263e-06 -9.452347726005421669e-06 -6.149116868561980012e-06 -1.418305704572904055e-06 -1.687805957010835532e-06 -2.193203932356233147e-06 -1.720296352972598138e-06 -1.843257432484703121e-06 -2.289238569516497901e-06 -1.374904475319859748e-06 -8.388746653047383421e-07 -4.699442674654950609e-07 3.255369169408996958e-05 3.910910656993306193e-05 4.233667256505781445e-05 4.165027452269425245e-05 4.218881386330015459e-05 4.116386070361508837e-05 4.190907090348780793e-05 4.251252931033599488e-05 4.259735154135144760e-05 4.254454348694163322e-05 4.235876371644414697e-05 4.239772422051691118e-05 4.211854955458300514e-05 4.420311464033540905e-05 4.340218166898278363e-05 4.333060677894563822e-05 4.336782464815117728e-05 4.337245980811996876e-05 4.353572017145383282e-05 4.362536177411029933e-05 4.375802199364216765e-05 4.376212723794750572e-05 4.372847076293986636e-05 4.342263304245168218e-05 4.317622868058706829e-05 4.250217313801462742e-05
-4.704666118858695734e-05 -8.078897692045423359e-06 -9.222203774314571850e-06 -6.321875003599285597e-06 -1.531032765158807233e-06 -1.743013464879290934e-06 -2.283011177265704271e-06 -1.849418060318842369e-06 -1.947833191468151325e-06 -2.371329616051279298e-06 -1.521824975748234653e-06 -9.851649939917481776e-07 -5.977277664126276951e-07 3.199369605408533123e-05 3.798329146385251605e-05 4.150409941383741987e-05 4.084188058036392061e-05 4.116386070361508837e-05 4.031059090831237853e-05 4.103301886803311754e-05 4.162382107512616113e-05 4.172262306961778926e-05 4.167373430637189171e-05 4.150104787681708189e-05 4.158716639343315748e-05 4.141993529526322593e-05 4.338690903176818165e-05 4.256334737823376171e-05 4.257741972284884575e-05 4.260036078305530548e-05 4.262325145697012962e-05 4.278170357119462044e-05 4.287738014323052270e-05 4.301215239713645578e-05 4.302293219533642813e-05 4.299641309203274816e-05 4.271505547111258708e-05 4.251244940235045905e-05 4.193997365644946458e-05
-4.722485318057394692e-05 -8.232160354487692459e-06 -9.539419031012540102e-06 -6.460641694358815304e-06 -1.650269303705153267e-06 -1.741035629620294408e-06 -2.314051675905242044e-06 -1.879598932255395587e-06 -2.008418028739344011e-06 -2.429131706913543869e-06 -1.555876420131722957e-06 -9.991181374862290270e-07 -6.008577256015401421e-07 3.273053871516135407e-05 3.887979085785637422e-05 4.239496683831202832e-05 4.165509090408034485e-05 4.190907090348780793e-05 4.103301886803311754e-05 4.182398071413567672e-05 4.243247107817506075e-05 4.253774825863794847e-05 4.250801642328558332e-05 4.235331833432042376e-05 4.245501128929940991e-05 4.228282003340416982e-05 4.419018143531694756e-05 4.331221053487928585e-05 4.334379999231111259e-05 4.339010765697033688e-05 4.341486364308405822e-05 4.359032249682197297e-05 4.369816150248242911e-05 4.384404669848358343e-05 4.386681960617056029e-05 4.385620427137794467e-05 4.358990513060574608e-05 4.339969372033537656e-05 4.281727884955251857e-05
-4.832976865493838223e-05 -8.370958061923348284e-06 -9.717692715180806893e-06 -6.485671513439723506e-06 -1.660214842762955242e-06 -1.833226507087159260e-06 -2.364114944812918642e-06 -1.905606037656307173e-06 -2.038080543953317219e-06 -2.460142869928523376e-06 -1.572367812705977921e-06 -1.005630951507594547e-06 -6.027135234797433642e-07 3.323470260428357833e-05 3.941764502057750326e-05 4.303087981220807279e-05 4.227675285021434561e-05 4.251252931033599488e-05 4.162382107512616113e-05 4.243247107817506075e-05 4.306135077833630245e-05 4.316932250380926139e-05 4.313954898474157892e-05 4.298347022868523207e-05 4.309037746420082174e-05 4.291859201152495133e-05 4.481326447525927172e-05 4.394353866133455416e-05 4.396369960674076355e-05 4.402601827061999038e-05 4.404947386570367960e-05 4.422836959621113668e-05 4.433969191979990153e-05 4.449005800442758479e-05 4.451569923706876234e-05 4.450524282518673793e-05 4.423509732429608908e-05 4.404282980272355996e-05 4.345376286750474084e-05
-4.868845508950862447e-05 -8.635051208689970760e-06 -9.867408962254679798e-06 -6.518880435264002204e-06 -1.713177865242426365e-06 -1.889094069303416334e-06 -2.448334711634774693e-06 -1.983287191768066125e-06 -2.104258875537612996e-06 -2.520956374154791054e-06 -1.630781409064122854e-06 -1.053682425268812104e-06 -6.392526198314104117e-07 3.317826217436646525e-05 3.945759009089014444e-05 4.315941526466766860e-05 4.239178600983184816e-05 4.259735154135144760e-05 4.172262306961778926e-05 4.253774825863794847e-05 4.316932250380926139e-05 4.328990022632885049e-05 4.326882019105762864e-05 4.312778044245059000e-05 4.325331771090374245e-05 4.310307655839751062e-05 4.496418460021048914e-05 4.408517845479629837e-05 4.411988043881508414e-05 4.418812022747806991e-05 4.421735954120518529e-05 4.440295097497511719e-05 4.452262206656444306e-05 4.467818520821028775e-05 4.471081222621498696e-05 4.470644072215762982e-05 4.444426448384708532e-05 4.425990034974953930e-05 4.367908560679290123e-05
-4.845719936191422521e-05 -8.805632779582558370e-06 -9.950424105480100962e-06 -6.543104473399620515e-06 -1.766192709379011505e-06 -1.884314553592319620e-06 -2.474086093366595022e-06 -2.011404013199520275e-06 -2.132536799120405831e-06 -2.543631867537103767e-06 -1.646599453143770358e-06 -1.059625219738067758e-06 -6.415043346164304166e-07 3.309823899520023124e-05 3.946345116254972068e-05 4.317483034983881106e-05 4.236799516366174560e-05 4.254454348694161966e-05 4.167373430637189171e-05 4.250801642328558332e-05 4.313954898474157892e-05 4.326882019105762864e-05 4.326348274382378595e-05 4.314032517356087881e-05 4.327846501364035432e-05 4.313351621544999948e-05 4.491865683453887963e-05 4.402719224346182859e-05 4.408021933596183276e-05 4.415795905059108334e-05 4.418748366514522926e-05 4.438255307320638338e-05 4.451073495992475333e-05 4.467285135605217279e-05 4.471534448034042664e-05 4.472161566405227187e-05 4.447177649245604239e-05 4.429464979798018688e-05 4.371536021936589593e-05
-4.844686055617174940e-05 -8.978420217555503104e-06 -1.002930017657135216e-05 -6.563993043947585529e-06 -1.848795724054003153e-06 -1.895832357242186284e-06 -2.560893817934471980e-06 -2.092852361217751198e-06 -2.209398389945105761e-06 -2.608344345624236926e-06 -1.705318778185840234e-06 -1.105185002812312048e-06 -6.684028429364776833e-07 3.276076306497920955e-05 3.931870969468694114e-05 4.305175977406675215e-05 4.221676031274209702e-05 4.235876371644414697e-05 4.150104787681708189e-05 4.235331833432042376e-05 4.298347022868522529e-05 4.312778044245059000e-05 4.314032517356087881e-05 4.304711054106963449e-05 4.321619140874056331e-05 4.309940853287312098e-05 4.480801312104286231e-05 4.389163236211863914e-05 4.396884295232253729e-05 4.405835743221376107e-05 4.409124281079212474e-05 4.429974200863394265e-05 4.444053453409983902e-05 4.460981349062705998e-05 4.466396544642679942e-05 4.468252087907608768e-05 4.445063793580637638e-05 4.428919405384269928e-05 4.372081303473564765e-05
-4.929517090097355696e-05 -9.501990448425826237e-06 -1.010621070214244635e-05 -6.626931090116487299e-06 -1.960666445005901982e-06 -1.946714443821278821e-06 -2.721297621540104466e-06 -2.240905619624978770e-06 -2.348964064765299307e-06 -2.733349515243659075e-06 -1.830927745972815087e-06 -1.213673987767066365e-06 -7.399904685630515473e-07 3.255490643450712461e-05 3.932294199631373034e-05 4.316672408583164448e-05 4.232932137991835854e-05 4.239772422051691118e-05 4.158716639343315748e-05 4.245501128929940991e-05 4.309037746420082851e-05 4.325331771090374245e-05 4.327846501364035432e-05 4.321619140874056331e-05 4.343792780380203240e-05 4.338822009176750253e-05 4.503670838881412044e-05 4.407626082524142622e-05 4.419028189094999698e-05 4.429174624565952501e-05 4.433079458501200176e-05 4.455455893364912738e-05 4.470911269320264461e-05 4.488534367556633943e-05 4.495032359249903007e-05 4.497945636752068897e-05 4.476689386934588975e-05 4.463301391354682605e-05 4.410003057286650534e-05
-5.031269348775976657e-05 -1.057775707387449482e-05 -1.007040137815820700e-05 -6.792878299302755787e-06 -2.102164903682681685e-06 -2.040585621475075191e-06 -2.922495064748338216e-06 -2.440000222355504065e-06 -2.530422479232614586e-06 -2.892261602792297758e-06 -2.020189929263055340e-06 -1.388384993128732705e-06 -8.706774312963562448e-07 3.216775554803353980e-05 3.892582482616996830e-05 4.299558970840753719e-05 4.219360555422157447e-05 4.211854955458300514e-05 4.141993529526322593e-05 4.228282003340416305e-05 4.291859201152495133e-05 4.310307655839751062e-05 4.313351621544999948e-05 4.309940853287312098e-05 4.338822009176750930e-05 4.345112930513607804e-05 4.504354315844464913e-05 4.403267395289422602e-05 4.421022444756526161e-05 4.431109044909332055e-05 4.436582850045329404e-05 4.459812643673744523e-05 4.476525608255194907e-05 4.494593880130225171e-05 4.501882936461959890e-05 4.505514136265510364e-05 4.486465103387984426e-05 4.477221000815312450e-05 4.431554427649125920e-05
-5.145348063342213745e-05 -9.319320568427470359e-06 -1.021634105405266340e-05 -7.131724612637779142e-06 -2.008643333030866819e-06 -1.933600185638516027e-06 -2.941051832014623034e-06 -2.479575792885731137e-06 -2.553112266679245869e-06 -2.980659864279845915e-06 -2.083593108535251379e-06 -1.480922562747568600e-06 -9.281336940849527390e-07 3.372418340771936838e-05 4.059324474413489347e-05 4.466296785167769531e-05 4.398906343799228108e-05 4.420311464033540905e-05 4.338690903176818165e-05 4.419018143531694756e-05 4.481326447525927172e-05 4.496418460021048914e-05 4.491865683453887285e-05 4.480801312104286231e-05 4.503670838881412044e-05 4.504354315844464913e-05 4.732405995586807271e-05 4.625459303901839327e-05 4.634766677850646099e-05 4.635959638515884225e-05 4.643034607518351935e-05 4.662218159775664334e-05 4.675415303336042495e-05 4.690182716704586726e-05 4.691863762854282078e-05 4.690281553127518047e-05 4.664313713513242639e-05 4.650304797351589175e-05 4.596414057592188398e-05
-5.127847984317762220e-05 -9.001688997591672354e-06 -1.006023940341699066e-05 -6.790897526769477962e-06 -1.793575657260085668e-06 -2.083988301023219389e-06 -2.861773937406071483e-06 -2.369328164172363169e-06 -2.401703712896376572e-06 -2.835788681080500678e-06 -1.938990246812743326e-06 -1.355691877426436055e-06 -8.404855096545682071e-07 3.322023588966769328e-05 3.954124736992471468e-05 4.378389885870492631e-05 4.311280849682307576e-05 4.340218166898278363e-05 4.256334737823376171e-05 4.331221053487929263e-05 4.394353866133455416e-05 4.408517845479629837e-05 4.402719224346182859e-05 4.389163236211863914e-05 4.407626082524143300e-05 4.403267395289422602e-05 4.625459303901839327e-05 4.534740894224630211e-05 4.536784341722365632e-05 4.539268249660554467e-05 4.545138971753880081e-05 4.561989716496133872e-05 4.574222402428418681e-05 4.588626984269292318e-05 4.589873039159557308e-05 4.586746750896503259e-05 4.558328239536888968e-05 4.540688173984689285e-05 4.483543150492060806e-05
-5.114593486725636101e-05 -1.017506890023743228e-05 -1.002063536524392653e-05 -7.229830698626326634e-06 -1.979686075519527093e-06 -2.060101907277390386e-06 -2.931540841658732055e-06 -2.473568409276583772e-06 -2.512460788046959652e-06 -2.930958779628040255e-06 -2.057358380914424365e-06 -1.454137414468526917e-06 -9.225500889057920073e-07 3.325185725581580339e-05 3.952461414487491877e-05 4.387453639255004000e-05 4.317909564502908187e-05 4.333060677894563822e-05 4.257741972284884575e-05 4.334379999231111259e-05 4.396369960674076355e-05 4.411988043881508414e-05 4.408021933596183276e-05 4.396884295232253729e-05 4.419028189094999698e-05 4.421022444756526161e-05 4.634766677850646099e-05 4.536784341722365632e-05 4.548001248045327390e-05 4.548787241967422923e-05 4.556037844815970955e-05 4.573737904740068482e-05 4.587141765075638812e-05 4.602287058906252479e-05 4.604606475213373501e-05 4.602934413396547422e-05 4.576920152710331577e-05 4.562362598582665784e-05 4.510712746975266256e-05
-5.157485260417190643e-05 -9.999921564062697003e-06 -1.016395759045985939e-05 -7.007486651201243380e-06 -1.967238027260679864e-06 -2.117034029793367377e-06 -2.959434977996274779e-06 -2.474163266264086989e-06 -2.519809270048160131e-06 -2.930377345562042588e-06 -2.044945980600766198e-06 -1.436220519153910448e-06 -9.045165302675802637e-07 3.320034937585242057e-05 3.962890063833238012e-05 4.395300753824362702e-05 4.323885977504361521e-05 4.336782464815117051e-05 4.260036078305530548e-05 4.339010765697034366e-05 4.402601827061999038e-05 4.418812022747806991e-05 4.415795905059108334e-05 4.405835743221375429e-05 4.429174624565952501e-05 4.431109044909332733e-05 4.635959638515884225e-05 4.539268249660553789e-05 4.548787241967422245e-05 4.552836684636771774e-05 4.559510126763122965e-05 4.578398596048196493e-05 4.592466416838434854e-05 4.608244248768997943e-05 4.611476071719738397e-05 4.610562896419545705e-05 4.585321515984864025e-05 4.571223190415112054e-05 4.519275392156212620e-05
-5.155003074485253864e-05 -1.024515784844292216e-05 -1.026463310594437066e-05 -7.126732622522280363e-06 -2.018698170481144966e-06 -2.160662255295595335e-06 -3.002544995754000677e-06 -2.523966274551133156e-06 -2.565374781440957233e-06 -2.972167364539714450e-06 -2.096177672139033516e-06 -1.483948270679767731e-06 -9.468010592413684022e-07 3.325110784062856840e-05 3.959139818967384795e-05 4.399938352493325077e-05 4.328321900732059866e-05 4.337245980811996876e-05 4.262325145697012962e-05 4.341486364308406499e-05 4.404947386570367960e-05 4.421735954120518529e-05 4.418748366514522248e-05 4.409124281079212474e-05 4.433079458501200176e-05 4.436582850045329404e-05 4.643034607518351935e-05 4.545138971753880081e-05 4.556037844815970955e-05 4.559510126763122287e-05 4.567276814932071419e-05 4.585945454215016446e-05 4.600329694953691334e-05 4.616222397070917608e-05 4.619485563195295627e-05 4.618670123064370258e-05 4.593741981936267494e-05 4.580268916444359741e-05 4.529362389325905790e-05
-5.183400254116103981e-05 -1.022038784976940479e-05 -1.035445247931104979e-05 -7.074738964590463803e-06 -2.050201526770127125e-06 -2.150527547373480619e-06 -3.037215324299384655e-06 -2.550365053640878615e-06 -2.598106232692863110e-06 -3.000376975593664339e-06 -2.115633940096704479e-06 -1.495469791851046526e-06 -9.513904510628668840e-07 3.323106192115831260e-05 3.983102869546522597e-05 4.418167419586106797e-05 4.345621576886668025e-05 4.353572017145382605e-05 4.278170357119462044e-05 4.359032249682195942e-05 4.422836959621114346e-05 4.440295097497512397e-05 4.438255307320638338e-05 4.429974200863394265e-05 4.455455893364912738e-05 4.459812643673744523e-05 4.662218159775664334e-05 4.561989716496134549e-05 4.573737904740067805e-05 4.578398596048197171e-05 4.585945454215015768e-05 4.605827891896110027e-05 4.620801241996995505e-05 4.637122100095628487e-05 4.641050676648306368e-05 4.640991211826403143e-05 4.616951751772307029e-05 4.604227296012063591e-05 4.553607165634412641e-05
-5.203610787072004122e-05 -1.041048090119043478e-05 -1.046039564736059699e-05 -7.122542611791659525e-06 -2.098146950454059348e-06 -2.183540795617640122e-06 -3.090854848285719913e-06 -2.599638115816682852e-06 -2.643873288391246092e-06 -3.041838817345169661e-06 -2.152197621619921882e-06 -1.522926797226764452e-06 -9.702236004067955117e-07 3.324976792622758465e-05 3.990985855347449642e-05 4.431827771947623905e-05 4.357204150597638573e-05 4.362536177411029933e-05 4.287738014323052270e-05 4.369816150248243588e-05 4.433969191979989476e-05 4.452262206656444306e-05 4.451073495992474656e-05 4.444053453409983902e-05 4.470911269320265139e-05 4.476525608255194907e-05 4.675415303336042495e-05 4.574222402428418681e-05 4.587141765075639489e-05 4.592466416838435531e-05 4.600329694953690657e-05 4.620801241996995505e-05 4.636464305308285434e-05 4.653256296870996031e-05 4.657798504176875238e-05 4.658324688432094761e-05 4.634997044882750505e-05 4.622898555043058430e-05 4.572630891678997782e-05
-5.221963405775291228e-05 -1.057075711876268896e-05 -1.055056361427790111e-05 -7.157222199535897852e-06 -2.128115711325007740e-06 -2.210419419454949734e-06 -3.119837631388981669e-06 -2.625088362516189922e-06 -2.668379541737742773e-06 -3.064309535572577757e-06 -2.169657423713895021e-06 -1.533281331648025878e-06 -9.775994057218885190e-07 3.334917321564730586e-05 4.003876063881487194e-05 4.449177476995154164e-05 4.372566324129542012e-05 4.375802199364216765e-05 4.301215239713645578e-05 4.384404669848357666e-05 4.449005800442758479e-05 4.467818520821028775e-05 4.467285135605217279e-05 4.460981349062705320e-05 4.488534367556633266e-05 4.494593880130225171e-05 4.690182716704586726e-05 4.588626984269292318e-05 4.602287058906252479e-05 4.608244248768997943e-05 4.616222397070917608e-05 4.637122100095627809e-05 4.653256296870996031e-05 4.670446466912621413e-05 4.675476294609481691e-05 4.676449769707979187e-05 4.653550080766053355e-05 4.641739919642737862e-05 4.591529924660254434e-05
-5.226582941199318287e-05 -1.073584108794381604e-05 -1.062758600014976531e-05 -7.154248293300627025e-06 -2.160368460837378082e-06 -2.228654292952837255e-06 -3.150611811315904456e-06 -2.653042496038178998e-06 -2.694181158461896404e-06 -3.085821659268984275e-06 -2.187033088667046647e-06 -1.543327723858962760e-06 -9.841746700723032128e-07 3.331756927423640632e-05 4.006116781653652038e-05 4.454528850527578919e-05 4.375603768537963701e-05 4.376212723794750572e-05 4.302293219533642813e-05 4.386681960617056707e-05 4.451569923706876234e-05 4.471081222621499374e-05 4.471534448034042664e-05 4.466396544642679942e-05 4.495032359249903007e-05 4.501882936461959890e-05 4.691863762854282078e-05 4.589873039159557308e-05 4.604606475213373501e-05 4.611476071719738397e-05 4.619485563195295627e-05 4.641050676648307045e-05 4.657798504176875238e-05 4.675476294609481691e-05 4.681213534420240334e-05 4.682872294565732462e-05 4.660763153891994448e-05 4.649505721173863694e-05 4.599667876457404529e-05
-5.207166132119653160e-05 -1.086099438841537589e-05 -1.069783199222684166e-05 -7.153948087084841224e-06 -2.201456598226065803e-06 -2.220216664993332723e-06 -3.168251560134598040e-06 -2.674203855665941815e-06 -2.717916586071097065e-06 -3.104931044149683082e-06 -2.204000265292954389e-06 -1.554119922296292685e-06 -9.917502770999771208e-07 3.327601902234767330e-05 4.008763853278097552e-05 4.456664166116512628e-05 4.375303645371308759e-05 4.372847076293986636e-05 4.299641309203275493e-05 4.385620427137795145e-05 4.450524282518674471e-05 4.470644072215762982e-05 4.472161566405227187e-05 4.468252087907608768e-05 4.497945636752069575e-05 4.505514136265510364e-05 4.690281553127517369e-05 4.586746750896503259e-05 4.602934413396547422e-05 4.610562896419545705e-05 4.618670123064370258e-05 4.640991211826403821e-05 4.658324688432094761e-05 4.676449769707979187e-05 4.682872294565732462e-05 4.685338018031922627e-05 4.664234375752891704e-05 4.653757567259764996e-05 4.604430434551907086e-05
-5.165107635096904211e-05 -1.103647941913850186e-05 -1.071406353861409055e-05 -7.140315206159115513e-06 -2.258908552497321615e-06 -2.201208788097937231e-06 -3.193726478886403602e-06 -2.707198711525573546e-06 -2.754680742258637155e-06 -3.131052838740267614e-06 -2.236801938356578379e-06 -1.581990312939574751e-06 -1.012585145584845606e-06 3.300418519436263700e-05 3.987335756710364806e-05 4.433092548348794562e-05 4.350034093676460596e-05 4.342263304245168218e-05 4.271505547111259385e-05 4.358990513060574608e-05 4.423509732429608908e-05 4.444426448384708532e-05 4.447177649245604239e-05 4.445063793580637638e-05 4.476689386934588297e-05 4.486465103387984426e-05 4.664313713513242639e-05 4.558328239536888968e-05 4.576920152710331577e-05 4.585321515984864025e-05 4.593741981936267494e-05 4.616951751772307029e-05 4.634997044882750505e-05 4.653550080766054032e-05 4.660763153891993771e-05 4.664234375752891704e-05 4.644724182058357462e-05 4.635825081390673844e-05 4.588334723467077977e-05
-5.154818275022490082e-05 -1.137199044633547332e-05 -1.070710294974076922e-05 -7.171124933042401161e-06 -2.332017319948414436e-06 -2.197791481714247259e-06 -3.244657731678722967e-06 -2.765545931670729705e-06 -2.818034661440633960e-06 -3.181930859887213018e-06 -2.302168783972589177e-06 -1.642574864938579036e-06 -1.058539426995241674e-06 3.279739712975599859e-05 3.968863362454256081e-05 4.415971875765983720e-05 4.333104594238309929e-05 4.317622868058706829e-05 4.251244940235045905e-05 4.339969372033537656e-05 4.404282980272355996e-05 4.425990034974953930e-05 4.429464979798019365e-05 4.428919405384269250e-05 4.463301391354682605e-05 4.477221000815312450e-05 4.650304797351589175e-05 4.540688173984688608e-05 4.562362598582665784e-05 4.571223190415112732e-05 4.580268916444359741e-05 4.604227296012063591e-05 4.622898555043058430e-05 4.641739919642738540e-05 4.649505721173863694e-05 4.653757567259765674e-05 4.635825081390673844e-05 4.629138384246125513e-05 4.584931550289739546e-05
-5.165600169171539986e-05 -1.214207086448798706e-05 -1.052216819969374981e-05 -7.246250404176860117e-06 -2.405138230368357305e-06 -2.227381995700827928e-06 -3.292832303085082787e-06 -2.824918330926455465e-06 -2.883352221722832934e-06 -3.222911345878403296e-06 -2.388789521457500601e-06 -1.728242550964433416e-06 -1.136043916715389275e-06 3.229240117232257703e-05 3.906754269848882654e-05 4.357571693636719539e-05 4.279665864770825439e-05 4.250217313801462742e-05 4.193997365644945780e-05 4.281727884955251179e-05 4.345376286750473406e-05 4.367908560679290123e-05 4.371536021936588915e-05 4.372081303473564765e-05 4.410003057286650534e-05 4.431554427649125920e-05 4.596414057592188398e-05 4.483543150492060806e-05 4.510712746975266256e-05 4.519275392156212620e-05 4.529362389325906468e-05 4.553607165634412641e-05 4.572630891678997782e-05 4.591529924660254434e-05 4.599667876457404529e-05 4.604430434551907086e-05 4.588334723467077977e-05 4.584931550289739546e-05 4.548173409618669821e-05
